{"learner":{"attributes":{},"feature_names":["eta_minutes","ride_time_minutes","walk_time_minutes","walk_distance_meters","transfer_count","load_score","history_flow_score","congestion_score","data_freshness_seconds","monitored_score","completeness_score","avg_service_frequency_minutes"],"feature_types":["float","float","float","float","float","float","float","float","float","float","float","float"],"gradient_booster":{"model":{"cats":{"enc":[],"feature_segments":[],"sorted_idx":[]},"gbtree_model_param":{"num_parallel_tree":"1","num_trees":"320"},"iteration_indptr":[0,1,2,3,4,5,6,7,8,9,10,11,12,13,14,15,16,17,18,19,20,21,22,23,24,25,26,27,28,29,30,31,32,33,34,35,36,37,38,39,40,41,42,43,44,45,46,47,48,49,50,51,52,53,54,55,56,57,58,59,60,61,62,63,64,65,66,67,68,69,70,71,72,73,74,75,76,77,78,79,80,81,82,83,84,85,86,87,88,89,90,91,92,93,94,95,96,97,98,99,100,101,102,103,104,105,106,107,108,109,110,111,112,113,114,115,116,117,118,119,120,121,122,123,124,125,126,127,128,129,130,131,132,133,134,135,136,137,138,139,140,141,142,143,144,145,146,147,148,149,150,151,152,153,154,155,156,157,158,159,160,161,162,163,164,165,166,167,168,169,170,171,172,173,174,175,176,177,178,179,180,181,182,183,184,185,186,187,188,189,190,191,192,193,194,195,196,197,198,199,200,201,202,203,204,205,206,207,208,209,210,211,212,213,214,215,216,217,218,219,220,221,222,223,224,225,226,227,228,229,230,231,232,233,234,235,236,237,238,239,240,241,242,243,244,245,246,247,248,249,250,251,252,253,254,255,256,257,258,259,260,261,262,263,264,265,266,267,268,269,270,271,272,273,274,275,276,277,278,279,280,281,282,283,284,285,286,287,288,289,290,291,292,293,294,295,296,297,298,299,300,301,302,303,304,305,306,307,308,309,310,311,312,313,314,315,316,317,318,319,320],"tree_info":[0,0,0,0,0,0,0,0,0,0,0,0,0,0,0,0,0,0,0,0,0,0,0,0,0,0,0,0,0,0,0,0,0,0,0,0,0,0,0,0,0,0,0,0,0,0,0,0,0,0,0,0,0,0,0,0,0,0,0,0,0,0,0,0,0,0,0,0,0,0,0,0,0,0,0,0,0,0,0,0,0,0,0,0,0,0,0,0,0,0,0,0,0,0,0,0,0,0,0,0,0,0,0,0,0,0,0,0,0,0,0,0,0,0,0,0,0,0,0,0,0,0,0,0,0,0,0,0,0,0,0,0,0,0,0,0,0,0,0,0,0,0,0,0,0,0,0,0,0,0,0,0,0,0,0,0,0,0,0,0,0,0,0,0,0,0,0,0,0,0,0,0,0,0,0,0,0,0,0,0,0,0,0,0,0,0,0,0,0,0,0,0,0,0,0,0,0,0,0,0,0,0,0,0,0,0,0,0,0,0,0,0,0,0,0,0,0,0,0,0,0,0,0,0,0,0,0,0,0,0,0,0,0,0,0,0,0,0,0,0,0,0,0,0,0,0,0,0,0,0,0,0,0,0,0,0,0,0,0,0,0,0,0,0,0,0,0,0,0,0,0,0,0,0,0,0,0,0,0,0,0,0,0,0,0,0,0,0,0,0,0,0,0,0,0,0,0,0,0,0,0,0,0,0,0,0,0,0,0,0,0,0,0,0,0,0,0,0,0,0],"trees":[{"base_weights":[-2.159357E-3,-2.6629987E0,2.0470636E0,-6.1337314E0,-2.0912533E0,-2.252768E0,2.9160454E0,-3.5514674E-1,-5.3196244E0,-1.6241435E0,-2.136392E0,-7.250186E0,-1.5685512E0,3.1038792E0,2.8473372E0,-1.7260933E-1,-2.2671716E-1,-8.345821E-3,-6.746035E-2,-7.316493E-2,-8.771216E-2,-3.634696E-1,-2.4797156E-1,-1.1851288E-1,-3.014001E-2,1.2496609E-1,8.774584E-2,1.14128865E-1,-5.5036875E-3],"categories":[],"categories_nodes":[],"categories_segments":[],"categories_sizes":[],"default_left":[0,0,0,0,0,0,0,0,0,0,0,0,0,0,0,0,0,0,0,0,0,0,0,0,0,0,0,0,0],"id":0,"left_children":[1,3,5,7,9,11,13,-1,15,17,19,21,23,25,27,-1,-1,-1,-1,-1,-1,-1,-1,-1,-1,-1,-1,-1,-1],"loss_changes":[3.934015E4,6.203287E3,1.5242527E4,8.95334E2,4.994922E1,2.3241528E3,2.609375E1,0E0,7.233496E1,2.1020874E1,3.451367E1,4.5800293E1,6.8449023E2,2.6455078E0,4.4822266E1,0E0,0E0,0E0,0E0,0E0,0E0,0E0,0E0,0E0,0E0,0E0,0E0,0E0,0E0],"parents":[2147483647,0,0,1,1,2,2,3,3,4,4,5,5,6,6,8,8,9,9,10,10,11,11,12,12,13,13,14,14],"right_children":[2,4,6,8,10,12,14,-1,16,18,20,22,24,26,28,-1,-1,-1,-1,-1,-1,-1,-1,-1,-1,-1,-1,-1,-1],"split_conditions":[1E2,8.2E1,8.2E1,7.6E1,2.2E1,7E1,4E1,-3.5514674E-1,9.93E0,5E1,6E1,6.4E1,7.6E1,8E1,4.065E1,-1.7260933E-1,-2.2671716E-1,-8.345821E-3,-6.746035E-2,-7.316493E-2,-8.771216E-2,-3.634696E-1,-2.4797156E-1,-1.1851288E-1,-3.014001E-2,1.2496609E-1,8.774584E-2,1.14128865E-1,-5.5036875E-3],"split_indices":[9,10,10,10,1,10,1,0,0,7,7,10,10,7,0,0,0,0,0,0,0,0,0,0,0,0,0,0,0],"split_type":[0,0,0,0,0,0,0,0,0,0,0,0,0,0,0,0,0,0,0,0,0,0,0,0,0,0,0,0,0],"sum_hessian":[7.2108643E3,3.1369946E3,4.0738696E3,4.4092725E2,2.6960676E3,6.843643E2,3.3895051E3,9.6327156E1,3.4460007E2,2.4409262E2,2.4519749E3,8.0104004E1,6.042603E2,8.841291E2,2.5053762E3,9.562597E1,2.489741E2,1.0667409E1,2.3342522E2,3.9070447E2,2.0612705E3,2.3588041E1,5.6515965E1,2.2097615E2,3.8328415E2,8.601079E2,2.4021194E1,2.5005352E3,4.841091E0],"tree_param":{"num_deleted":"0","num_feature":"12","num_nodes":"29","size_leaf_vector":"1"}},{"base_weights":[-2.4512196E-3,-2.555371E0,1.9937714E0,-2.4009106E0,-4.855227E0,-5.491939E0,2.143953E0,-3.4115157E0,-2.148713E0,-3.1309202E0,-5.956297E0,4.171813E-1,-2.664423E-1,2.2011182E0,-7.6525027E-1,-1.6604438E-1,-1.2107994E-1,-9.804281E-2,-7.8185394E-2,-1.4102215E-1,-1.18126655E-2,-3.3961084E-1,-2.0281021E-1,1.1994364E-1,-6.203427E-2,7.4063405E-2,9.846989E-2,-1.1231332E-3,-1.4494191E-1],"categories":[],"categories_nodes":[],"categories_segments":[],"categories_sizes":[],"default_left":[0,0,0,0,0,0,0,0,0,0,0,0,0,0,0,0,0,0,0,0,0,0,0,0,0,0,0,0,0],"id":1,"left_children":[1,3,5,7,9,11,13,15,17,19,21,23,-1,25,27,-1,-1,-1,-1,-1,-1,-1,-1,-1,-1,-1,-1,-1,-1],"loss_changes":[3.6853348E4,1.103959E3,4.5859014E3,7.442285E2,3.3815137E2,5.6085034E2,6.652422E2,1.4301318E2,1.3056543E2,8.88739E1,1.7989551E2,8.630982E1,0E0,3.4650195E2,1.6452731E2,0E0,0E0,0E0,0E0,0E0,0E0,0E0,0E0,0E0,0E0,0E0,0E0,0E0,0E0],"parents":[2147483647,0,0,1,1,2,2,3,3,4,4,5,5,6,6,7,7,8,8,9,9,10,10,11,11,13,13,14,14],"right_children":[2,4,6,8,10,12,14,16,18,20,22,24,-1,26,28,-1,-1,-1,-1,-1,-1,-1,-1,-1,-1,-1,-1,-1,-1],"split_conditions":[1E2,5.54602E4,3.465536E4,3.467832E4,9E0,8.5E0,7.386816E4,3.466411E4,3.469911E4,6.3E0,1.115E1,4.4E1,-2.664423E-1,3.467214E4,1.0670913E5,-1.6604438E-1,-1.2107994E-1,-9.804281E-2,-7.8185394E-2,-1.4102215E-1,-1.18126655E-2,-3.3961084E-1,-2.0281021E-1,1.1994364E-1,-6.203427E-2,7.4063405E-2,9.846989E-2,-1.1231332E-3,-1.4494191E-1],"split_indices":[9,8,8,8,0,11,8,8,8,0,0,1,0,8,8,0,0,0,0,0,0,0,0,0,0,0,0,0,0],"split_type":[0,0,0,0,0,0,0,0,0,0,0,0,0,0,0,0,0,0,0,0,0,0,0,0,0,0,0,0,0],"sum_hessian":[7.2275405E3,3.1712925E3,4.0562478E3,2.97554E3,1.9575229E2,7.837862E1,3.9778691E3,5.892489E2,2.3862913E3,7.928178E1,1.1647051E2,1.3158328E1,6.522029E1,3.9016887E3,7.6180534E1,1.9485892E2,3.9438995E2,9.2381213E2,1.4624791E3,6.916885E1,1.01129265E1,2.5727732E1,9.074278E1,5.239094E0,7.9192343E0,1.6735189E3,2.2281697E3,6.2166954E1,1.401358E1],"tree_param":{"num_deleted":"0","num_feature":"12","num_nodes":"29","size_leaf_vector":"1"}},{"base_weights":[1.1601151E-2,-2.4303203E0,1.9045815E0,-5.745098E0,-1.8768463E0,-2.126553E0,2.7229986E0,-3.3412305E-1,-5.029718E0,-1.4140154E0,-1.9211193E0,-6.680586E0,-1.5228583E0,2.8999603E0,2.6573646E0,-1.638976E-1,-2.138144E-1,-1.0315134E-2,-5.8978286E-2,-6.562924E-2,-7.899483E-2,-3.4185877E-1,-2.2743341E-1,-1.1378553E-1,-3.165499E-2,1.1364033E-1,1.3677733E-1,1.0646006E-1,7.444089E-4],"categories":[],"categories_nodes":[],"categories_segments":[],"categories_sizes":[],"default_left":[0,0,0,0,0,0,0,0,0,0,0,0,0,0,0,0,0,0,0,0,0,0,0,0,0,0,0,0,0],"id":2,"left_children":[1,3,5,7,9,11,13,-1,15,17,19,21,23,25,27,-1,-1,-1,-1,-1,-1,-1,-1,-1,-1,-1,-1,-1,-1],"loss_changes":[3.3186246E4,5.730176E3,1.3353978E4,7.5105664E2,4.967578E1,1.8591106E3,2.3644531E1,0E0,6.1036133E1,1.6177002E1,3.0430664E1,5.0233887E1,5.8160925E2,7.7597656E0,2.6935547E1,0E0,0E0,0E0,0E0,0E0,0E0,0E0,0E0,0E0,0E0,0E0,0E0,0E0,0E0],"parents":[2147483647,0,0,1,1,2,2,3,3,4,4,5,5,6,6,8,8,9,9,10,10,11,11,12,12,13,13,14,14],"right_children":[2,4,6,8,10,12,14,-1,16,18,20,22,24,26,28,-1,-1,-1,-1,-1,-1,-1,-1,-1,-1,-1,-1,-1,-1],"split_conditions":[1E2,8.2E1,8.2E1,7.6E1,2.2E1,7E1,4E1,-3.3412305E-1,9.93E0,5E1,6E1,6.4E1,7.6E1,2.895E1,4.065E1,-1.638976E-1,-2.138144E-1,-1.0315134E-2,-5.8978286E-2,-6.562924E-2,-7.899483E-2,-3.4185877E-1,-2.2743341E-1,-1.1378553E-1,-3.165499E-2,1.1364033E-1,1.3677733E-1,1.0646006E-1,7.444089E-4],"split_indices":[9,10,10,10,1,10,1,0,0,7,7,10,10,0,0,0,0,0,0,0,0,0,0,0,0,0,0,0,0],"split_type":[0,0,0,0,0,0,0,0,0,0,0,0,0,0,0,0,0,0,0,0,0,0,0,0,0,0,0,0,0],"sum_hessian":[7.1752676E3,3.1330735E3,4.042194E3,4.4559952E2,2.687474E3,6.816268E2,3.3605674E3,9.132264E1,3.542769E2,2.4038303E2,2.447091E3,7.742571E1,6.0420105E2,8.858294E2,2.4747378E3,9.668164E1,2.5759525E2,1.2465934E1,2.279171E2,4.0379477E2,2.0432963E3,2.1644093E1,5.5781616E1,2.1319072E2,3.9101035E2,8.07167E2,7.8662384E1,2.4708472E3,3.890732E0],"tree_param":{"num_deleted":"0","num_feature":"12","num_nodes":"29","size_leaf_vector":"1"}},{"base_weights":[-1.0768279E-2,-2.3478377E0,1.8137729E0,-5.5379047E0,-1.8229121E0,-2.0779467E0,2.6058276E0,-3.1752157E-1,-4.818543E0,-1.7175636E0,-3.3113298E0,-6.456896E0,-1.506877E0,2.6451879E0,1.7490078E0,-1.576957E-1,-2.0477192E-1,-9.068813E-2,-6.275964E-2,-9.731443E-2,-1.6786215E-1,-3.2696357E-1,-2.2027612E-1,-1.1060753E-1,-2.9992463E-2,1.0051575E-1,1.0965886E-1,8.0792084E-2,1.714976E-2],"categories":[],"categories_nodes":[],"categories_segments":[],"categories_sizes":[],"default_left":[0,0,0,0,0,0,0,0,0,0,0,0,0,0,0,0,0,0,0,0,0,0,0,0,0,0,0,0,0],"id":3,"left_children":[1,3,5,7,9,11,13,-1,15,17,19,21,23,25,27,-1,-1,-1,-1,-1,-1,-1,-1,-1,-1,-1,-1,-1,-1],"loss_changes":[3.0705943E4,5.266533E3,1.2476187E4,6.9201953E2,4.1418555E2,1.6934419E3,1.040957E2,0E0,5.1219727E1,2.0020361E2,1.1741016E2,3.78916E1,5.7558044E2,2.7103516E1,5.3154053E1,0E0,0E0,0E0,0E0,0E0,0E0,0E0,0E0,0E0,0E0,0E0,0E0,0E0,0E0],"parents":[2147483647,0,0,1,1,2,2,3,3,4,4,5,5,6,6,8,8,9,9,10,10,11,11,12,12,13,13,14,14],"right_children":[2,4,6,8,10,12,14,-1,16,18,20,22,24,26,28,-1,-1,-1,-1,-1,-1,-1,-1,-1,-1,-1,-1,-1,-1],"split_conditions":[1E2,8.2E1,8.2E1,7.6E1,4.151323E4,7E1,3.865519E4,-3.1752157E-1,9.93E0,3.468014E4,1.493E1,6.4E1,7.6E1,3.467214E4,4.18E0,-1.576957E-1,-2.0477192E-1,-9.068813E-2,-6.275964E-2,-9.731443E-2,-1.6786215E-1,-3.2696357E-1,-2.2027612E-1,-1.1060753E-1,-2.9992463E-2,1.0051575E-1,1.0965886E-1,8.0792084E-2,1.714976E-2],"split_indices":[9,10,10,10,8,10,8,0,0,8,0,10,10,8,0,0,0,0,0,0,0,0,0,0,0,0,0,0,0],"split_type":[0,0,0,0,0,0,0,0,0,0,0,0,0,0,0,0,0,0,0,0,0,0,0,0,0,0,0,0,0],"sum_hessian":[7.197074E3,3.1551035E3,4.041971E3,4.4311496E2,2.7119885E3,6.829727E2,3.3589983E3,9.755504E1,3.4555994E2,2.5367483E3,1.7524026E2,7.641454E1,6.0655817E2,3.2074795E3,1.515187E2,9.5517685E1,2.5004225E2,5.3372565E2,2.0030226E3,9.1718376E1,8.35219E1,2.1800148E1,5.4614395E1,2.2585748E2,3.8070068E2,1.3739142E3,1.8335653E3,1.2485125E2,2.666746E1],"tree_param":{"num_deleted":"0","num_feature":"12","num_nodes":"29","size_leaf_vector":"1"}},{"base_weights":[5.9099245E-4,-2.2498853E0,1.7591958E0,-5.324362E0,-1.7495383E0,-1.9613116E0,2.4922316E0,-3.0829072E-1,-4.6343226E0,-1.6493447E0,-3.2455606E0,-6.2041965E0,-1.4150108E0,2.5294344E0,1.6811382E0,-1.4542106E-1,-1.9502845E-1,-8.7774225E-2,-6.016196E-2,-9.280063E-2,-1.6376252E-1,-3.0805895E-1,-2.1412086E-1,-1.0576937E-1,-2.8680045E-2,1.1001676E-1,9.801582E-2,7.7748746E-2,2.1361703E-2],"categories":[],"categories_nodes":[],"categories_segments":[],"categories_sizes":[],"default_left":[0,0,0,0,0,0,0,0,0,0,0,0,0,0,0,0,0,0,0,0,0,0,0,0,0,0,0,0,0],"id":4,"left_children":[1,3,5,7,9,11,13,-1,15,17,19,21,23,25,27,-1,-1,-1,-1,-1,-1,-1,-1,-1,-1,-1,-1,-1,-1],"loss_changes":[2.8559943E4,4.85083E3,1.1057466E4,6.5546387E2,3.9780762E2,1.5304932E3,9.363672E1,0E0,4.8407227E1,1.9599268E2,1.1372778E2,1.3886475E1,5.06104E2,4.298242E1,4.4434204E1,0E0,0E0,0E0,0E0,0E0,0E0,0E0,0E0,0E0,0E0,0E0,0E0,0E0,0E0],"parents":[2147483647,0,0,1,1,2,2,3,3,4,4,5,5,6,6,8,8,9,9,10,10,11,11,12,12,13,13,14,14],"right_children":[2,4,6,8,10,12,14,-1,16,18,20,22,24,26,28,-1,-1,-1,-1,-1,-1,-1,-1,-1,-1,-1,-1,-1,-1],"split_conditions":[1E2,8.2E1,8.2E1,7.6E1,4.151323E4,7E1,3.865519E4,-3.0829072E-1,4.72E0,3.468014E4,1.493E1,6.4E1,7.6E1,4E1,4.18E0,-1.4542106E-1,-1.9502845E-1,-8.7774225E-2,-6.016196E-2,-9.280063E-2,-1.6376252E-1,-3.0805895E-1,-2.1412086E-1,-1.0576937E-1,-2.8680045E-2,1.1001676E-1,9.801582E-2,7.7748746E-2,2.1361703E-2],"split_indices":[9,10,10,10,8,10,8,0,0,8,0,10,10,1,0,0,0,0,0,0,0,0,0,0,0,0,0,0,0],"split_type":[0,0,0,0,0,0,0,0,0,0,0,0,0,0,0,0,0,0,0,0,0,0,0,0,0,0,0,0,0],"sum_hessian":[7.2123003E3,3.163469E3,4.0488313E3,4.4007324E2,2.7233955E3,6.6587024E2,3.3829612E3,9.425266E1,3.458206E2,2.5563906E3,1.670051E2,7.3592804E1,5.922774E2,3.230547E3,1.5241394E2,7.356233E1,2.7225827E2,5.321321E2,2.0242584E3,8.344833E1,8.355676E1,2.0839157E1,5.275365E1,2.1249265E2,3.7978476E2,8.3325464E2,2.3972927E3,1.22893555E2,2.952038E1],"tree_param":{"num_deleted":"0","num_feature":"12","num_nodes":"29","size_leaf_vector":"1"}},{"base_weights":[-9.387425E-3,-2.179953E0,1.673149E0,-5.1570625E0,-1.6793877E0,-1.8932692E0,2.398664E0,-2.9474872E-1,-4.4971237E0,-1.2165481E0,-1.7307416E0,-5.9565296E0,-1.3631366E0,2.4725125E0,9.182223E-2,-1.5281771E-1,-1.977582E-1,-3.6674853E-2,-5.7231255E-2,-5.769539E-2,-7.148159E-2,-3.0346522E-1,-2.024736E-1,-1.0103159E-1,-2.7718958E-2,8.313708E-2,9.956998E-2],"categories":[],"categories_nodes":[],"categories_segments":[],"categories_sizes":[],"default_left":[0,0,0,0,0,0,0,0,0,0,0,0,0,0,0,0,0,0,0,0,0,0,0,0,0,0,0],"id":5,"left_children":[1,3,5,7,9,11,13,-1,15,17,19,21,23,25,-1,-1,-1,-1,-1,-1,-1,-1,-1,-1,-1,-1,-1],"loss_changes":[2.6199709E4,4.651079E3,1.0465933E4,5.904346E2,5.9600586E1,1.4577178E3,1.42265625E1,0E0,6.855469E1,1.5022644E1,3.3999023E1,3.7506348E1,4.7014563E2,2.3896484E0,0E0,0E0,0E0,0E0,0E0,0E0,0E0,0E0,0E0,0E0,0E0,0E0,0E0],"parents":[2147483647,0,0,1,1,2,2,3,3,4,4,5,5,6,6,8,8,9,9,10,10,11,11,12,12,13,13],"right_children":[2,4,6,8,10,12,14,-1,16,18,20,22,24,26,-1,-1,-1,-1,-1,-1,-1,-1,-1,-1,-1,-1,-1],"split_conditions":[1E2,8.2E1,8.2E1,7.6E1,2.4E1,7E1,8.6E1,-2.9474872E-1,1.573E1,1.452E1,6E1,6.4E1,7.6E1,3.8E-1,9.182223E-2,-1.5281771E-1,-1.977582E-1,-3.6674853E-2,-5.7231255E-2,-5.769539E-2,-7.148159E-2,-3.0346522E-1,-2.024736E-1,-1.0103159E-1,-2.7718958E-2,8.313708E-2,9.956998E-2],"split_indices":[9,10,10,10,1,10,1,0,0,0,7,10,10,0,0,0,0,0,0,0,0,0,0,0,0,0,0],"split_type":[0,0,0,0,0,0,0,0,0,0,0,0,0,0,0,0,0,0,0,0,0,0,0,0,0,0,0],"sum_hessian":[7.169965E3,3.1306545E3,4.03931E3,4.4793848E2,2.682716E3,6.8226715E2,3.357043E3,9.827096E1,3.4966754E2,2.728622E2,2.409854E3,7.637911E1,6.0588806E2,1.9292858E3,1.4277572E3,1.4666231E2,2.0300522E2,1.1814984E2,1.5471237E2,4.023381E2,2.0075159E3,2.1764854E1,5.4614254E1,2.1951595E2,3.8637207E2,8.879983E1,1.840486E3],"tree_param":{"num_deleted":"0","num_feature":"12","num_nodes":"27","size_leaf_vector":"1"}},{"base_weights":[1.1924083E-2,-2.0741699E0,1.6159111E0,-4.9210243E0,-1.6122197E0,-1.8090488E0,2.308674E0,-2.858812E-1,-4.2475386E0,-1.5183172E0,-3.0137022E0,-5.727722E0,-1.3077297E0,2.342778E0,1.535548E0,-8.385611E-2,-1.7226693E-1,-8.2237445E-2,-5.5031233E-2,-8.3817005E-2,-1.5621707E-1,-2.8997463E-1,-1.9493206E-1,-9.9084474E-2,-2.5056323E-2,1.004343E-1,9.0652905E-2,7.032045E-2,1.6595691E-2],"categories":[],"categories_nodes":[],"categories_segments":[],"categories_sizes":[],"default_left":[0,0,0,0,0,0,0,0,0,0,0,0,0,0,0,0,0,0,0,0,0,0,0,0,0,0,0,0,0],"id":6,"left_children":[1,3,5,7,9,11,13,-1,15,17,19,21,23,25,27,-1,-1,-1,-1,-1,-1,-1,-1,-1,-1,-1,-1,-1,-1],"loss_changes":[2.4101398E4,4.101634E3,9.669857E3,5.931426E2,3.4575195E2,1.3330374E3,8.212891E1,0E0,2.5163574E1,1.8833057E2,1.2063782E2,2.9759766E1,4.8365674E2,3.0265625E1,3.5670624E1,0E0,0E0,0E0,0E0,0E0,0E0,0E0,0E0,0E0,0E0,0E0,0E0,0E0,0E0],"parents":[2147483647,0,0,1,1,2,2,3,3,4,4,5,5,6,6,8,8,9,9,10,10,11,11,12,12,13,13,14,14],"right_children":[2,4,6,8,10,12,14,-1,16,18,20,22,24,26,28,-1,-1,-1,-1,-1,-1,-1,-1,-1,-1,-1,-1,-1,-1],"split_conditions":[1E2,8.2E1,8.2E1,7.6E1,4.151323E4,7E1,3.865519E4,-2.858812E-1,6.75E0,3.468014E4,1.493E1,6.4E1,7.6E1,4.8E1,4.18E0,-8.385611E-2,-1.7226693E-1,-8.2237445E-2,-5.5031233E-2,-8.3817005E-2,-1.5621707E-1,-2.8997463E-1,-1.9493206E-1,-9.9084474E-2,-2.5056323E-2,1.004343E-1,9.0652905E-2,7.032045E-2,1.6595691E-2],"split_indices":[9,10,10,10,8,10,8,0,11,8,0,10,10,1,0,0,0,0,0,0,0,0,0,0,0,0,0,0,0],"split_type":[0,0,0,0,0,0,0,0,0,0,0,0,0,0,0,0,0,0,0,0,0,0,0,0,0,0,0,0,0],"sum_hessian":[7.198899E3,3.1289285E3,4.0699702E3,4.3414206E2,2.6947864E3,6.841868E2,3.3857832E3,9.637605E1,3.37766E2,2.529473E3,1.6531358E2,7.523613E1,6.0895074E2,3.2388516E3,1.4693176E2,1.0987314E1,3.267787E2,5.244613E2,2.0050116E3,8.4744965E1,8.056863E1,2.1671732E1,5.3564396E1,2.2223961E2,3.8671112E2,9.927365E2,2.246115E3,1.2164611E2,2.5285648E1],"tree_param":{"num_deleted":"0","num_feature":"12","num_nodes":"29","size_leaf_vector":"1"}},{"base_weights":[6.4031496E-3,-1.9831482E0,1.5608803E0,-1.8490962E0,-3.8804967E0,-4.552289E0,1.678849E0,-2.673798E0,-1.6414984E0,-2.4857407E0,-4.9051323E0,6.1655827E-2,-2.1311796E-1,1.7230159E0,-7.935641E-1,-1.2147638E-1,-8.55694E-2,-7.7210665E-2,-5.8412943E-2,-1.19353145E-1,-4.2929806E-2,-2.7916858E-1,-1.6951673E-1,9.540477E-2,-6.341949E-2,5.7365146E-2,7.777277E-2,-3.812505E-3,-1.2694664E-1],"categories":[],"categories_nodes":[],"categories_segments":[],"categories_sizes":[],"default_left":[0,0,0,0,0,0,0,0,0,0,0,0,0,0,0,0,0,0,0,0,0,0,0,0,0,0,0,0,0],"id":7,"left_children":[1,3,5,7,9,11,13,15,17,19,21,23,-1,25,27,-1,-1,-1,-1,-1,-1,-1,-1,-1,-1,-1,-1,-1,-1],"loss_changes":[2.2334129E4,7.912842E2,2.9389004E3,4.9838672E2,2.717317E2,2.7726746E2,4.3720898E2,1.0202295E2,1.1844678E2,5.8186035E1,1.03303955E2,5.770001E1,0E0,2.4436621E2,1.1771904E2,0E0,0E0,0E0,0E0,0E0,0E0,0E0,0E0,0E0,0E0,0E0,0E0,0E0,0E0],"parents":[2147483647,0,0,1,1,2,2,3,3,4,4,5,5,6,6,7,7,8,8,9,9,10,10,11,11,13,13,14,14],"right_children":[2,4,6,8,10,12,14,16,18,20,22,24,-1,26,28,-1,-1,-1,-1,-1,-1,-1,-1,-1,-1,-1,-1,-1,-1],"split_conditions":[1E2,5.54602E4,3.465536E4,3.467832E4,9E0,8.5E0,7.386816E4,1.02E2,3.469911E4,7.9E1,1.058E1,4.4E1,-2.1311796E-1,3.467214E4,1.0670913E5,-1.2147638E-1,-8.55694E-2,-7.7210665E-2,-5.8412943E-2,-1.19353145E-1,-4.2929806E-2,-2.7916858E-1,-1.6951673E-1,9.540477E-2,-6.341949E-2,5.7365146E-2,7.777277E-2,-3.812505E-3,-1.2694664E-1],"split_indices":[9,8,8,8,0,11,8,1,8,1,0,1,0,8,8,0,0,0,0,0,0,0,0,0,0,0,0,0,0],"split_type":[0,0,0,0,0,0,0,0,0,0,0,0,0,0,0,0,0,0,0,0,0,0,0,0,0,0,0,0,0],"sum_hessian":[7.2175337E3,3.1655032E3,4.0520305E3,2.9603003E3,2.0520302E2,7.529027E1,3.9767402E3,5.905448E2,2.3697554E3,8.9807304E1,1.15395706E2,1.1100563E1,6.4189705E1,3.9075425E3,6.9197624E1,3.4609286E2,2.4445193E2,9.06156E2,1.4635994E3,6.474972E1,2.505759E1,2.3481453E1,9.191425E1,4.233173E0,6.86739E0,1.7014489E3,2.2060938E3,5.5110058E1,1.4087568E1],"tree_param":{"num_deleted":"0","num_feature":"12","num_nodes":"29","size_leaf_vector":"1"}},{"base_weights":[-6.012319E-3,-1.9198803E0,1.4776778E0,-4.617322E0,-1.4640334E0,-1.8063577E0,2.1419115E0,-2.651824E-1,-4.0363555E0,-1.3779213E0,-2.8268373E0,-5.3873653E0,-1.3395557E0,2.1771822E0,1.3745443E0,-1.2765811E-1,-1.729944E-1,-7.474688E-2,-4.986642E-2,-7.91642E-2,-1.4416851E-1,-2.799526E-1,-1.8127935E-1,-9.600848E-2,-2.8443592E-2,9.3906775E-2,8.401785E-2,6.391441E-2,8.829646E-3],"categories":[],"categories_nodes":[],"categories_segments":[],"categories_sizes":[],"default_left":[0,0,0,0,0,0,0,0,0,0,0,0,0,0,0,0,0,0,0,0,0,0,0,0,0,0,0,0,0],"id":8,"left_children":[1,3,5,7,9,11,13,-1,15,17,19,21,23,25,27,-1,-1,-1,-1,-1,-1,-1,-1,-1,-1,-1,-1,-1,-1],"loss_changes":[2.0429232E4,3.8496494E3,8.848125E3,4.7635254E2,3.0795166E2,1.1270908E3,8.527344E1,0E0,5.9373047E1,1.5860449E2,8.9857056E1,4.420215E1,4.0106763E2,3.22666E1,3.8869812E1,0E0,0E0,0E0,0E0,0E0,0E0,0E0,0E0,0E0,0E0,0E0,0E0,0E0,0E0],"parents":[2147483647,0,0,1,1,2,2,3,3,4,4,5,5,6,6,8,8,9,9,10,10,11,11,12,12,13,13,14,14],"right_children":[2,4,6,8,10,12,14,-1,16,18,20,22,24,26,28,-1,-1,-1,-1,-1,-1,-1,-1,-1,-1,-1,-1,-1,-1],"split_conditions":[1E2,8.2E1,8.2E1,7.6E1,5.281626E4,7E1,3.865519E4,-2.651824E-1,9.93E0,3.468014E4,1.493E1,6.4E1,7.6E1,4.8E1,4.5E0,-1.2765811E-1,-1.729944E-1,-7.474688E-2,-4.986642E-2,-7.91642E-2,-1.4416851E-1,-2.799526E-1,-1.8127935E-1,-9.600848E-2,-2.8443592E-2,9.3906775E-2,8.401785E-2,6.391441E-2,8.829646E-3],"split_indices":[9,10,10,10,8,10,8,0,0,8,0,10,10,1,0,0,0,0,0,0,0,0,0,0,0,0,0,0,0],"split_type":[0,0,0,0,0,0,0,0,0,0,0,0,0,0,0,0,0,0,0,0,0,0,0,0,0,0,0,0,0],"sum_hessian":[7.1904404E3,3.1397588E3,4.0506814E3,4.512515E2,2.6885073E3,6.8088446E2,3.369797E3,9.643076E1,3.5482074E2,2.5325068E3,1.5600035E2,7.608982E1,6.047947E2,3.2182039E3,1.5159326E2,9.645897E1,2.5836176E2,5.288398E2,2.0036671E3,7.8015625E1,7.7984726E1,2.1403563E1,5.468626E1,2.2292604E2,3.8186862E2,9.805321E2,2.2376716E3,1.2636573E2,2.5227535E1],"tree_param":{"num_deleted":"0","num_feature":"12","num_nodes":"29","size_leaf_vector":"1"}},{"base_weights":[-9.399994E-3,-1.8405089E0,1.420502E0,-4.486612E0,-1.4182522E0,-1.7206509E0,2.0648863E0,-2.5575233E-1,-3.8782105E0,-1.3355317E0,-2.7443736E0,-5.211701E0,-1.2725326E0,2.097352E0,1.3671784E0,-1.3169971E-1,-1.699821E-1,-5.98284E-2,-3.780982E-2,-7.435544E-2,-1.3777177E-1,-2.6678753E-1,-1.7469412E-1,-9.301109E-2,-2.7447065E-2,8.9911796E-2,8.1118055E-2,6.317794E-2,1.2608015E-2],"categories":[],"categories_nodes":[],"categories_segments":[],"categories_sizes":[],"default_left":[0,0,0,0,0,0,0,0,0,0,0,0,0,0,0,0,0,0,0,0,0,0,0,0,0,0,0,0,0],"id":9,"left_children":[1,3,5,7,9,11,13,-1,15,17,19,21,23,25,27,-1,-1,-1,-1,-1,-1,-1,-1,-1,-1,-1,-1,-1,-1],"loss_changes":[1.8745732E4,3.4949434E3,8.1443784E3,4.5062695E2,2.8997363E2,1.0590027E3,6.984668E1,0E0,4.4209473E1,1.5689795E2,8.4644775E1,3.693506E1,3.7340668E2,2.413379E1,3.341687E1,0E0,0E0,0E0,0E0,0E0,0E0,0E0,0E0,0E0,0E0,0E0,0E0,0E0,0E0],"parents":[2147483647,0,0,1,1,2,2,3,3,4,4,5,5,6,6,8,8,9,9,10,10,11,11,12,12,13,13,14,14],"right_children":[2,4,6,8,10,12,14,-1,16,18,20,22,24,26,28,-1,-1,-1,-1,-1,-1,-1,-1,-1,-1,-1,-1,-1,-1],"split_conditions":[1E2,8.2E1,8.2E1,7.6E1,5.281626E4,7E1,3.865519E4,-2.5575233E-1,1.573E1,3.470831E4,9.57E0,6.4E1,7.6E1,4.8E1,4.18E0,-1.3169971E-1,-1.699821E-1,-5.98284E-2,-3.780982E-2,-7.435544E-2,-1.3777177E-1,-2.6678753E-1,-1.7469412E-1,-9.301109E-2,-2.7447065E-2,8.9911796E-2,8.1118055E-2,6.317794E-2,1.2608015E-2],"split_indices":[9,10,10,10,8,10,8,0,0,8,0,10,10,1,0,0,0,0,0,0,0,0,0,0,0,0,0,0,0],"split_type":[0,0,0,0,0,0,0,0,0,0,0,0,0,0,0,0,0,0,0,0,0,0,0,0,0,0,0,0,0],"sum_hessian":[7.1554917E3,3.1373186E3,4.018173E3,4.290974E2,2.7082212E3,6.8341565E2,3.3347573E3,9.917823E1,3.299192E2,2.5529858E3,1.5523524E2,7.532655E1,6.080891E2,3.1826506E3,1.5210664E2,1.3566608E2,1.9425313E2,1.8060826E3,7.469033E2,7.176069E1,8.3474556E1,2.2564545E1,5.2762012E1,2.1541006E2,3.9267905E2,9.8488684E2,2.197764E3,1.2573315E2,2.6373493E1],"tree_param":{"num_deleted":"0","num_feature":"12","num_nodes":"29","size_leaf_vector":"1"}},{"base_weights":[1.9839695E-3,-1.7538178E0,1.3610631E0,-4.234657E0,-1.3514333E0,-1.6451648E0,1.974139E0,-2.4228269E-1,-3.6969218E0,-1.2667223E0,-2.4685464E0,-4.934749E0,-1.2208828E0,2.0052402E0,1.3213729E0,-1.19029224E-1,-1.5867117E-1,-5.6836054E-2,-3.486765E-2,-7.1742944E-2,-1.2530062E-1,-2.5325215E-1,-1.6649811E-1,-8.8586226E-2,-2.5989376E-2,8.784761E-2,7.751453E-2,6.164819E-2,1.18931765E-2],"categories":[],"categories_nodes":[],"categories_segments":[],"categories_sizes":[],"default_left":[0,0,0,0,0,0,0,0,0,0,0,0,0,0,0,0,0,0,0,0,0,0,0,0,0,0,0,0,0],"id":10,"left_children":[1,3,5,7,9,11,13,-1,15,17,19,21,23,25,27,-1,-1,-1,-1,-1,-1,-1,-1,-1,-1,-1,-1,-1,-1],"loss_changes":[1.7061766E4,3.1027578E3,7.4345273E3,3.8095898E2,2.4804199E2,9.423185E2,6.2680664E1,0E0,4.2677734E1,1.4990356E2,7.270447E1,3.0837402E1,3.4240283E2,3.2560547E1,3.468582E1,0E0,0E0,0E0,0E0,0E0,0E0,0E0,0E0,0E0,0E0,0E0,0E0,0E0,0E0],"parents":[2147483647,0,0,1,1,2,2,3,3,4,4,5,5,6,6,8,8,9,9,10,10,11,11,12,12,13,13,14,14],"right_children":[2,4,6,8,10,12,14,-1,16,18,20,22,24,26,28,-1,-1,-1,-1,-1,-1,-1,-1,-1,-1,-1,-1,-1,-1],"split_conditions":[1E2,8.2E1,8.2E1,7.6E1,3.731621E4,7E1,3.865519E4,-2.4228269E-1,9.93E0,3.470831E4,1.172E1,6.4E1,7.6E1,4E1,4.18E0,-1.19029224E-1,-1.5867117E-1,-5.6836054E-2,-3.486765E-2,-7.1742944E-2,-1.2530062E-1,-2.5325215E-1,-1.6649811E-1,-8.8586226E-2,-2.5989376E-2,8.784761E-2,7.751453E-2,6.164819E-2,1.18931765E-2],"split_indices":[9,10,10,10,8,10,8,0,0,8,0,10,10,1,0,0,0,0,0,0,0,0,0,0,0,0,0,0,0],"split_type":[0,0,0,0,0,0,0,0,0,0,0,0,0,0,0,0,0,0,0,0,0,0,0,0,0,0,0,0,0],"sum_hessian":[7.1459614E3,3.1176594E3,4.028302E3,4.3244415E2,2.6852153E3,6.8178595E2,3.3465159E3,9.385084E1,3.3859332E2,2.4999138E3,1.8530147E2,7.5460075E1,6.0632587E2,3.1903662E3,1.5614989E2,9.874706E1,2.3984627E2,1.7943798E3,7.05534E2,9.55602E1,8.974126E1,2.1744019E1,5.3716057E1,2.1918996E2,3.8713593E2,8.156312E2,2.3747349E3,1.2772175E2,2.842814E1],"tree_param":{"num_deleted":"0","num_feature":"12","num_nodes":"29","size_leaf_vector":"1"}},{"base_weights":[7.218925E-3,3.3032295E-1,-1.0771316E0,1.0767488E0,-1.04461E-1,1.5863217E0,-1.3012654E0,1.3422961E0,4.2936546E-1,-3.1533723E0,-2.5997867E-3,-6.299518E-1,1.7288322E0,-1.0477268E0,-2.4581265E0,7.006868E-2,4.7647808E-2,-1.2913387E-2,2.971944E-2,-1.2818112E-2,-1.4597337E-1,6.296027E-2,-9.670654E-3,1.8446095E-2,-4.420491E-2,1.0768257E-1,5.6184042E-2,5.2112702E-2,-4.5251522E-2,-5.286745E-2,-1.5441178E-1],"categories":[],"categories_nodes":[],"categories_segments":[],"categories_sizes":[],"default_left":[0,0,0,0,0,0,0,0,0,0,0,0,0,0,0,0,0,0,0,0,0,0,0,0,0,0,0,0,0,0,0],"id":11,"left_children":[1,3,5,7,9,11,13,15,17,19,21,23,25,27,29,-1,-1,-1,-1,-1,-1,-1,-1,-1,-1,-1,-1,-1,-1,-1,-1],"loss_changes":[2.5196414E3,1.7983486E3,9.896996E2,3.4947583E2,1.087908E3,4.293701E1,4.418252E2,8.524414E1,1.4112749E2,1.5677698E2,1.2797096E3,5.8215365E0,3.047229E1,2.4914343E2,4.2395154E2,0E0,0E0,0E0,0E0,0E0,0E0,0E0,0E0,0E0,0E0,0E0,0E0,0E0,0E0,0E0,0E0],"parents":[2147483647,0,0,1,1,2,2,3,3,4,4,5,5,6,6,7,7,8,8,9,9,10,10,11,11,12,12,13,13,14,14],"right_children":[2,4,6,8,10,12,14,16,18,20,22,24,26,28,30,-1,-1,-1,-1,-1,-1,-1,-1,-1,-1,-1,-1,-1,-1,-1,-1],"split_conditions":[3.470625E4,9.7E0,1E2,3.468818E4,3.465536E4,3.8E-1,7.070313E4,1E2,3.46933E4,8.5E0,1E2,1E-1,3.471115E4,5.7E-1,9E0,7.006868E-2,4.7647808E-2,-1.2913387E-2,2.971944E-2,-1.2818112E-2,-1.4597337E-1,6.296027E-2,-9.670654E-3,1.8446095E-2,-4.420491E-2,1.0768257E-1,5.6184042E-2,5.2112702E-2,-4.5251522E-2,-5.286745E-2,-1.5441178E-1],"split_indices":[8,0,5,8,8,0,8,5,8,11,5,0,8,0,0,0,0,0,0,0,0,0,0,0,0,0,0,0,0,0,0],"split_type":[0,0,0,0,0,0,0,0,0,0,0,0,0,0,0,0,0,0,0,0,0,0,0,0,0,0,0,0,0,0,0],"sum_hessian":[7.187589E3,5.538633E3,1.648956E3,2.0375927E3,3.50104E3,1.27048065E2,1.521908E3,1.4433887E3,5.942039E2,1.1124801E2,3.389792E3,7.262558E0,1.1978551E2,1.2514503E3,2.704576E2,3.8338593E2,1.0600028E3,1.748288E2,4.1937512E2,1.7065077E1,9.418293E1,4.4501993E2,2.944772E3,2.2211897E0,5.041368E0,2.648816E1,9.329734E1,4.1959667E1,1.2094907E3,1.5152977E2,1.1892784E2],"tree_param":{"num_deleted":"0","num_feature":"12","num_nodes":"31","size_leaf_vector":"1"}},{"base_weights":[2.8501204E-4,-1.6730443E0,1.3118391E0,-4.118482E0,-1.277464E0,-1.5595744E0,1.8786054E0,-2.3682727E-1,-3.574762E0,-1.2093011E0,-1.5621417E0,-2.8185468E0,-6.212514E-1,1.9438776E0,1.7421416E0,-1.1905024E-1,-1.5935959E-1,-3.9941132E-2,-5.399197E-2,-8.032627E-2,-5.8028635E-2,-1.8318237E-1,-8.638641E-2,-1.2668722E-2,-2.978198E-2,7.794737E-2,2.802624E-2,6.1628383E-2,7.216519E-2],"categories":[],"categories_nodes":[],"categories_segments":[],"categories_sizes":[],"default_left":[0,0,0,0,0,0,0,0,0,0,0,0,0,0,0,0,0,0,0,0,0,0,0,0,0,0,0,0,0],"id":12,"left_children":[1,3,5,7,9,11,13,-1,15,17,19,21,23,25,27,-1,-1,-1,-1,-1,-1,-1,-1,-1,-1,-1,-1,-1,-1],"loss_changes":[1.5803136E4,3.050212E3,6.575316E3,3.8847998E2,4.9125E1,7.8388135E2,2.3263672E1,0E0,6.0245605E1,6.270508E1,2.000769E1,3.098225E2,1.396431E1,1.0797852E1,8.304932E0,0E0,0E0,0E0,0E0,0E0,0E0,0E0,0E0,0E0,0E0,0E0,0E0,0E0,0E0],"parents":[2147483647,0,0,1,1,2,2,3,3,4,4,5,5,6,6,8,8,9,9,10,10,11,11,12,12,13,13,14,14],"right_children":[2,4,6,8,10,12,14,-1,16,18,20,22,24,26,28,-1,-1,-1,-1,-1,-1,-1,-1,-1,-1,-1,-1,-1,-1],"split_conditions":[1E2,8.2E1,8.2E1,7.6E1,8E0,7.6E1,9.9E1,-2.3682727E-1,1.573E1,1.452E1,5.72E0,7E1,3.72E0,4.065E1,1.0562E1,-1.1905024E-1,-1.5935959E-1,-3.9941132E-2,-5.399197E-2,-8.032627E-2,-5.8028635E-2,-1.8318237E-1,-8.638641E-2,-1.2668722E-2,-2.978198E-2,7.794737E-2,2.802624E-2,6.1628383E-2,7.216519E-2],"split_indices":[9,10,10,10,2,10,1,0,0,0,0,10,0,0,11,0,0,0,0,0,0,0,0,0,0,0,0,0,0],"split_type":[0,0,0,0,0,0,0,0,0,0,0,0,0,0,0,0,0,0,0,0,0,0,0,0,0,0,0,0,0],"sum_hessian":[7.1967153E3,3.1619858E3,4.0347297E3,4.3765067E2,2.724335E3,6.64527E2,3.370203E3,9.68513E1,3.4079935E2,2.2065076E3,5.178275E2,2.820652E2,3.824618E2,2.2618464E3,1.1083564E3,1.4511325E2,1.956861E2,8.890239E2,1.3174836E3,9.670248E1,4.2112503E2,7.355992E1,2.0850525E2,1.1227986E2,2.7018192E2,2.2520044E3,9.841922E0,2.729878E2,8.3536865E2],"tree_param":{"num_deleted":"0","num_feature":"12","num_nodes":"29","size_leaf_vector":"1"}},{"base_weights":[-2.3841627E-2,-1.6143608E0,1.2287313E0,-3.9213812E0,-1.2305231E0,-1.5151037E0,1.7906348E0,-2.2666018E-1,-3.3843517E0,-1.1546528E0,-2.3442864E0,-4.4461455E0,-1.136422E0,1.819966E0,1.1856713E0,-1.499466E-1,-1.175499E-1,-5.250217E-2,-3.0565016E-2,-9.78063E-2,-2.9302832E-2,-2.3168667E-1,-1.4858243E-1,-8.198269E-2,-2.486478E-2,6.7129925E-2,7.5827606E-2,1.6547922E-2,5.4152716E-2],"categories":[],"categories_nodes":[],"categories_segments":[],"categories_sizes":[],"default_left":[0,0,0,0,0,0,0,0,0,0,0,0,0,0,0,0,0,0,0,0,0,0,0,0,0,0,0,0,0],"id":13,"left_children":[1,3,5,7,9,11,13,-1,15,17,19,21,23,25,27,-1,-1,-1,-1,-1,-1,-1,-1,-1,-1,-1,-1,-1,-1],"loss_changes":[1.4316135E4,2.7938027E3,6.203459E3,3.840171E2,2.2419336E2,7.495414E2,5.4908203E1,0E0,3.4720215E1,1.551062E2,2.4274963E1,3.3403687E1,2.8363702E2,2.7759766E1,1.965889E1,0E0,0E0,0E0,0E0,0E0,0E0,0E0,0E0,0E0,0E0,0E0,0E0,0E0,0E0],"parents":[2147483647,0,0,1,1,2,2,3,3,4,4,5,5,6,6,8,8,9,9,10,10,11,11,12,12,13,13,14,14],"right_children":[2,4,6,8,10,12,14,-1,16,18,20,22,24,26,28,-1,-1,-1,-1,-1,-1,-1,-1,-1,-1,-1,-1,-1,-1],"split_conditions":[1E2,8.2E1,8.2E1,7.6E1,4.151323E4,7E1,3.865519E4,-2.2666018E-1,3.470415E4,3.470831E4,1.067252E5,6.4E1,7.6E1,3.466825E4,1.5E1,-1.499466E-1,-1.175499E-1,-5.250217E-2,-3.0565016E-2,-9.78063E-2,-2.9302832E-2,-2.3168667E-1,-1.4858243E-1,-8.198269E-2,-2.486478E-2,6.7129925E-2,7.5827606E-2,1.6547922E-2,5.4152716E-2],"split_indices":[9,10,10,10,8,10,8,0,8,8,8,10,10,8,1,0,0,0,0,0,0,0,0,0,0,0,0,0,0],"split_type":[0,0,0,0,0,0,0,0,0,0,0,0,0,0,0,0,0,0,0,0,0,0,0,0,0,0,0,0,0],"sum_hessian":[7.181953E3,3.163878E3,4.018075E3,4.4868234E2,2.7151956E3,6.8240845E2,3.3356665E3,1.0108731E2,3.4759503E2,2.5458445E3,1.6935101E2,7.561981E1,6.0678864E2,3.1775874E3,1.5807924E2,1.8308495E2,1.6451007E2,1.8094932E3,7.3635144E2,1.5840297E2,1.0948052E1,2.175635E1,5.3863464E1,2.1660931E2,3.9017932E2,1.1227289E3,2.0548584E3,2.9511309E1,1.2856793E2],"tree_param":{"num_deleted":"0","num_feature":"12","num_nodes":"29","size_leaf_vector":"1"}},{"base_weights":[7.433652E-3,-1.5385891E0,1.1930175E0,-3.7467992E0,-1.1663463E0,-1.4800123E0,1.7269787E0,-2.1610999E-1,-3.2395718E0,-1.0873095E0,-2.2182734E0,-4.1894765E0,-1.1225162E0,1.7546444E0,1.1476694E0,-1.0880601E-1,-1.4402965E-1,-4.9772914E-2,-2.790058E-2,-6.661446E-2,-1.09674804E-1,-2.1724582E-1,-1.4452365E-1,-7.93142E-2,-2.4735777E-2,6.471372E-2,7.313035E-2,5.362101E-2,7.7779577E-3],"categories":[],"categories_nodes":[],"categories_segments":[],"categories_sizes":[],"default_left":[0,0,0,0,0,0,0,0,0,0,0,0,0,0,0,0,0,0,0,0,0,0,0,0,0,0,0,0,0],"id":14,"left_children":[1,3,5,7,9,11,13,-1,15,17,19,21,23,25,27,-1,-1,-1,-1,-1,-1,-1,-1,-1,-1,-1,-1,-1,-1],"loss_changes":[1.3197448E4,2.560018E3,5.8214854E3,3.4288428E2,2.1775635E2,6.4884973E2,5.042383E1,0E0,4.5958496E1,1.5090308E2,4.4474304E1,1.6921753E1,2.5911987E2,2.6701172E1,2.900969E1,0E0,0E0,0E0,0E0,0E0,0E0,0E0,0E0,0E0,0E0,0E0,0E0,0E0,0E0],"parents":[2147483647,0,0,1,1,2,2,3,3,4,4,5,5,6,6,8,8,9,9,10,10,11,11,12,12,13,13,14,14],"right_children":[2,4,6,8,10,12,14,-1,16,18,20,22,24,26,28,-1,-1,-1,-1,-1,-1,-1,-1,-1,-1,-1,-1,-1,-1],"split_conditions":[1E2,8.2E1,8.2E1,7.6E1,3.731621E4,7E1,3.865519E4,-2.1610999E-1,1.573E1,3.470831E4,1.172E1,6.4E1,7.6E1,3.466825E4,4.18E0,-1.0880601E-1,-1.4402965E-1,-4.9772914E-2,-2.790058E-2,-6.661446E-2,-1.09674804E-1,-2.1724582E-1,-1.4452365E-1,-7.93142E-2,-2.4735777E-2,6.471372E-2,7.313035E-2,5.362101E-2,7.7779577E-3],"split_indices":[9,10,10,10,8,10,8,0,0,8,0,10,10,8,0,0,0,0,0,0,0,0,0,0,0,0,0,0,0],"split_type":[0,0,0,0,0,0,0,0,0,0,0,0,0,0,0,0,0,0,0,0,0,0,0,0,0,0,0,0,0],"sum_hessian":[7.1961514E3,3.1230464E3,4.0731047E3,4.4789908E2,2.6751475E3,6.775784E2,3.3955264E3,1.00498245E2,3.4740085E2,2.4919792E3,1.8316815E2,7.6482155E1,6.0109625E2,3.236887E3,1.5863939E2,1.4948277E2,1.9791806E2,1.7732942E3,7.186851E2,9.315688E1,9.001127E1,1.8906832E1,5.757532E1,2.1991707E2,3.811792E2,1.148508E3,2.088379E3,1.3126848E2,2.737091E1],"tree_param":{"num_deleted":"0","num_feature":"12","num_nodes":"29","size_leaf_vector":"1"}},{"base_weights":[-1.7547848E-3,-1.4803834E0,1.1451938E0,-1.3748599E0,-3.0397835E0,-2.9969926E0,1.2280821E0,-2.099383E0,-1.1961594E0,-1.9095355E0,-3.7870162E0,-3.494555E0,5.6837067E-2,1.2652467E0,-5.385203E-1,-9.4745435E-2,-6.703372E-2,-5.6384735E-2,-4.079441E-2,-9.2512615E-2,-2.6415862E-2,-2.1388355E-1,-1.3122998E-1,6.023334E-2,-1.5034638E-1,4.1408844E-2,5.756902E-2,-1.4189531E-3,-9.874254E-2],"categories":[],"categories_nodes":[],"categories_segments":[],"categories_sizes":[],"default_left":[0,0,0,0,0,0,0,0,0,0,0,0,0,0,0,0,0,0,0,0,0,0,0,0,0,0,0,0,0],"id":15,"left_children":[1,3,5,7,9,11,13,15,17,19,21,23,-1,25,27,-1,-1,-1,-1,-1,-1,-1,-1,-1,-1,-1,-1,-1,-1],"loss_changes":[1.2143225E4,5.063452E2,1.3918442E3,3.747578E2,1.5157275E2,1.8510461E2,2.6101123E2,5.7940918E1,8.584717E1,3.8393158E1,5.6783203E1,1.066712E2,0E0,1.520498E2,8.0298836E1,0E0,0E0,0E0,0E0,0E0,0E0,0E0,0E0,0E0,0E0,0E0,0E0,0E0,0E0],"parents":[2147483647,0,0,1,1,2,2,3,3,4,4,5,5,6,6,7,7,8,8,9,9,10,10,11,11,13,13,14,14],"right_children":[2,4,6,8,10,12,14,16,18,20,22,24,-1,26,28,-1,-1,-1,-1,-1,-1,-1,-1,-1,-1,-1,-1,-1,-1],"split_conditions":[1E2,5.54602E4,3.465536E4,3.467832E4,9E0,1.197E1,7.386816E4,1.03E2,3.470234E4,7.9E1,1.058E1,1.143E1,5.6837067E-2,3.467214E4,1.0670913E5,-9.4745435E-2,-6.703372E-2,-5.6384735E-2,-4.079441E-2,-9.2512615E-2,-2.6415862E-2,-2.1388355E-1,-1.3122998E-1,6.023334E-2,-1.5034638E-1,4.1408844E-2,5.756902E-2,-1.4189531E-3,-9.874254E-2],"split_indices":[9,8,8,8,0,0,8,1,8,1,0,0,0,8,8,0,0,0,0,0,0,0,0,0,0,0,0,0,0],"split_type":[0,0,0,0,0,0,0,0,0,0,0,0,0,0,0,0,0,0,0,0,0,0,0,0,0,0,0,0,0],"sum_hessian":[7.1562964E3,3.1258794E3,4.0304172E3,2.9312847E3,1.9459471E2,7.768991E1,3.9527273E3,5.756943E2,2.3555903E3,8.027834E1,1.1431637E2,7.020156E1,7.488348E0,3.8718416E3,8.088584E1,3.463364E2,2.2935788E2,1.0591744E3,1.2964159E3,5.939865E1,2.0879694E1,2.3322847E1,9.099352E1,3.0500789E0,6.715148E1,1.6733402E3,2.1985012E3,6.5778175E1,1.5107663E1],"tree_param":{"num_deleted":"0","num_feature":"12","num_nodes":"29","size_leaf_vector":"1"}},{"base_weights":[-1.0629605E-2,-1.4150381E0,1.0976031E0,-3.507762E0,-1.0694034E0,-1.4073063E0,1.5992805E0,-2.0372981E-1,-3.0737114E0,-9.9113417E-1,-1.9197277E0,-2.4279728E0,-6.3532263E-1,1.6234483E0,1.0637592E0,-1.3543484E-1,-1.054201E-1,-4.56872E-2,-2.3637963E-2,-8.115074E-2,-2.9209235E-3,-1.5653929E-1,-7.586809E-2,1.5229963E-2,-2.8323755E-2,7.079931E-2,6.2307537E-2,9.8258555E-3,4.883852E-2],"categories":[],"categories_nodes":[],"categories_segments":[],"categories_sizes":[],"default_left":[0,0,0,0,0,0,0,0,0,0,0,0,0,0,0,0,0,0,0,0,0,0,0,0,0,0,0,0,0],"id":16,"left_children":[1,3,5,7,9,11,13,-1,15,17,19,21,23,25,27,-1,-1,-1,-1,-1,-1,-1,-1,-1,-1,-1,-1,-1,-1],"loss_changes":[1.1260794E4,2.3006968E3,5.0863906E3,2.7937646E2,1.7866455E2,5.2943445E2,4.016504E1,0E0,3.1325928E1,1.5065527E2,4.5807434E1,2.1428784E2,2.9191742E1,2.5521484E1,1.886229E1,0E0,0E0,0E0,0E0,0E0,0E0,0E0,0E0,0E0,0E0,0E0,0E0,0E0,0E0],"parents":[2147483647,0,0,1,1,2,2,3,3,4,4,5,5,6,6,8,8,9,9,10,10,11,11,12,12,13,13,14,14],"right_children":[2,4,6,8,10,12,14,-1,16,18,20,22,24,26,28,-1,-1,-1,-1,-1,-1,-1,-1,-1,-1,-1,-1,-1,-1],"split_conditions":[1E2,8.2E1,8.2E1,7.6E1,3.479312E4,7.6E1,3.865519E4,-2.0372981E-1,3.470813E4,3.470831E4,1.067252E5,7E1,3.465623E4,4.8E1,1.3E1,-1.3543484E-1,-1.054201E-1,-4.56872E-2,-2.3637963E-2,-8.115074E-2,-2.9209235E-3,-1.5653929E-1,-7.586809E-2,1.5229963E-2,-2.8323755E-2,7.079931E-2,6.2307537E-2,9.8258555E-3,4.883852E-2],"split_indices":[9,10,10,10,8,10,8,0,8,8,8,10,8,1,1,0,0,0,0,0,0,0,0,0,0,0,0,0,0],"split_type":[0,0,0,0,0,0,0,0,0,0,0,0,0,0,0,0,0,0,0,0,0,0,0,0,0,0,0,0,0],"sum_hessian":[7.231105E3,3.1891277E3,4.0419775E3,4.4946176E2,2.739666E3,6.7383966E2,3.368138E3,9.198697E1,3.574748E2,2.5127112E3,2.269547E2,2.883336E2,3.8550607E2,3.2188113E3,1.4932643E2,2.0090564E2,1.5656915E2,1.821497E3,6.912143E2,2.1411485E2,1.2839841E1,7.260021E1,2.1573337E2,2.5199045E1,3.60307E2,9.8099615E2,2.2378152E3,2.4894875E1,1.24431564E2],"tree_param":{"num_deleted":"0","num_feature":"12","num_nodes":"29","size_leaf_vector":"1"}},{"base_weights":[-1.1639695E-3,-1.3707132E0,1.0565097E0,-3.4304237E0,-1.0388734E0,-1.3612894E0,1.5492294E0,-4.9028807E0,-2.992813E0,-9.6661204E-1,-1.9853593E0,-2.388163E0,-5.7549006E-1,1.5763632E0,9.662142E-1,-5.0656613E-2,-1.9812362E-1,-1.0101248E-1,-1.3223602E-1,-5.601967E-2,-3.398586E-2,-5.68387E-2,-1.02975816E-1,-1.5263E-1,-7.517835E-2,1.2071041E-2,-2.5472807E-2,6.524704E-2,5.6835044E-2,4.5612533E-2,2.1372181E-3],"categories":[],"categories_nodes":[],"categories_segments":[],"categories_sizes":[],"default_left":[0,0,0,0,0,0,0,0,0,0,0,0,0,0,0,0,0,0,0,0,0,0,0,0,0,0,0,0,0,0,0],"id":17,"left_children":[1,3,5,7,9,11,13,15,17,19,21,23,25,27,29,-1,-1,-1,-1,-1,-1,-1,-1,-1,-1,-1,-1,-1,-1,-1,-1],"loss_changes":[1.0444247E4,2.1403286E3,4.8508047E3,2.510039E2,1.8142847E2,5.5385315E2,5.043213E1,5.083008E0,3.3146973E1,1.2553613E2,5.5929077E1,2.0235413E2,2.1550293E1,2.2867676E1,2.4589783E1,0E0,0E0,0E0,0E0,0E0,0E0,0E0,0E0,0E0,0E0,0E0,0E0,0E0,0E0,0E0,0E0],"parents":[2147483647,0,0,1,1,2,2,3,3,4,4,5,5,6,6,7,7,8,8,9,9,10,10,11,11,12,12,13,13,14,14],"right_children":[2,4,6,8,10,12,14,16,18,20,22,24,26,28,30,-1,-1,-1,-1,-1,-1,-1,-1,-1,-1,-1,-1,-1,-1,-1,-1],"split_conditions":[1E2,8.2E1,8.2E1,7.6E1,3.731621E4,7.6E1,3.865519E4,5E1,1.573E1,3.468014E4,1.493E1,7E1,3.465623E4,8E0,4.5E0,-5.0656613E-2,-1.9812362E-1,-1.0101248E-1,-1.3223602E-1,-5.601967E-2,-3.398586E-2,-5.68387E-2,-1.02975816E-1,-1.5263E-1,-7.517835E-2,1.2071041E-2,-2.5472807E-2,6.524704E-2,5.6835044E-2,4.5612533E-2,2.1372181E-3],"split_indices":[9,10,10,10,8,10,8,7,0,8,0,10,8,2,0,0,0,0,0,0,0,0,0,0,0,0,0,0,0,0,0],"split_type":[0,0,0,0,0,0,0,0,0,0,0,0,0,0,0,0,0,0,0,0,0,0,0,0,0,0,0,0,0,0,0],"sum_hessian":[7.2062075E3,3.1398806E3,4.0663271E3,4.3308313E2,2.7067976E3,6.877887E2,3.3785383E3,9.454706E1,3.3853607E2,2.5185557E3,1.8824184E2,2.963906E2,3.9139813E2,3.2250361E3,1.5350221E2,2.0019197E0,9.2545135E1,1.4305647E2,1.9547958E2,5.301256E2,1.98843E3,9.9617195E1,8.862464E1,7.445217E1,2.2193842E2,2.5062551E1,3.663356E2,2.370424E3,8.54612E2,1.2849521E2,2.5006989E1],"tree_param":{"num_deleted":"0","num_feature":"12","num_nodes":"31","size_leaf_vector":"1"}},{"base_weights":[-5.477694E-3,-1.3139727E0,1.01061E0,-3.3046374E0,-9.923465E-1,-1.3448772E0,1.4886047E0,-1.9063422E-1,-2.8679729E0,-9.241733E-1,-1.894526E0,-3.6863596E0,-1.031001E0,1.5134089E0,9.6172017E-1,-8.7694414E-2,-1.2440962E-1,-4.2161517E-2,-2.3862066E-2,-5.604904E-2,-9.8378696E-2,-2.012637E-1,-1.1810233E-1,-7.107712E-2,-2.3538755E-2,6.754265E-2,5.8116607E-2,4.6392847E-2,6.2886863E-3],"categories":[],"categories_nodes":[],"categories_segments":[],"categories_sizes":[],"default_left":[0,0,0,0,0,0,0,0,0,0,0,0,0,0,0,0,0,0,0,0,0,0,0,0,0,0,0,0,0],"id":18,"left_children":[1,3,5,7,9,11,13,-1,15,17,19,21,23,25,27,-1,-1,-1,-1,-1,-1,-1,-1,-1,-1,-1,-1,-1,-1],"loss_changes":[9.617797E3,2.0178945E3,4.5886304E3,2.5274316E2,1.6409888E2,4.9800916E2,4.1339844E1,0E0,4.2501465E1,1.06703125E2,4.5930786E1,4.9795776E1,1.9907654E2,2.932129E1,2.4771698E1,0E0,0E0,0E0,0E0,0E0,0E0,0E0,0E0,0E0,0E0,0E0,0E0,0E0,0E0],"parents":[2147483647,0,0,1,1,2,2,3,3,4,4,5,5,6,6,8,8,9,9,10,10,11,11,12,12,13,13,14,14],"right_children":[2,4,6,8,10,12,14,-1,16,18,20,22,24,26,28,-1,-1,-1,-1,-1,-1,-1,-1,-1,-1,-1,-1,-1,-1],"split_conditions":[1E2,8.2E1,8.2E1,7.6E1,3.731621E4,7E1,3.865519E4,-1.9063422E-1,9.93E0,3.470831E4,1.493E1,6.4E1,7.6E1,4E1,4.18E0,-8.7694414E-2,-1.2440962E-1,-4.2161517E-2,-2.3862066E-2,-5.604904E-2,-9.8378696E-2,-2.012637E-1,-1.1810233E-1,-7.107712E-2,-2.3538755E-2,6.754265E-2,5.8116607E-2,4.6392847E-2,6.2886863E-3],"split_indices":[9,10,10,10,8,10,8,0,0,8,0,10,10,1,0,0,0,0,0,0,0,0,0,0,0,0,0,0,0],"split_type":[0,0,0,0,0,0,0,0,0,0,0,0,0,0,0,0,0,0,0,0,0,0,0,0,0,0,0,0,0],"sum_hessian":[7.2299004E3,3.1599724E3,4.0699282E3,4.3695358E2,2.7230188E3,6.859654E2,3.383963E3,9.59721E1,3.4098148E2,2.5354744E3,1.8754434E2,7.854431E1,6.074211E2,3.2282422E3,1.557207E2,9.530451E1,2.4567697E2,1.8125646E3,7.229098E2,1.03836334E2,8.3708E1,2.3588041E1,5.4956272E1,2.2393239E2,3.8348868E2,8.148993E2,2.4133428E3,1.24243614E2,3.1477085E1],"tree_param":{"num_deleted":"0","num_feature":"12","num_nodes":"29","size_leaf_vector":"1"}},{"base_weights":[-4.5114453E-3,-1.256579E0,9.6692514E-1,-3.1190965E0,-9.569722E-1,-1.2889702E0,1.4193113E0,-4.4942017E0,-2.7144237E0,-8.9769936E-1,-1.8388728E0,-2.2016976E0,-5.687201E-1,1.4447443E0,8.858683E-1,-6.2959716E-2,-1.8219222E-1,-1.1978773E-1,-8.953244E-2,-5.3791713E-2,-3.18219E-2,-7.979802E-2,-4.01248E-3,-1.3925515E-1,-7.021839E-2,1.06363E-2,-2.4951087E-2,6.425169E-2,5.5465452E-2,-3.1550422E-3,4.169963E-2],"categories":[],"categories_nodes":[],"categories_segments":[],"categories_sizes":[],"default_left":[0,0,0,0,0,0,0,0,0,0,0,0,0,0,0,0,0,0,0,0,0,0,0,0,0,0,0,0,0,0,0],"id":19,"left_children":[1,3,5,7,9,11,13,15,17,19,21,23,25,27,29,-1,-1,-1,-1,-1,-1,-1,-1,-1,-1,-1,-1,-1,-1,-1,-1],"loss_changes":[8.701891E3,1.7382437E3,4.1150615E3,2.1613232E2,1.3759741E2,4.4057092E2,4.298047E1,2.5150146E0,3.1832031E1,1.1339111E2,4.5144775E1,1.5713513E2,1.7766571E1,2.5591797E1,2.4026947E1,0E0,0E0,0E0,0E0,0E0,0E0,0E0,0E0,0E0,0E0,0E0,0E0,0E0,0E0,0E0,0E0],"parents":[2147483647,0,0,1,1,2,2,3,3,4,4,5,5,6,6,7,7,8,8,9,9,10,10,11,11,12,12,13,13,14,14],"right_children":[2,4,6,8,10,12,14,16,18,20,22,24,26,28,30,-1,-1,-1,-1,-1,-1,-1,-1,-1,-1,-1,-1,-1,-1,-1,-1],"split_conditions":[1E2,8.2E1,8.2E1,7.6E1,4.151323E4,7.6E1,3.865519E4,7.688E0,3.47093E4,3.467832E4,1.067252E5,7E1,3.465623E4,4.1E1,1.3E1,-6.2959716E-2,-1.8219222E-1,-1.1978773E-1,-8.953244E-2,-5.3791713E-2,-3.18219E-2,-7.979802E-2,-4.01248E-3,-1.3925515E-1,-7.021839E-2,1.06363E-2,-2.4951087E-2,6.425169E-2,5.5465452E-2,-3.1550422E-3,4.169963E-2],"split_indices":[9,10,10,10,8,10,8,11,8,8,8,10,8,1,1,0,0,0,0,0,0,0,0,0,0,0,0,0,0,0,0],"split_type":[0,0,0,0,0,0,0,0,0,0,0,0,0,0,0,0,0,0,0,0,0,0,0,0,0,0,0,0,0,0,0],"sum_hessian":[7.150372E3,3.1237014E3,4.026671E3,4.302451E2,2.6934563E3,6.719895E2,3.3546814E3,9.3230446E1,3.3701465E2,2.5276106E3,1.6584567E2,2.9457703E2,3.7741248E2,3.1987568E3,1.5592451E2,2.9922493E0,9.02382E1,2.054777E2,1.3153693E2,4.6557492E2,2.0620356E3,1.5191289E2,1.393279E1,7.264599E1,2.2193105E2,2.2881756E1,3.5453073E2,8.32105E2,2.3666519E3,2.1916798E1,1.3400772E2],"tree_param":{"num_deleted":"0","num_feature":"12","num_nodes":"31","size_leaf_vector":"1"}},{"base_weights":[3.0875267E-3,-1.2143368E0,9.42442E-1,-1.1259241E0,-2.4324949E0,-2.5605142E0,1.0131627E0,-1.7204955E0,-9.8085165E-1,-1.4849195E0,-3.0772414E0,-2.9764884E0,4.7114067E-2,1.0520266E0,-3.4488657E-1,-7.9207085E-2,-5.3898215E-2,-4.6334323E-2,-3.3237275E-2,-6.8880536E-2,5.850392E-3,-1.6874179E-1,-1.08127594E-1,6.385511E-2,-1.3149193E-1,3.3740222E-2,4.8524667E-2,-1.4295357E-3,-8.742892E-2],"categories":[],"categories_nodes":[],"categories_segments":[],"categories_sizes":[],"default_left":[0,0,0,0,0,0,0,0,0,0,0,0,0,0,0,0,0,0,0,0,0,0,0,0,0,0,0,0,0],"id":20,"left_children":[1,3,5,7,9,11,13,15,17,19,21,23,-1,25,27,-1,-1,-1,-1,-1,-1,-1,-1,-1,-1,-1,-1,-1,-1],"loss_changes":[8.1781455E3,3.299702E2,1.0051902E3,2.474226E2,1.1857129E2,1.3211554E2,2.0963525E2,4.9651855E1,6.039868E1,3.473285E1,2.9502197E1,1.141944E2,0E0,1.27228516E2,6.3370255E1,0E0,0E0,0E0,0E0,0E0,0E0,0E0,0E0,0E0,0E0,0E0,0E0,0E0,0E0],"parents":[2147483647,0,0,1,1,2,2,3,3,4,4,5,5,6,6,7,7,8,8,9,9,10,10,11,11,13,13,14,14],"right_children":[2,4,6,8,10,12,14,16,18,20,22,24,-1,26,28,-1,-1,-1,-1,-1,-1,-1,-1,-1,-1,-1,-1,-1,-1],"split_conditions":[1E2,5.54602E4,3.465536E4,3.467832E4,9E0,1.197E1,5.54602E4,1.01E2,3.470234E4,6.3E0,1.115E1,1.143E1,4.7114067E-2,3.467214E4,1.0670913E5,-7.9207085E-2,-5.3898215E-2,-4.6334323E-2,-3.3237275E-2,-6.8880536E-2,5.850392E-3,-1.6874179E-1,-1.08127594E-1,6.385511E-2,-1.3149193E-1,3.3740222E-2,4.8524667E-2,-1.4295357E-3,-8.742892E-2],"split_indices":[9,8,8,8,0,0,8,1,8,0,0,0,0,8,8,0,0,0,0,0,0,0,0,0,0,0,0,0,0],"split_type":[0,0,0,0,0,0,0,0,0,0,0,0,0,0,0,0,0,0,0,0,0,0,0,0,0,0,0,0,0],"sum_hessian":[7.147271E3,3.1126377E3,4.034633E3,2.9056008E3,2.0703697E2,7.844935E1,3.9561838E3,5.656396E2,2.3399612E3,8.650621E1,1.2053077E2,7.0961E1,7.488348E0,3.846556E3,1.0962793E2,3.2840967E2,2.372299E2,1.0652463E3,1.274715E3,7.543088E1,1.1075334E1,2.4677872E1,9.58529E1,3.9896657E0,6.697134E1,1.6819055E3,2.1646504E3,9.56101E1,1.4017833E1],"tree_param":{"num_deleted":"0","num_feature":"12","num_nodes":"29","size_leaf_vector":"1"}},{"base_weights":[8.764319E-3,-1.1491592E0,9.0373915E-1,-2.9317694E0,-8.534216E-1,-1.2224834E0,1.3314884E0,-4.2429E0,-2.5521967E0,-7.932026E-1,-1.6595358E0,-2.0607846E0,-5.8077914E-1,1.3533003E0,8.647396E-1,-9.8438606E-2,-1.7627017E-1,-8.349835E-2,-1.1518312E-1,-3.675821E-2,-1.9457415E-2,-4.8105907E-2,-8.672183E-2,-1.3323908E-1,-6.5396085E-2,1.0302658E-2,-2.5489645E-2,5.6767143E-2,4.9409952E-2,4.2087007E-2,1.8484901E-3],"categories":[],"categories_nodes":[],"categories_segments":[],"categories_sizes":[],"default_left":[0,0,0,0,0,0,0,0,0,0,0,0,0,0,0,0,0,0,0,0,0,0,0,0,0,0,0,0,0,0,0],"id":21,"left_children":[1,3,5,7,9,11,13,15,17,19,21,23,25,27,29,-1,-1,-1,-1,-1,-1,-1,-1,-1,-1,-1,-1,-1,-1,-1,-1],"loss_changes":[7.4831733E3,1.6545913E3,3.707539E3,2.0086401E2,1.285758E2,3.6512354E2,3.218994E1,6.7382812E0,4.1497314E1,9.627551E1,3.8010315E1,1.4892493E2,1.8777252E1,2.1666504E1,2.3984436E1,0E0,0E0,0E0,0E0,0E0,0E0,0E0,0E0,0E0,0E0,0E0,0E0,0E0,0E0,0E0,0E0],"parents":[2147483647,0,0,1,1,2,2,3,3,4,4,5,5,6,6,7,7,8,8,9,9,10,10,11,11,12,12,13,13,14,14],"right_children":[2,4,6,8,10,12,14,16,18,20,22,24,26,28,30,-1,-1,-1,-1,-1,-1,-1,-1,-1,-1,-1,-1,-1,-1,-1,-1],"split_conditions":[1E2,8.2E1,8.2E1,7.6E1,3.731621E4,7.6E1,3.865519E4,9.25E0,1.573E1,3.470831E4,1.493E1,7E1,3.465623E4,9.5E1,4.18E0,-9.8438606E-2,-1.7627017E-1,-8.349835E-2,-1.1518312E-1,-3.675821E-2,-1.9457415E-2,-4.8105907E-2,-8.672183E-2,-1.3323908E-1,-6.5396085E-2,1.0302658E-2,-2.5489645E-2,5.6767143E-2,4.9409952E-2,4.2087007E-2,1.8484901E-3],"split_indices":[9,10,10,10,8,10,8,11,0,8,0,10,8,1,0,0,0,0,0,0,0,0,0,0,0,0,0,0,0,0,0],"split_type":[0,0,0,0,0,0,0,0,0,0,0,0,0,0,0,0,0,0,0,0,0,0,0,0,0,0,0,0,0,0,0],"sum_hessian":[7.216958E3,3.1460337E3,4.0709243E3,4.451268E2,2.700907E3,6.811921E2,3.3897324E3,9.536347E1,3.4976334E2,2.5168582E3,1.8404863E2,2.9343518E2,3.8775687E2,3.2347676E3,1.5496466E2,1.0728498E1,8.463497E1,1.5065369E2,1.9910966E2,1.7822653E3,7.34593E2,1.0049003E2,8.355861E1,7.025556E1,2.2317961E2,2.4017794E1,3.6373907E2,2.0620195E3,1.172748E3,1.2562642E2,2.9338245E1],"tree_param":{"num_deleted":"0","num_feature":"12","num_nodes":"31","size_leaf_vector":"1"}},{"base_weights":[-1.3114127E-2,-1.1144428E0,8.498051E-1,-2.867844E0,-8.2300436E-1,-1.1582782E0,1.2607166E0,-4.1569676E0,-2.4714944E0,-7.6035595E-1,-1.4907298E0,-1.9920188E0,-5.163972E-1,1.2831694E0,7.9150695E-1,-1.7102896E-1,-9.28482E-2,-7.95145E-2,-1.120195E-1,-3.5442777E-2,-1.7106986E-2,-6.33009E-2,-2.0407555E-3,-1.271542E-1,-6.19944E-2,-5.221075E-3,-2.6149997E-2,5.702785E-2,4.9324363E-2,3.8598265E-2,-1.7622295E-3],"categories":[],"categories_nodes":[],"categories_segments":[],"categories_sizes":[],"default_left":[0,0,0,0,0,0,0,0,0,0,0,0,0,0,0,0,0,0,0,0,0,0,0,0,0,0,0,0,0,0,0],"id":22,"left_children":[1,3,5,7,9,11,13,15,17,19,21,23,25,27,29,-1,-1,-1,-1,-1,-1,-1,-1,-1,-1,-1,-1,-1,-1,-1,-1],"loss_changes":[6.8586157E3,1.6154097E3,3.341808E3,2.0991895E2,1.1157434E2,3.6635052E2,3.33667E1,2.6350098E0,4.454297E1,1.03466064E2,3.0412292E1,1.469209E2,2.0587181E1,1.9340332E1,2.307965E1,0E0,0E0,0E0,0E0,0E0,0E0,0E0,0E0,0E0,0E0,0E0,0E0,0E0,0E0,0E0,0E0],"parents":[2147483647,0,0,1,1,2,2,3,3,4,4,5,5,6,6,7,7,8,8,9,9,10,10,11,11,12,12,13,13,14,14],"right_children":[2,4,6,8,10,12,14,16,18,20,22,24,26,28,30,-1,-1,-1,-1,-1,-1,-1,-1,-1,-1,-1,-1,-1,-1,-1,-1],"split_conditions":[1E2,8.2E1,8.2E1,7.6E1,3.479312E4,7.6E1,3.865519E4,1.24E2,1.573E1,3.470831E4,1.067252E5,7E1,2.68E0,4E1,4.18E0,-1.7102896E-1,-9.28482E-2,-7.95145E-2,-1.120195E-1,-3.5442777E-2,-1.7106986E-2,-6.33009E-2,-2.0407555E-3,-1.271542E-1,-6.19944E-2,-5.221075E-3,-2.6149997E-2,5.702785E-2,4.9324363E-2,3.8598265E-2,-1.7622295E-3],"split_indices":[9,10,10,10,8,10,8,1,0,8,8,10,0,1,0,0,0,0,0,0,0,0,0,0,0,0,0,0,0,0,0],"split_type":[0,0,0,0,0,0,0,0,0,0,0,0,0,0,0,0,0,0,0,0,0,0,0,0,0,0,0,0,0,0,0],"sum_hessian":[7.2128843E3,3.1684563E3,4.0444282E3,4.490608E2,2.7193955E3,6.864038E2,3.3580244E3,1.0113706E2,3.479237E2,2.4900476E3,2.2934795E2,2.9674902E2,3.8965475E2,3.2013623E3,1.5666228E2,9.249525E1,8.641819E0,1.4655983E2,2.0136388E2,1.8047441E3,6.8530334E2,2.1541516E2,1.393279E1,7.718674E1,2.195623E2,1.03313324E2,2.8634143E2,8.178626E2,2.3834995E3,1.2947548E2,2.718679E1],"tree_param":{"num_deleted":"0","num_feature":"12","num_nodes":"31","size_leaf_vector":"1"}},{"base_weights":[-8.523017E-3,-1.0799843E0,8.2637525E-1,-2.7258666E0,-8.096861E-1,-1.154689E0,1.218824E0,-4.0316963E0,-2.3535585E0,-7.538674E-1,-1.5745895E0,-1.9489912E0,-5.2695674E-1,1.23735E0,8.127602E-1,-1.6629328E-1,-8.983221E-2,-1.03860274E-1,-7.707105E-2,-3.4961317E-2,-1.8055674E-2,-4.4357542E-2,-8.260379E-2,-1.7224106E-1,-6.887336E-2,2.1798108E-2,-2.3887E-2,4.4704854E-2,5.17108E-2,-3.9947467E-4,3.8934313E-2],"categories":[],"categories_nodes":[],"categories_segments":[],"categories_sizes":[],"default_left":[0,0,0,0,0,0,0,0,0,0,0,0,0,0,0,0,0,0,0,0,0,0,0,0,0,0,0,0,0,0,0],"id":23,"left_children":[1,3,5,7,9,11,13,15,17,19,21,23,25,27,29,-1,-1,-1,-1,-1,-1,-1,-1,-1,-1,-1,-1,-1,-1,-1,-1],"loss_changes":[6.443602E3,1.3990085E3,3.1503682E3,1.969541E2,1.13437256E2,3.3222473E2,2.3415527E1,2.8065186E0,2.6327393E1,9.123547E1,3.713617E1,1.4322961E2,2.9043114E1,1.853418E1,2.0276337E1,0E0,0E0,0E0,0E0,0E0,0E0,0E0,0E0,0E0,0E0,0E0,0E0,0E0,0E0,0E0,0E0],"parents":[2147483647,0,0,1,1,2,2,3,3,4,4,5,5,6,6,7,7,8,8,9,9,10,10,11,11,12,12,13,13,14,14],"right_children":[2,4,6,8,10,12,14,16,18,20,22,24,26,28,30,-1,-1,-1,-1,-1,-1,-1,-1,-1,-1,-1,-1,-1,-1,-1,-1],"split_conditions":[1E2,8.2E1,8.2E1,7.6E1,3.731621E4,7.6E1,3.865519E4,1.24E2,3.47093E4,3.470831E4,1.493E1,6.4E1,3.465623E4,3.466619E4,1.3E1,-1.6629328E-1,-8.983221E-2,-1.03860274E-1,-7.707105E-2,-3.4961317E-2,-1.8055674E-2,-4.4357542E-2,-8.260379E-2,-1.7224106E-1,-6.887336E-2,2.1798108E-2,-2.3887E-2,4.4704854E-2,5.17108E-2,-3.9947467E-4,3.8934313E-2],"split_indices":[9,10,10,10,8,10,8,1,8,8,0,10,8,8,1,0,0,0,0,0,0,0,0,0,0,0,0,0,0,0,0],"split_type":[0,0,0,0,0,0,0,0,0,0,0,0,0,0,0,0,0,0,0,0,0,0,0,0,0,0,0,0,0,0,0],"sum_hessian":[7.199092E3,3.152616E3,4.046476E3,4.421479E2,2.710468E3,6.684228E2,3.3780532E3,9.3732765E1,3.4841513E2,2.5298254E3,1.806425E2,2.932053E2,3.7521753E2,3.2267444E3,1.5130894E2,8.509095E1,8.641819E0,2.1554626E2,1.3286885E2,1.8078394E3,7.219862E2,9.601462E1,8.4627884E1,2.2616705E1,2.7058856E2,2.2237127E1,3.5298038E2,1.0343915E3,2.192353E3,2.5017761E1,1.26291176E2],"tree_param":{"num_deleted":"0","num_feature":"12","num_nodes":"31","size_leaf_vector":"1"}},{"base_weights":[-5.0324397E-3,-1.0291972E0,7.918322E-1,-2.6165526E0,-7.7347237E-1,-1.1183522E0,1.1749183E0,-3.728423E0,-2.2930357E0,-7.143335E-1,-1.4225122E0,-1.868468E0,-5.1550204E-1,1.1923609E0,7.8538996E-1,-4.9827386E-2,-1.512714E-1,-1.0427761E-1,-7.508539E-2,-4.5052953E-2,-2.4878655E-2,-6.065086E-2,3.820609E-3,-1.1847947E-1,-5.9384543E-2,4.067912E-3,-2.4526682E-2,5.2768357E-2,4.5403555E-2,-2.3226794E-3,3.7880547E-2],"categories":[],"categories_nodes":[],"categories_segments":[],"categories_sizes":[],"default_left":[0,0,0,0,0,0,0,0,0,0,0,0,0,0,0,0,0,0,0,0,0,0,0,0,0,0,0,0,0,0,0],"id":24,"left_children":[1,3,5,7,9,11,13,15,17,19,21,23,25,27,29,-1,-1,-1,-1,-1,-1,-1,-1,-1,-1,-1,-1,-1,-1,-1,-1],"loss_changes":[5.89869E3,1.2798052E3,2.9772136E3,1.4045044E2,1.02631226E2,3.0560425E2,2.113916E1,3.2332764E0,3.518445E1,9.385242E1,3.241217E1,1.180791E2,2.3018997E1,2.0527344E1,2.0697388E1,0E0,0E0,0E0,0E0,0E0,0E0,0E0,0E0,0E0,0E0,0E0,0E0,0E0,0E0,0E0,0E0],"parents":[2147483647,0,0,1,1,2,2,3,3,4,4,5,5,6,6,7,7,8,8,9,9,10,10,11,11,12,12,13,13,14,14],"right_children":[2,4,6,8,10,12,14,16,18,20,22,24,26,28,30,-1,-1,-1,-1,-1,-1,-1,-1,-1,-1,-1,-1,-1,-1,-1,-1],"split_conditions":[1E2,8.2E1,8.2E1,7.6E1,3.479312E4,7.6E1,3.865519E4,7.688E0,3.470813E4,3.467832E4,1.067252E5,7E1,1.28E0,4.8E1,1.3E1,-4.9827386E-2,-1.512714E-1,-1.0427761E-1,-7.508539E-2,-4.5052953E-2,-2.4878655E-2,-6.065086E-2,3.820609E-3,-1.1847947E-1,-5.9384543E-2,4.067912E-3,-2.4526682E-2,5.2768357E-2,4.5403555E-2,-2.3226794E-3,3.7880547E-2],"split_indices":[9,10,10,10,8,10,8,11,8,8,8,10,0,1,1,0,0,0,0,0,0,0,0,0,0,0,0,0,0,0,0],"split_type":[0,0,0,0,0,0,0,0,0,0,0,0,0,0,0,0,0,0,0,0,0,0,0,0,0,0,0,0,0,0,0],"sum_hessian":[7.2237207E3,3.1607742E3,4.0629463E3,4.3599118E2,2.7247832E3,6.7806555E2,3.3848806E3,9.3522285E1,3.424689E2,2.5010913E3,2.2369186E2,3.0025934E2,3.7780624E2,3.2358608E3,1.4901985E2,2.9922493E0,9.053004E1,1.8916144E2,1.5330745E2,4.5394525E2,2.047146E3,2.1068166E2,1.3010211E1,7.452389E1,2.2573546E2,5.1604713E1,3.2620154E2,9.928317E2,2.243029E3,2.4169455E1,1.248504E2],"tree_param":{"num_deleted":"0","num_feature":"12","num_nodes":"31","size_leaf_vector":"1"}},{"base_weights":[-5.2313185E-3,-9.755502E-1,7.522951E-1,-2.5054836E0,-7.264098E-1,-1.0503795E0,1.1146382E0,-3.594459E0,-2.1812322E0,-6.701074E-1,-1.3413913E0,-1.7709577E0,-5.02779E-1,1.1193957E0,-2.7661255E-4,-4.9044322E-2,-1.456763E-1,-9.846931E-2,-7.263323E-2,-4.251914E-2,-2.2877514E-2,-5.7521008E-2,8.889843E-3,-1.6283697E-1,-6.3331366E-2,1.2511441E-2,-2.2346703E-2,4.6583246E-2,3.9574414E-2,-3.532265E-2,1.3220014E-2],"categories":[],"categories_nodes":[],"categories_segments":[],"categories_sizes":[],"default_left":[0,0,0,0,0,0,0,0,0,0,0,0,0,0,0,0,0,0,0,0,0,0,0,0,0,0,0,0,0,0,0],"id":25,"left_children":[1,3,5,7,9,11,13,15,17,19,21,23,25,27,29,-1,-1,-1,-1,-1,-1,-1,-1,-1,-1,-1,-1,-1,-1,-1,-1],"loss_changes":[5.297019E3,1.2006426E3,2.645767E3,1.4026001E2,9.2375854E1,2.65885E2,1.7879395E1,2.1091309E0,2.646045E1,9.5037964E1,3.4806305E1,1.1319861E2,1.8045128E1,1.7416504E1,5.349714E0,0E0,0E0,0E0,0E0,0E0,0E0,0E0,0E0,0E0,0E0,0E0,0E0,0E0,0E0,0E0,0E0],"parents":[2147483647,0,0,1,1,2,2,3,3,4,4,5,5,6,6,7,7,8,8,9,9,10,10,11,11,12,12,13,13,14,14],"right_children":[2,4,6,8,10,12,14,16,18,20,22,24,26,28,30,-1,-1,-1,-1,-1,-1,-1,-1,-1,-1,-1,-1,-1,-1,-1,-1],"split_conditions":[1E2,8.2E1,8.2E1,7.6E1,3.479312E4,7.6E1,7.663034E4,5E1,3.470813E4,3.467927E4,1.067252E5,6.4E1,3.465623E4,8E0,6E1,-4.9044322E-2,-1.456763E-1,-9.846931E-2,-7.263323E-2,-4.251914E-2,-2.2877514E-2,-5.7521008E-2,8.889843E-3,-1.6283697E-1,-6.3331366E-2,1.2511441E-2,-2.2346703E-2,4.6583246E-2,3.9574414E-2,-3.532265E-2,1.3220014E-2],"split_indices":[9,10,10,10,8,10,8,7,8,8,8,10,8,2,7,0,0,0,0,0,0,0,0,0,0,0,0,0,0,0,0],"split_type":[0,0,0,0,0,0,0,0,0,0,0,0,0,0,0,0,0,0,0,0,0,0,0,0,0,0,0,0,0,0,0],"sum_hessian":[7.2024194E3,3.157451E3,4.0449683E3,4.396309E2,2.71782E3,6.7634106E2,3.3686272E3,9.624112E1,3.4338977E2,2.493698E3,2.2412204E2,2.9011523E2,3.862258E2,3.3543057E3,1.4321579E1,2.944625E0,9.329649E1,1.8777226E2,1.5561752E2,4.9461395E2,1.9990841E3,2.1122862E2,1.2893418E1,1.8764952E1,2.7135028E2,2.4180084E1,3.6204572E2,2.477499E3,8.768067E2,2.9933832E0,1.1328196E1],"tree_param":{"num_deleted":"0","num_feature":"12","num_nodes":"31","size_leaf_vector":"1"}},{"base_weights":[1.5683802E-3,-1.580002E0,2.8674132E-1,-3.0194452E0,-1.4551432E0,1.1855853E0,1.2852772E-1,-2.4359503E0,-1.5291744E-1,-7.334861E-1,-1.5602407E0,1.223526E0,5.582697E-1,3.3305532E-1,-4.7710747E-1,-1.5783523E-1,-6.8727E-2,-5.2842185E-2,-1.4609205E-2,-7.909918E-2,-5.5626784E-2,5.6435123E-2,4.5509934E-2,2.7338283E-2,-3.1380087E-2,2.2444317E-2,7.3555945E-3,-1.5494034E-2,-5.8229502E-2],"categories":[],"categories_nodes":[],"categories_segments":[],"categories_sizes":[],"default_left":[0,0,0,0,0,0,0,0,0,0,0,0,0,0,0,0,0,0,0,0,0,0,0,0,0,0,0,0,0],"id":26,"left_children":[1,3,5,7,9,11,13,15,-1,17,19,21,23,25,27,-1,-1,-1,-1,-1,-1,-1,-1,-1,-1,-1,-1,-1,-1],"loss_changes":[3.2226228E3,1.8739038E2,8.60578E2,2.1349121E1,7.418286E1,2.019336E1,6.382196E2,4.5947205E1,0E0,2.7584969E1,5.6642822E1,1.0489502E1,1.0374758E1,1.307919E2,1.1314163E2,0E0,0E0,0E0,0E0,0E0,0E0,0E0,0E0,0E0,0E0,0E0,0E0,0E0,0E0],"parents":[2147483647,0,0,1,1,2,2,3,3,4,4,5,5,6,6,7,7,9,9,10,10,11,11,12,12,13,13,14,14],"right_children":[2,4,6,8,10,12,14,16,-1,18,20,22,24,26,28,-1,-1,-1,-1,-1,-1,-1,-1,-1,-1,-1,-1,-1,-1],"split_conditions":[8.2E1,7E1,1E2,3.46553E4,1E2,3.865519E4,3.470614E4,6.4E1,-1.5291744E-1,7.6E1,7.6E1,4E1,1.08E2,3.467523E4,7.663034E4,-1.5783523E-1,-6.8727E-2,-5.2842185E-2,-1.4609205E-2,-7.909918E-2,-5.5626784E-2,5.6435123E-2,4.5509934E-2,2.7338283E-2,-3.1380087E-2,2.2444317E-2,7.3555945E-3,-1.5494034E-2,-5.8229502E-2],"split_indices":[10,10,5,8,5,8,8,10,0,10,10,1,1,8,8,0,0,0,0,0,0,0,0,0,0,0,0,0,0],"split_type":[0,0,0,0,0,0,0,0,0,0,0,0,0,0,0,0,0,0,0,0,0,0,0,0,0,0,0,0,0],"sum_hessian":[7.1411626E3,1.0895321E3,6.0516304E3,8.326294E1,1.00626917E3,9.0382544E2,5.147805E3,5.2906017E1,3.0356922E1,1.299462E2,8.7632294E2,8.5048627E2,5.3339172E1,3.8489019E3,1.2989032E3,1.4148375E1,3.8757645E1,4.8071445E1,8.187475E1,2.4707042E2,6.2925256E2,2.573961E2,5.9309015E2,4.9688686E1,3.6504846E0,1.5198088E3,2.329093E3,1.1923378E3,1.0656552E2],"tree_param":{"num_deleted":"0","num_feature":"12","num_nodes":"29","size_leaf_vector":"1"}},{"base_weights":[-1.2068758E-3,-1.5136703E0,2.7964884E-1,-2.0794327E0,-1.2016785E0,1.1586792E0,1.1732638E-1,-1.5125404E-1,-1.9610742E0,-8.420955E-1,-1.609428E0,1.0790057E0,1.5432901E0,3.109064E-1,-4.6413356E-1,-6.441915E-2,-1.0830629E-1,-2.512859E-2,-4.818758E-2,2.4538473E-3,-6.828263E-2,4.832888E-2,3.617914E-2,6.2678725E-2,1.7058969E-2,2.519484E-2,-5.294662E-3,4.386964E-2,-2.1826416E-2],"categories":[],"categories_nodes":[],"categories_segments":[],"categories_sizes":[],"default_left":[0,0,0,0,0,0,0,0,0,0,0,0,0,0,0,0,0,0,0,0,0,0,0,0,0,0,0,0,0],"id":27,"left_children":[1,3,5,7,9,11,13,-1,15,17,19,21,23,25,27,-1,-1,-1,-1,-1,-1,-1,-1,-1,-1,-1,-1,-1,-1],"loss_changes":[3.0730916E3,1.9499341E2,8.703262E2,6.5739624E1,1.0505884E2,2.580664E1,5.8026337E2,0E0,9.025354E1,2.9102081E1,5.604071E1,1.5727966E1,2.8554382E0,5.468965E2,1.6506888E2,0E0,0E0,0E0,0E0,0E0,0E0,0E0,0E0,0E0,0E0,0E0,0E0,0E0,0E0],"parents":[2147483647,0,0,1,1,2,2,3,3,4,4,5,5,6,6,8,8,9,9,10,10,11,11,12,12,13,13,14,14],"right_children":[2,4,6,8,10,12,14,-1,16,18,20,22,24,26,28,-1,-1,-1,-1,-1,-1,-1,-1,-1,-1,-1,-1,-1,-1],"split_conditions":[8.2E1,7.6E1,1E2,6.4E1,1.535E1,2.237E1,3.470625E4,-1.5125404E-1,3.46742E4,3.470331E4,3.465623E4,3.468234E4,1.6438E1,1.963E1,6E-1,-6.441915E-2,-1.0830629E-1,-2.512859E-2,-4.818758E-2,2.4538473E-3,-6.828263E-2,4.832888E-2,3.617914E-2,6.2678725E-2,1.7058969E-2,2.519484E-2,-5.294662E-3,4.386964E-2,-2.1826416E-2],"split_indices":[10,10,5,10,0,0,8,0,8,8,8,8,11,0,0,0,0,0,0,0,0,0,0,0,0,0,0,0,0],"split_type":[0,0,0,0,0,0,0,0,0,0,0,0,0,0,0,0,0,0,0,0,0,0,0,0,0,0,0,0,0],"sum_hessian":[7.2304873E3,1.1310079E3,6.0994795E3,3.979819E2,7.3302594E2,9.4885205E2,5.1506274E3,2.1853016E1,3.761289E2,3.9277713E2,3.4024884E2,7.923291E2,1.5652295E2,3.8648647E3,1.2857628E3,2.6023627E2,1.1589265E2,2.5048845E2,1.4228868E2,1.882689E1,3.2142194E2,4.4845596E2,3.438731E2,1.5248395E2,4.038991E0,2.2470906E3,1.6177742E3,6.258749E1,1.2231753E3],"tree_param":{"num_deleted":"0","num_feature":"12","num_nodes":"29","size_leaf_vector":"1"}},{"base_weights":[-6.528091E-3,-9.215768E-1,7.0341873E-1,-2.2890704E0,-7.0043206E-1,-9.0194553E-1,1.0269773E0,-3.386102E0,-1.9652878E0,-6.627068E-1,-1.4849192E0,-2.5349102E0,-6.937051E-1,1.0455822E0,6.444448E-1,-1.399507E-1,-7.850323E-2,-6.339825E-2,-8.830295E-2,-4.0670823E-2,-2.3069143E-2,-6.72635E-2,2.0262958E-3,-1.3754152E-1,-8.4760524E-2,-4.7526807E-2,-1.6267119E-2,4.724646E-2,3.9918873E-2,3.155023E-2,-2.832061E-3],"categories":[],"categories_nodes":[],"categories_segments":[],"categories_sizes":[],"default_left":[0,0,0,0,0,0,0,0,0,0,0,0,0,0,0,0,0,0,0,0,0,0,0,0,0,0,0,0,0,0,0],"id":28,"left_children":[1,3,5,7,9,11,13,15,17,19,21,23,25,27,29,-1,-1,-1,-1,-1,-1,-1,-1,-1,-1,-1,-1,-1,-1,-1,-1],"loss_changes":[4.695314E3,9.5171826E2,2.115897E3,1.4250928E2,7.8559814E1,2.2899463E2,2.2766113E1,1.8563232E0,2.465332E1,7.796838E1,3.7387115E1,1.4207245E1,8.549118E1,1.8478027E1,1.6869942E1,0E0,0E0,0E0,0E0,0E0,0E0,0E0,0E0,0E0,0E0,0E0,0E0,0E0,0E0,0E0,0E0],"parents":[2147483647,0,0,1,1,2,2,3,3,4,4,5,5,6,6,7,7,8,8,9,9,10,10,11,11,12,12,13,13,14,14],"right_children":[2,4,6,8,10,12,14,16,18,20,22,24,26,28,30,-1,-1,-1,-1,-1,-1,-1,-1,-1,-1,-1,-1,-1,-1,-1,-1],"split_conditions":[1E2,8.2E1,8.2E1,7.6E1,7.258012E4,7E1,3.865519E4,1.24E2,1.573E1,3.467927E4,1.067252E5,6.4E1,7.6E1,4E1,4.5E0,-1.399507E-1,-7.850323E-2,-6.339825E-2,-8.830295E-2,-4.0670823E-2,-2.3069143E-2,-6.72635E-2,2.0262958E-3,-1.3754152E-1,-8.4760524E-2,-4.7526807E-2,-1.6267119E-2,4.724646E-2,3.9918873E-2,3.155023E-2,-2.832061E-3],"split_indices":[9,10,10,10,8,10,8,1,0,8,8,10,10,1,0,0,0,0,0,0,0,0,0,0,0,0,0,0,0,0,0],"split_type":[0,0,0,0,0,0,0,0,0,0,0,0,0,0,0,0,0,0,0,0,0,0,0,0,0,0,0,0,0,0,0],"sum_hessian":[7.2236123E3,3.1556748E3,4.0679377E3,4.3667905E2,2.7189958E3,6.817583E2,3.3861794E3,9.5202034E1,3.4147702E2,2.5977612E3,1.21234505E2,7.457959E1,6.071787E2,3.2258213E3,1.6035811E2,8.5518005E1,9.684025E0,1.3875215E2,2.0272485E2,5.0333655E2,2.0944248E3,1.0730171E2,1.393279E1,1.8925116E1,5.5654476E1,2.206989E2,3.864798E2,8.2600385E2,2.3998174E3,1.3326459E2,2.7093527E1],"tree_param":{"num_deleted":"0","num_feature":"12","num_nodes":"31","size_leaf_vector":"1"}},{"base_weights":[-3.7895858E-3,-8.760682E-1,6.81527E-1,-8.18293E-1,-1.7192272E0,-1.7108057E0,7.286597E-1,-1.3168384E0,-6.9305706E-1,-9.3962616E-1,-2.271754E0,-2.0024896E0,8.371793E-1,7.5783795E-1,-2.1594179E-1,-6.2117614E-2,-3.9239157E-2,-2.4322547E-2,-4.1562323E-2,-5.181211E-2,4.346179E-3,-1.00025155E-1,-5.1021814E-2,4.5848403E-2,-8.695729E-2,4.1583646E-2,1.0672593E-2,2.3576595E-2,3.5619896E-2,-2.4002767E-3,-9.185274E-2],"categories":[],"categories_nodes":[],"categories_segments":[],"categories_sizes":[],"default_left":[0,0,0,0,0,0,0,0,0,0,0,0,0,0,0,0,0,0,0,0,0,0,0,0,0,0,0,0,0,0,0],"id":29,"left_children":[1,3,5,7,9,11,13,15,17,19,21,23,25,27,29,-1,-1,-1,-1,-1,-1,-1,-1,-1,-1,-1,-1,-1,-1,-1,-1],"loss_changes":[4.3118535E3,1.5178442E2,4.5796606E2,1.8385327E2,8.261365E1,6.1800568E1,1.09548584E2,4.4122803E1,6.875818E1,3.274552E1,2.0213257E1,4.3394196E1,5.406594E-1,8.484717E1,3.8749046E1,0E0,0E0,0E0,0E0,0E0,0E0,0E0,0E0,0E0,0E0,0E0,0E0,0E0,0E0,0E0,0E0],"parents":[2147483647,0,0,1,1,2,2,3,3,4,4,5,5,6,6,7,7,8,8,9,9,10,10,11,11,12,12,13,13,14,14],"right_children":[2,4,6,8,10,12,14,16,18,20,22,24,26,28,30,-1,-1,-1,-1,-1,-1,-1,-1,-1,-1,-1,-1,-1,-1,-1,-1],"split_conditions":[1E2,5.54602E4,3.465536E4,3.467832E4,9E0,1.197E1,5.281626E4,1.02E2,8E0,7.9E1,7E1,1.143E1,4.3E1,3.467214E4,8E0,-6.2117614E-2,-3.9239157E-2,-2.4322547E-2,-4.1562323E-2,-5.181211E-2,4.346179E-3,-1.00025155E-1,-5.1021814E-2,4.5848403E-2,-8.695729E-2,4.1583646E-2,1.0672593E-2,2.3576595E-2,3.5619896E-2,-2.4002767E-3,-9.185274E-2],"split_indices":[9,8,8,8,0,0,8,1,2,1,7,0,1,8,2,0,0,0,0,0,0,0,0,0,0,0,0,0,0,0,0],"split_type":[0,0,0,0,0,0,0,0,0,0,0,0,0,0,0,0,0,0,0,0,0,0,0,0,0,0,0,0,0,0,0],"sum_hessian":[7.2090283E3,3.1716106E3,4.037418E3,2.9719097E3,1.99701E2,7.66426E1,3.9607751E3,5.928466E2,2.379063E3,8.507025E1,1.14630745E2,6.915425E1,7.488348E0,3.8424785E3,1.1829668E2,3.4386758E2,2.4897906E2,1.9143322E3,4.6473087E2,6.316678E1,2.1903475E1,9.075894E1,2.3871803E1,2.983745E0,6.617051E1,4.3125467E0,3.175801E0,1.6978245E3,2.144654E3,1.1196223E2,6.3344517E0],"tree_param":{"num_deleted":"0","num_feature":"12","num_nodes":"31","size_leaf_vector":"1"}},{"base_weights":[-5.975282E-3,-8.571947E-1,6.464708E-1,-2.1497421E0,-6.441043E-1,-8.863746E-1,9.5855474E-1,-3.0850253E0,-1.8697484E0,-4.69739E-1,-7.596758E-1,-1.5199063E0,-3.8137043E-1,9.324501E-1,1.2175297E0,-6.1426014E-2,-1.2881458E-1,-1.42059E-2,-7.6904535E-2,-8.796757E-3,-2.1691471E-2,-2.9170284E-2,-5.162084E-2,-1.3649605E-1,-5.4313887E-2,-1.8871045E-3,-2.001875E-2,3.949677E-2,3.0496813E-2,5.5731542E-2,3.5419203E-2],"categories":[],"categories_nodes":[],"categories_segments":[],"categories_sizes":[],"default_left":[0,0,0,0,0,0,0,0,0,0,0,0,0,0,0,0,0,0,0,0,0,0,0,0,0,0,0,0,0,0,0],"id":30,"left_children":[1,3,5,7,9,11,13,15,17,19,21,23,25,27,29,-1,-1,-1,-1,-1,-1,-1,-1,-1,-1,-1,-1,-1,-1,-1,-1],"loss_changes":[3.9990671E3,8.5777954E2,1.9516958E3,1.0403735E2,5.339453E1,2.1978009E2,2.063208E1,1.0785645E1,2.6236816E1,1.9254227E1,2.4140137E1,8.4470764E1,1.5353516E1,2.7337158E1,1.5254944E1,0E0,0E0,0E0,0E0,0E0,0E0,0E0,0E0,0E0,0E0,0E0,0E0,0E0,0E0,0E0,0E0],"parents":[2147483647,0,0,1,1,2,2,3,3,4,4,5,5,6,6,7,7,8,8,9,9,10,10,11,11,12,12,13,13,14,14],"right_children":[2,4,6,8,10,12,14,16,18,20,22,24,26,28,30,-1,-1,-1,-1,-1,-1,-1,-1,-1,-1,-1,-1,-1,-1,-1,-1],"split_conditions":[1E2,8.2E1,8.2E1,7.6E1,7.6E1,7.6E1,2.895E1,9.25E0,6.75E0,2.2E1,4.065E1,6.4E1,2.68E0,8E0,3.37E1,-6.1426014E-2,-1.2881458E-1,-1.42059E-2,-7.6904535E-2,-8.796757E-3,-2.1691471E-2,-2.9170284E-2,-5.162084E-2,-1.3649605E-1,-5.4313887E-2,-1.8871045E-3,-2.001875E-2,3.949677E-2,3.0496813E-2,5.5731542E-2,3.5419203E-2],"split_indices":[9,10,10,10,1,10,0,11,11,1,0,10,0,2,0,0,0,0,0,0,0,0,0,0,0,0,0,0,0,0,0],"split_type":[0,0,0,0,0,0,0,0,0,0,0,0,0,0,0,0,0,0,0,0,0,0,0,0,0,0,0,0,0,0,0],"sum_hessian":[7.196669E3,3.122389E3,4.0742798E3,4.3933395E2,2.683055E3,6.8857324E2,3.3857065E3,9.660411E1,3.4272983E2,1.073528E3,1.6095271E3,3.0363782E2,3.8493542E2,3.0840366E3,3.016698E2,9.744264E0,8.685985E1,1.2079696E1,3.3065015E2,2.4340831E2,8.301196E2,1.5267861E3,8.274091E1,2.078629E1,2.8285153E2,1.0187212E2,2.830633E2,2.323315E3,7.6072186E2,1.9307838E2,1.0859139E2],"tree_param":{"num_deleted":"0","num_feature":"12","num_nodes":"31","size_leaf_vector":"1"}},{"base_weights":[-8.039517E-3,-8.1520766E-1,6.2904334E-1,-2.0749245E0,-6.064626E-1,-8.355598E-1,9.289094E-1,-3.0914392E0,-1.7821637E0,-5.738812E-1,-1.4576855E0,-2.377002E0,-6.5324795E-1,8.351898E-1,9.918113E-1,-1.2758987E-1,-6.806136E-2,-5.7039026E-2,-8.061923E-2,-1.477409E-2,-2.8291626E-2,-6.684064E-2,-1.1145378E-3,-1.3130556E-1,-7.6205015E-2,-4.4373993E-2,-1.5570417E-2,3.605295E-2,2.5646303E-2,4.0229626E-2,-5.5143437E-3],"categories":[],"categories_nodes":[],"categories_segments":[],"categories_sizes":[],"default_left":[0,0,0,0,0,0,0,0,0,0,0,0,0,0,0,0,0,0,0,0,0,0,0,0,0,0,0,0,0,0,0],"id":31,"left_children":[1,3,5,7,9,11,13,15,17,19,21,23,25,27,29,-1,-1,-1,-1,-1,-1,-1,-1,-1,-1,-1,-1,-1,-1,-1,-1],"loss_changes":[3.703621E3,8.3290894E2,1.7693671E3,1.23135254E2,7.3991394E1,1.8943088E2,1.8045654E1,2.5462646E0,2.3730347E1,7.1265564E1,3.0188797E1,1.813498E1,7.323639E1,1.6230469E1,3.1578125E1,0E0,0E0,0E0,0E0,0E0,0E0,0E0,0E0,0E0,0E0,0E0,0E0,0E0,0E0,0E0,0E0],"parents":[2147483647,0,0,1,1,2,2,3,3,4,4,5,5,6,6,7,7,8,8,9,9,10,10,11,11,12,12,13,13,14,14],"right_children":[2,4,6,8,10,12,14,16,18,20,22,24,26,28,30,-1,-1,-1,-1,-1,-1,-1,-1,-1,-1,-1,-1,-1,-1,-1,-1],"split_conditions":[1E2,8.2E1,8.2E1,7.6E1,7.663034E4,7E1,7.18E0,1.24E2,1.573E1,7.6E1,1.067252E5,6.4E1,7.6E1,5.05E0,3.731621E4,-1.2758987E-1,-6.806136E-2,-5.7039026E-2,-8.061923E-2,-1.477409E-2,-2.8291626E-2,-6.684064E-2,-1.1145378E-3,-1.3130556E-1,-7.6205015E-2,-4.4373993E-2,-1.5570417E-2,3.605295E-2,2.5646303E-2,4.0229626E-2,-5.5143437E-3],"split_indices":[9,10,10,10,8,10,0,1,0,1,8,10,10,0,8,0,0,0,0,0,0,0,0,0,0,0,0,0,0,0,0],"split_type":[0,0,0,0,0,0,0,0,0,0,0,0,0,0,0,0,0,0,0,0,0,0,0,0,0,0,0,0,0,0,0],"sum_hessian":[7.1982295E3,3.1750107E3,4.0232188E3,4.4879303E2,2.7262175E3,6.8312634E2,3.3400923E3,9.607727E1,3.5271576E2,2.6289407E3,9.727695E1,6.9704056E1,6.134223E2,1.3529061E3,1.9871862E3,8.731185E1,8.765415E0,1.4522891E2,2.0748686E2,1.0408141E3,1.5881267E3,8.4353905E1,1.2923041E1,1.9796669E1,4.990739E1,2.2253499E2,3.9088733E2,1.0035618E3,3.4934436E2,1.9631985E3,2.3987745E1],"tree_param":{"num_deleted":"0","num_feature":"12","num_nodes":"31","size_leaf_vector":"1"}},{"base_weights":[-1.1295301E-2,-7.976971E-1,5.98993E-1,-2.0147693E0,-5.991471E-1,-8.209537E-1,8.8394886E-1,-2.9618933E0,-1.7457136E0,-4.340632E-1,-7.1286106E-1,-2.2115135E0,-6.3623387E-1,7.983965E-1,9.402161E-1,-1.22399844E-1,-6.514437E-2,-8.5286675E-3,-7.117627E-2,-8.479721E-3,-1.9745188E-2,-2.6424594E-2,-4.200312E-2,-1.2912434E-1,-7.043123E-2,-4.2236283E-2,-1.5543191E-2,3.4093E-2,2.424607E-2,3.780387E-2,-1.8714865E-3],"categories":[],"categories_nodes":[],"categories_segments":[],"categories_sizes":[],"default_left":[0,0,0,0,0,0,0,0,0,0,0,0,0,0,0,0,0,0,0,0,0,0,0,0,0,0,0,0,0,0,0],"id":32,"left_children":[1,3,5,7,9,11,13,15,17,19,21,23,25,27,29,-1,-1,-1,-1,-1,-1,-1,-1,-1,-1,-1,-1,-1,-1,-1,-1],"loss_changes":[3.4440242E3,7.5530164E2,1.6363207E3,1.0151367E2,5.00412E1,1.7091837E2,1.4702393E1,2.3588867E0,1.7143066E1,1.4418457E1,2.6710815E1,2.4603241E1,6.152475E1,1.2950195E1,9.815918E0,0E0,0E0,0E0,0E0,0E0,0E0,0E0,0E0,0E0,0E0,0E0,0E0,0E0,0E0,0E0,0E0],"parents":[2147483647,0,0,1,1,2,2,3,3,4,4,5,5,6,6,7,7,8,8,9,9,10,10,11,11,12,12,13,13,14,14],"right_children":[2,4,6,8,10,12,14,16,18,20,22,24,26,28,30,-1,-1,-1,-1,-1,-1,-1,-1,-1,-1,-1,-1,-1,-1,-1,-1],"split_conditions":[1E2,8.2E1,8.2E1,7.6E1,7.7E1,7E1,7.18E0,1.24E2,6.75E0,2.2E1,3.665E1,6.4E1,7.6E1,8E0,4.065E1,-1.22399844E-1,-6.514437E-2,-8.5286675E-3,-7.117627E-2,-8.479721E-3,-1.9745188E-2,-2.6424594E-2,-4.200312E-2,-1.2912434E-1,-7.043123E-2,-4.2236283E-2,-1.5543191E-2,3.4093E-2,2.424607E-2,3.780387E-2,-1.8714865E-3],"split_indices":[9,10,10,10,1,10,0,1,11,1,0,10,10,2,0,0,0,0,0,0,0,0,0,0,0,0,0,0,0,0,0],"split_type":[0,0,0,0,0,0,0,0,0,0,0,0,0,0,0,0,0,0,0,0,0,0,0,0,0,0,0,0,0,0,0],"sum_hessian":[7.172079E3,3.133595E3,4.0384841E3,4.3694067E2,2.696654E3,6.743598E2,3.3641243E3,9.2236145E1,3.4470453E2,1.1038207E3,1.5928335E3,7.650327E1,5.9785657E2,1.346777E3,2.0173473E3,8.3501915E1,8.734233E0,7.730863E0,3.3697366E2,2.3538802E2,8.684326E2,1.3842804E3,2.0855316E2,1.9714602E1,5.678867E1,2.1945018E2,3.7840637E2,1.0463798E3,3.0039725E2,2.0075054E3,9.841922E0],"tree_param":{"num_deleted":"0","num_feature":"12","num_nodes":"31","size_leaf_vector":"1"}},{"base_weights":[7.0697377E-3,-7.525553E-1,5.906051E-1,-6.922133E-1,-1.6067526E0,-1.5229837E0,6.349193E-1,-1.1594614E0,-5.7738453E-1,-8.959144E-1,-2.111146E0,3.9551517E-1,-1.8885725E0,6.5552974E-1,-3.979006E-1,-1.512919E-2,-4.964202E-2,-1.9672386E-2,-3.6981903E-2,3.5776902E-2,-4.3024577E-2,-6.6901796E-2,-9.490228E-2,6.1975125E-2,-2.1053016E-2,-7.8719154E-2,1.4287406E-2,2.009911E-2,3.0888578E-2,-7.9399785E-3,-1.4682433E-1],"categories":[],"categories_nodes":[],"categories_segments":[],"categories_sizes":[],"default_left":[0,0,0,0,0,0,0,0,0,0,0,0,0,0,0,0,0,0,0,0,0,0,0,0,0,0,0,0,0,0,0],"id":33,"left_children":[1,3,5,7,9,11,13,15,17,19,21,23,25,27,29,-1,-1,-1,-1,-1,-1,-1,-1,-1,-1,-1,-1,-1,-1,-1,-1],"loss_changes":[3.1977817E3,1.5932324E2,3.8406836E2,1.559137E2,6.981915E1,6.0671555E1,8.561682E1,3.578839E1,6.9104004E1,3.0454048E1,5.6620483E0,1.7754528E1,1.4105423E1,6.923218E1,5.039489E1,0E0,0E0,0E0,0E0,0E0,0E0,0E0,0E0,0E0,0E0,0E0,0E0,0E0,0E0,0E0,0E0],"parents":[2147483647,0,0,1,1,2,2,3,3,4,4,5,5,6,6,7,7,8,8,9,9,10,10,11,11,12,12,13,13,14,14],"right_children":[2,4,6,8,10,12,14,16,18,20,22,24,26,28,30,-1,-1,-1,-1,-1,-1,-1,-1,-1,-1,-1,-1,-1,-1,-1,-1],"split_conditions":[1E2,5.54602E4,3.465536E4,3.467832E4,9E0,8.5E0,7.386816E4,6E1,8E0,1.0792E1,1.2792E1,4.4E1,1.197E1,3.467214E4,8E0,-1.512919E-2,-4.964202E-2,-1.9672386E-2,-3.6981903E-2,3.5776902E-2,-4.3024577E-2,-6.6901796E-2,-9.490228E-2,6.1975125E-2,-2.1053016E-2,-7.8719154E-2,1.4287406E-2,2.009911E-2,3.0888578E-2,-7.9399785E-3,-1.4682433E-1],"split_indices":[9,8,8,8,0,11,8,7,2,11,11,1,0,8,2,0,0,0,0,0,0,0,0,0,0,0,0,0,0,0,0],"split_type":[0,0,0,0,0,0,0,0,0,0,0,0,0,0,0,0,0,0,0,0,0,0,0,0,0,0,0,0,0,0,0],"sum_hessian":[7.2100977E3,3.1321716E3,4.0779263E3,2.9288901E3,2.0328133E2,8.237296E1,3.9955532E3,5.7420526E2,2.3546848E3,8.667842E1,1.166029E2,1.3158328E1,6.921464E1,3.9180964E3,7.7456894E1,5.53632E1,5.188421E2,1.8929183E3,4.6176654E2,7.180917E0,7.9497505E1,4.906943E1,6.753347E1,5.239094E0,7.9192343E0,6.708983E1,2.1248074E0,1.6995106E3,2.218586E3,7.500807E1,2.4488225E0],"tree_param":{"num_deleted":"0","num_feature":"12","num_nodes":"31","size_leaf_vector":"1"}},{"base_weights":[-1.1872941E-2,-7.1872437E-1,5.420364E-1,-6.633509E-1,-1.5572721E0,-1.5521958E0,5.841295E-1,-8.5358256E-1,-4.160961E-1,-8.956607E-1,-1.9974823E0,8.447247E-1,-1.817242E0,6.089203E-1,-1.1118152E-1,-4.9845617E-2,-3.0653436E-2,-2.7179105E-2,-9.432937E-3,-4.8993096E-2,-1.9112427E-3,-8.80457E-2,-4.7889605E-2,5.6550886E-2,-7.813603E-3,-7.702902E-2,1.3510461E-2,1.832763E-2,2.907331E-2,9.802271E-4,-8.924268E-2],"categories":[],"categories_nodes":[],"categories_segments":[],"categories_sizes":[],"default_left":[0,0,0,0,0,0,0,0,0,0,0,0,0,0,0,0,0,0,0,0,0,0,0,0,0,0,0,0,0,0,0],"id":34,"left_children":[1,3,5,7,9,11,13,15,17,19,21,23,25,27,29,-1,-1,-1,-1,-1,-1,-1,-1,-1,-1,-1,-1,-1,-1,-1,-1],"loss_changes":[2.8233777E3,1.4504163E2,3.5821228E2,1.3923914E2,5.3147003E1,5.402559E1,6.847717E1,5.5618896E1,6.1294342E1,2.261245E1,1.352478E1,6.08694E0,1.8333344E1,6.737891E1,3.9857105E1,0E0,0E0,0E0,0E0,0E0,0E0,0E0,0E0,0E0,0E0,0E0,0E0,0E0,0E0,0E0,0E0],"parents":[2147483647,0,0,1,1,2,2,3,3,4,4,5,5,6,6,7,7,8,8,9,9,10,10,11,11,12,12,13,13,14,14],"right_children":[2,4,6,8,10,12,14,16,18,20,22,24,26,28,30,-1,-1,-1,-1,-1,-1,-1,-1,-1,-1,-1,-1,-1,-1,-1,-1],"split_conditions":[1E2,5.54602E4,3.465536E4,3.470234E4,9E0,7.167E0,4.151323E4,3.466919E4,7.82E0,7.9E1,7E1,4.3E1,1.197E1,3.467214E4,8E0,-4.9845617E-2,-3.0653436E-2,-2.7179105E-2,-9.432937E-3,-4.8993096E-2,-1.9112427E-3,-8.80457E-2,-4.7889605E-2,5.6550886E-2,-7.813603E-3,-7.702902E-2,1.3510461E-2,1.832763E-2,2.907331E-2,9.802271E-4,-8.924268E-2],"split_indices":[9,8,8,8,0,11,8,8,0,1,7,1,0,8,2,0,0,0,0,0,0,0,0,0,0,0,0,0,0,0,0],"split_type":[0,0,0,0,0,0,0,0,0,0,0,0,0,0,0,0,0,0,0,0,0,0,0,0,0,0,0,0,0,0,0],"sum_hessian":[7.207121E3,3.1661533E3,4.0409678E3,2.973388E3,1.9276558E2,7.820754E1,3.9627603E3,1.6777014E3,1.2956865E3,7.9440384E1,1.1332519E2,7.351428E0,7.085611E1,3.826575E3,1.3618512E2,3.0023907E2,1.3774623E3,5.242335E2,7.7145294E2,5.6584E1,2.2856384E1,8.754417E1,2.5781025E1,4.2871757E0,3.0642526E0,6.7662735E1,3.1933768E0,1.6838507E3,2.1427244E3,1.2985066E2,6.3344517E0],"tree_param":{"num_deleted":"0","num_feature":"12","num_nodes":"31","size_leaf_vector":"1"}},{"base_weights":[2.4640558E-3,-6.938717E-1,5.4155463E-1,-1.8669252E0,-5.0481486E-1,-7.7995265E-1,8.10361E-1,-2.6763864E0,-1.6271471E0,-4.608927E-1,-1.0107083E0,-1.3098221E0,-3.736196E-1,7.877597E-1,1.0365263E0,-6.0264423E-2,-1.11987896E-1,-6.3626263E-3,-6.64282E-2,-2.2709632E-2,-6.9230134E-3,-4.300854E-2,1.0692827E-2,-1.2043381E-1,-4.58975E-2,7.744532E-3,-1.8306704E-2,3.354489E-2,2.5404507E-2,4.752319E-2,2.337377E-2],"categories":[],"categories_nodes":[],"categories_segments":[],"categories_sizes":[],"default_left":[0,0,0,0,0,0,0,0,0,0,0,0,0,0,0,0,0,0,0,0,0,0,0,0,0,0,0,0,0,0,0],"id":35,"left_children":[1,3,5,7,9,11,13,15,17,19,21,23,25,27,29,-1,-1,-1,-1,-1,-1,-1,-1,-1,-1,-1,-1,-1,-1,-1,-1],"loss_changes":[2.699987E3,6.941593E2,1.4413612E3,7.569617E1,5.9187744E1,1.4677408E2,1.5591797E1,5.451782E0,1.6251465E1,7.647589E1,1.8255295E1,7.514215E1,1.8827717E1,2.2785034E1,1.915805E1,0E0,0E0,0E0,0E0,0E0,0E0,0E0,0E0,0E0,0E0,0E0,0E0,0E0,0E0,0E0,0E0],"parents":[2147483647,0,0,1,1,2,2,3,3,4,4,5,5,6,6,7,7,8,8,9,9,10,10,11,11,12,12,13,13,14,14],"right_children":[2,4,6,8,10,12,14,16,18,20,22,24,26,28,30,-1,-1,-1,-1,-1,-1,-1,-1,-1,-1,-1,-1,-1,-1,-1,-1],"split_conditions":[1E2,8.2E1,8.2E1,7.6E1,3.479312E4,7.6E1,2.895E1,9.438E0,6.75E0,3.470831E4,1.067252E5,6.4E1,1.28E0,8E0,3.508E1,-6.0264423E-2,-1.11987896E-1,-6.3626263E-3,-6.64282E-2,-2.2709632E-2,-6.9230134E-3,-4.300854E-2,1.0692827E-2,-1.2043381E-1,-4.58975E-2,7.744532E-3,-1.8306704E-2,3.354489E-2,2.5404507E-2,4.752319E-2,2.337377E-2],"split_indices":[9,10,10,10,8,10,0,11,11,8,8,10,0,2,0,0,0,0,0,0,0,0,0,0,0,0,0,0,0,0,0],"split_type":[0,0,0,0,0,0,0,0,0,0,0,0,0,0,0,0,0,0,0,0,0,0,0,0,0,0,0,0,0,0,0],"sum_hessian":[7.1885215E3,3.1365322E3,4.051989E3,4.328776E2,2.7036545E3,6.842539E2,3.367735E3,9.427917E1,3.3859842E2,2.4911895E3,2.1246529E2,2.9505157E2,3.8920233E2,3.069916E3,2.9781915E2,1.1511606E1,8.276756E1,7.8234186E0,3.3077502E2,1.8153293E3,6.7586E2,2.0255902E2,9.906272E0,2.2654692E1,2.7239688E2,4.989024E1,3.3931207E2,2.2959187E3,7.7399725E2,2.2062094E2,7.719822E1],"tree_param":{"num_deleted":"0","num_feature":"12","num_nodes":"31","size_leaf_vector":"1"}},{"base_weights":[-3.220239E-4,-6.653498E-1,5.168068E-1,-1.7711927E0,-4.8369348E-1,-7.46188E-1,7.6699257E-1,-2.5848124E0,-1.5209408E0,-4.4119504E-1,-9.472175E-1,-2.007261E0,-5.7538086E-1,8.125173E-1,6.7182606E-1,-2.762902E-2,-1.0513501E-1,-6.99758E-2,-4.8747588E-2,-2.1788517E-2,-6.786112E-3,-4.1187413E-2,1.3964155E-2,-1.14159726E-1,-6.363527E-2,-3.753765E-2,-1.4817436E-2,3.319311E-2,2.2679249E-2,2.610867E-2,5.2146066E-2],"categories":[],"categories_nodes":[],"categories_segments":[],"categories_sizes":[],"default_left":[0,0,0,0,0,0,0,0,0,0,0,0,0,0,0,0,0,0,0,0,0,0,0,0,0,0,0,0,0,0,0],"id":36,"left_children":[1,3,5,7,9,11,13,15,17,19,21,23,25,27,29,-1,-1,-1,-1,-1,-1,-1,-1,-1,-1,-1,-1,-1,-1,-1,-1],"loss_changes":[2.4734153E3,6.302997E2,1.2796058E3,8.236682E1,5.245056E1,1.4200104E2,1.3543213E1,4.734314E0,1.947345E1,6.957123E1,2.4819366E1,1.8812439E1,4.341719E1,8.730347E0,1.1634857E1,0E0,0E0,0E0,0E0,0E0,0E0,0E0,0E0,0E0,0E0,0E0,0E0,0E0,0E0,0E0,0E0],"parents":[2147483647,0,0,1,1,2,2,3,3,4,4,5,5,6,6,7,7,8,8,9,9,10,10,11,11,12,12,13,13,14,14],"right_children":[2,4,6,8,10,12,14,16,18,20,22,24,26,28,30,-1,-1,-1,-1,-1,-1,-1,-1,-1,-1,-1,-1,-1,-1,-1,-1],"split_conditions":[1E2,8.2E1,8.2E1,7.6E1,3.479312E4,7E1,9.9E1,7.688E0,3.470813E4,3.470831E4,1.067252E5,6.4E1,7.6E1,3.731621E4,2.48E2,-2.762902E-2,-1.0513501E-1,-6.99758E-2,-4.8747588E-2,-2.1788517E-2,-6.786112E-3,-4.1187413E-2,1.3964155E-2,-1.14159726E-1,-6.363527E-2,-3.753765E-2,-1.4817436E-2,3.319311E-2,2.2679249E-2,2.610867E-2,5.2146066E-2],"split_indices":[9,10,10,10,8,10,1,11,8,8,8,10,10,8,1,0,0,0,0,0,0,0,0,0,0,0,0,0,0,0,0],"split_type":[0,0,0,0,0,0,0,0,0,0,0,0,0,0,0,0,0,0,0,0,0,0,0,0,0,0,0,0,0,0,0],"sum_hessian":[7.188147E3,3.1441702E3,4.0439766E3,4.411492E2,2.703021E3,6.6796625E2,3.3760105E3,9.938163E1,3.4176758E2,2.4795828E3,2.2343814E2,7.711572E1,5.908505E2,2.2734072E3,1.1026033E3,2.9922493E0,9.638937E1,1.891922E2,1.5257538E2,1.7937524E3,6.858303E2,2.1046068E2,1.2977469E1,2.1561176E1,5.555455E1,2.1060512E2,3.8024542E2,2.1192393E3,1.5416782E2,1.0741813E3,2.8422045E1],"tree_param":{"num_deleted":"0","num_feature":"12","num_nodes":"31","size_leaf_vector":"1"}},{"base_weights":[4.4217627E-3,-6.4133984E-1,5.016547E-1,-1.7031815E0,-4.646094E-1,-7.15635E-1,7.447096E-1,-2.5670815E0,-1.4433538E0,-4.215853E-1,-9.4644594E-1,-1.926467E0,-5.5497354E-1,7.857726E-1,6.2949383E-1,-5.7807114E-2,-1.0773231E-1,-8.16002E-3,-5.9476946E-2,-2.1232344E-2,-5.458149E-3,-4.0276848E-2,4.0962352E-4,-1.096041E-1,-5.9888672E-2,-3.6998626E-2,-1.3663315E-2,4.7909148E-2,3.0930897E-2,2.5897915E-2,-9.059204E-3],"categories":[],"categories_nodes":[],"categories_segments":[],"categories_sizes":[],"default_left":[0,0,0,0,0,0,0,0,0,0,0,0,0,0,0,0,0,0,0,0,0,0,0,0,0,0,0,0,0,0,0],"id":37,"left_children":[1,3,5,7,9,11,13,15,17,19,21,23,25,27,29,-1,-1,-1,-1,-1,-1,-1,-1,-1,-1,-1,-1,-1,-1,-1,-1],"loss_changes":[2.3034106E3,5.8405225E2,1.2001912E3,9.237402E1,5.472235E1,1.2928345E2,1.4998535E1,6.407654E0,1.80943E1,7.653714E1,1.2629196E1,1.9151764E1,4.6679977E1,1.0935791E1,1.40937805E1,0E0,0E0,0E0,0E0,0E0,0E0,0E0,0E0,0E0,0E0,0E0,0E0,0E0,0E0,0E0,0E0],"parents":[2147483647,0,0,1,1,2,2,3,3,4,4,5,5,6,6,7,7,8,8,9,9,10,10,11,11,12,12,13,13,14,14],"right_children":[2,4,6,8,10,12,14,16,18,20,22,24,26,28,30,-1,-1,-1,-1,-1,-1,-1,-1,-1,-1,-1,-1,-1,-1,-1,-1],"split_conditions":[1E2,8.2E1,8.2E1,7.6E1,3.479312E4,7E1,8E0,9.438E0,6.75E0,3.470831E4,1.067252E5,6.4E1,7.6E1,3.465623E4,3.865519E4,-5.7807114E-2,-1.0773231E-1,-8.16002E-3,-5.9476946E-2,-2.1232344E-2,-5.458149E-3,-4.0276848E-2,4.0962352E-4,-1.096041E-1,-5.9888672E-2,-3.6998626E-2,-1.3663315E-2,4.7909148E-2,3.0930897E-2,2.5897915E-2,-9.059204E-3],"split_indices":[9,10,10,10,8,10,2,11,11,8,8,10,10,8,8,0,0,0,0,0,0,0,0,0,0,0,0,0,0,0,0],"split_type":[0,0,0,0,0,0,0,0,0,0,0,0,0,0,0,0,0,0,0,0,0,0,0,0,0,0,0,0,0,0,0],"sum_hessian":[7.169631E3,3.1187273E3,4.0509036E3,4.425428E2,2.6761846E3,6.735718E2,3.3773318E3,9.8218094E1,3.4432468E2,2.4602537E3,2.1593095E2,7.63295E1,5.9724225E2,2.4813403E3,8.959915E2,1.2451051E1,8.5767044E1,1.2079696E1,3.32245E2,1.7775983E3,6.826554E2,2.0299402E2,1.2936933E1,2.2643068E1,5.368643E1,2.1602068E2,3.812216E2,6.749038E1,2.4138499E3,8.780614E2,1.7930109E1],"tree_param":{"num_deleted":"0","num_feature":"12","num_nodes":"31","size_leaf_vector":"1"}},{"base_weights":[-1.8870505E-3,-6.1646277E-1,4.7475693E-1,-1.6605524E0,-4.4944468E-1,-7.0433354E-1,7.1467555E-1,-2.3892798E0,-1.4261205E0,-4.2191878E-1,-1.1858999E0,-1.1537386E0,-3.6785063E-1,6.2283176E-1,7.760622E-1,-2.4038931E-2,-9.719583E-2,-3.8465396E-2,-6.1680734E-2,-1.3843004E-2,-2.9396974E-2,1.8315941E-2,-5.6243256E-2,-1.05373085E-1,-4.066209E-2,-2.1754295E-2,-6.3929716E-3,2.7338456E-2,1.7611427E-2,2.4823021E-2,3.4079984E-2],"categories":[],"categories_nodes":[],"categories_segments":[],"categories_sizes":[],"default_left":[0,0,0,0,0,0,0,0,0,0,0,0,0,0,0,0,0,0,0,0,0,0,0,0,0,0,0,0,0,0,0],"id":38,"left_children":[1,3,5,7,9,11,13,15,17,19,21,23,25,27,29,-1,-1,-1,-1,-1,-1,-1,-1,-1,-1,-1,-1,-1,-1,-1,-1],"loss_changes":[2.120738E3,5.499501E2,1.1544397E3,6.755945E1,5.4318848E1,1.03549866E2,1.8140259E1,4.560791E0,1.5033203E1,6.201413E1,3.6473907E1,5.449414E1,1.4388687E1,1.4536682E1,2.2830566E1,0E0,0E0,0E0,0E0,0E0,0E0,0E0,0E0,0E0,0E0,0E0,0E0,0E0,0E0,0E0,0E0],"parents":[2147483647,0,0,1,1,2,2,3,3,4,4,5,5,6,6,7,7,8,8,9,9,10,10,11,11,12,12,13,13,14,14],"right_children":[2,4,6,8,10,12,14,16,18,20,22,24,26,28,30,-1,-1,-1,-1,-1,-1,-1,-1,-1,-1,-1,-1,-1,-1,-1,-1],"split_conditions":[1E2,8.2E1,8.2E1,7.6E1,7.663034E4,7.6E1,7.18E0,5E1,4.72E0,6.4E2,1.0792E1,6.4E1,3.468326E4,5.05E0,3.466825E4,-2.4038931E-2,-9.719583E-2,-3.8465396E-2,-6.1680734E-2,-1.3843004E-2,-2.9396974E-2,1.8315941E-2,-5.6243256E-2,-1.05373085E-1,-4.066209E-2,-2.1754295E-2,-6.3929716E-3,2.7338456E-2,1.7611427E-2,2.4823021E-2,3.4079984E-2],"split_indices":[9,10,10,10,8,10,0,7,0,3,11,10,8,0,8,0,0,0,0,0,0,0,0,0,0,0,0,0,0,0,0],"split_type":[0,0,0,0,0,0,0,0,0,0,0,0,0,0,0,0,0,0,0,0,0,0,0,0,0,0,0,0,0,0,0],"sum_hessian":[7.2356514E3,3.160271E3,4.0753804E3,4.3335156E2,2.7269194E3,6.883894E2,3.386991E3,1.0100269E2,3.3234888E2,2.6317021E3,9.521719E1,2.9265845E2,3.9573096E2,1.3658146E3,2.0211763E3,2.944625E0,9.805807E1,7.008052E1,2.6226837E2,2.1217876E3,5.0991452E2,1.0992416E1,8.422478E1,2.1730127E1,2.709283E2,2.1261398E2,1.8311699E2,1.0211638E3,3.4465082E2,6.692306E2,1.3519458E3],"tree_param":{"num_deleted":"0","num_feature":"12","num_nodes":"31","size_leaf_vector":"1"}},{"base_weights":[4.53418E-3,-5.809879E-1,4.5948648E-1,-1.5546324E0,-4.2817876E-1,-7.0384806E-1,6.917506E-1,-2.2860694E0,-1.3450127E0,-3.886583E-1,-8.799787E-1,-1.1544042E0,-3.577978E-1,1.1279292E0,6.7966175E-1,-4.2180493E-2,-9.492585E-2,-3.3600856E-2,-5.8976505E-2,-1.9454366E-2,-3.0982879E-3,-2.3921208E-2,-4.465207E-2,-1.0078059E-1,-4.106501E-2,-2.2533113E-2,-5.221782E-3,3.168205E-2,5.197604E-2,2.2072464E-2,2.9096236E-2],"categories":[],"categories_nodes":[],"categories_segments":[],"categories_sizes":[],"default_left":[0,0,0,0,0,0,0,0,0,0,0,0,0,0,0,0,0,0,0,0,0,0,0,0,0,0,0,0,0,0,0],"id":39,"left_children":[1,3,5,7,9,11,13,15,17,19,21,23,25,27,29,-1,-1,-1,-1,-1,-1,-1,-1,-1,-1,-1,-1,-1,-1,-1,-1],"loss_changes":[1.924569E3,4.6868127E2,1.0995288E3,5.943994E1,4.8119812E1,1.0482657E2,1.6342041E1,4.9071655E0,1.9567566E1,7.645352E1,1.3208801E1,4.601703E1,1.788953E1,3.0323257E0,1.9363281E1,0E0,0E0,0E0,0E0,0E0,0E0,0E0,0E0,0E0,0E0,0E0,0E0,0E0,0E0,0E0,0E0],"parents":[2147483647,0,0,1,1,2,2,3,3,4,4,5,5,6,6,7,7,8,8,9,9,10,10,11,11,12,12,13,13,14,14],"right_children":[2,4,6,8,10,12,14,16,18,20,22,24,26,28,30,-1,-1,-1,-1,-1,-1,-1,-1,-1,-1,-1,-1,-1,-1,-1,-1],"split_conditions":[1E2,8.2E1,8.2E1,7.6E1,3.479312E4,7.6E1,3.465623E4,9.25E0,5.58E0,3.470936E4,1.493E1,6.4E1,3.468326E4,8.55E0,3.466529E4,-4.2180493E-2,-9.492585E-2,-3.3600856E-2,-5.8976505E-2,-1.9454366E-2,-3.0982879E-3,-2.3921208E-2,-4.465207E-2,-1.0078059E-1,-4.106501E-2,-2.2533113E-2,-5.221782E-3,3.168205E-2,5.197604E-2,2.2072464E-2,2.9096236E-2],"split_indices":[9,10,10,10,8,10,8,11,0,8,0,10,8,0,8,0,0,0,0,0,0,0,0,0,0,0,0,0,0,0,0],"split_type":[0,0,0,0,0,0,0,0,0,0,0,0,0,0,0,0,0,0,0,0,0,0,0,0,0,0,0,0,0,0,0],"sum_hessian":[7.2207715E3,3.157074E3,4.0636973E3,4.25784E2,2.73129E3,6.7562964E2,3.3880676E3,9.043011E1,3.3535388E2,2.5150137E3,2.1627637E2,2.9146783E2,3.841618E2,8.639041E1,3.3016772E3,7.7030826E0,8.272703E1,7.146006E1,2.6389383E2,1.9132328E3,6.017809E2,1.01838104E2,1.1443826E2,2.1743027E1,2.6972482E2,2.0016916E2,1.8399265E2,3.29961E1,5.339431E1,9.045559E2,2.3971213E3],"tree_param":{"num_deleted":"0","num_feature":"12","num_nodes":"31","size_leaf_vector":"1"}},{"base_weights":[-1.3085514E-3,-5.598862E-1,4.3139288E-1,-5.067654E-1,-1.1732953E0,-1.2331425E0,4.642227E-1,-6.8302125E-1,-2.729273E-1,-8.129069E-1,-1.477811E0,4.4548113E-2,-1.387021E0,4.8540646E-1,-2.8871453E-1,-3.6015984E-2,-2.2526732E-2,-7.5360117E-3,-2.9435419E-2,-3.6535356E-2,5.7095108E-3,-6.916357E-2,-2.8469268E-2,-6.465225E-2,2.178213E-2,1.4995586E-2,2.267326E-2,-4.268505E-3,-9.283055E-2],"categories":[],"categories_nodes":[],"categories_segments":[],"categories_sizes":[],"default_left":[0,0,0,0,0,0,0,0,0,0,0,0,0,0,0,0,0,0,0,0,0,0,0,0,0,0,0,0,0],"id":40,"left_children":[1,3,5,7,9,11,13,15,17,19,21,-1,23,25,27,-1,-1,-1,-1,-1,-1,-1,-1,-1,-1,-1,-1,-1,-1],"loss_changes":[1.7467303E3,1.0160321E2,2.2368243E2,1.1942853E2,2.5021698E1,3.173143E1,6.4000916E1,4.2132935E1,4.8740868E1,1.16768875E1,2.3141357E1,0E0,3.511934E1,3.454834E1,4.0400215E1,0E0,0E0,0E0,0E0,0E0,0E0,0E0,0E0,0E0,0E0,0E0,0E0,0E0,0E0],"parents":[2147483647,0,0,1,1,2,2,3,3,4,4,5,5,6,6,7,7,8,8,9,9,10,10,12,12,13,13,14,14],"right_children":[2,4,6,8,10,12,14,16,18,20,22,-1,24,26,28,-1,-1,-1,-1,-1,-1,-1,-1,-1,-1,-1,-1,-1,-1],"split_conditions":[1E2,3.731621E4,3.465536E4,3.470234E4,9.57E0,1.143E1,5.54602E4,3.467832E4,8E0,1.0670913E5,7E1,4.4548113E-2,1.197E1,3.467125E4,8E0,-3.6015984E-2,-2.2526732E-2,-7.5360117E-3,-2.9435419E-2,-3.6535356E-2,5.7095108E-3,-6.916357E-2,-2.8469268E-2,-6.465225E-2,2.178213E-2,1.4995586E-2,2.267326E-2,-4.268505E-3,-9.283055E-2],"split_indices":[9,8,8,8,0,0,8,8,2,8,7,0,0,8,2,0,0,0,0,0,0,0,0,0,0,0,0,0,0],"split_type":[0,0,0,0,0,0,0,0,0,0,0,0,0,0,0,0,0,0,0,0,0,0,0,0,0,0,0,0,0],"sum_hessian":[7.2229336E3,3.152613E3,4.0703206E3,2.9047185E3,2.4789433E2,7.731232E1,3.9930083E3,1.6540979E3,1.2506207E3,1.168929E2,1.3100145E2,3.9896657E0,7.3322655E1,3.884431E3,1.0857722E2,5.832418E2,1.0708561E3,1.059915E3,1.9070569E2,1.05852005E2,1.1040892E1,9.675209E1,3.4249355E1,6.5834305E1,7.488348E0,1.652598E3,2.231833E3,1.01583824E2,6.993396E0],"tree_param":{"num_deleted":"0","num_feature":"12","num_nodes":"29","size_leaf_vector":"1"}},{"base_weights":[-1.5446022E-3,-5.440853E-1,4.2429492E-1,-1.4837209E0,-3.886347E-1,-6.791895E-1,6.44017E-1,-2.1820252E0,-1.2816011E0,-3.6456174E-1,-1.0396174E0,-1.1117359E0,-3.4978563E-1,6.476895E-1,-6.278095E-1,-4.181617E-2,-9.1279484E-2,1.6160093E-3,-5.2980192E-2,-2.1469422E-2,-1.0093233E-2,2.7588166E-2,-4.76358E-2,-9.759438E-2,-3.9642327E-2,1.6636295E-2,-1.6133422E-2,2.5012156E-2,3.5120178E-2,-6.841146E-2,5.2589953E-2],"categories":[],"categories_nodes":[],"categories_segments":[],"categories_sizes":[],"default_left":[0,0,0,0,0,0,0,0,0,0,0,0,0,0,0,0,0,0,0,0,0,0,0,0,0,0,0,0,0,0,0],"id":41,"left_children":[1,3,5,7,9,11,13,15,17,19,21,23,25,27,29,-1,-1,-1,-1,-1,-1,-1,-1,-1,-1,-1,-1,-1,-1,-1,-1],"loss_changes":[1.6692261E3,4.62922E2,9.823146E2,5.796216E1,4.200598E1,9.513132E1,1.6585205E1,6.3898315E0,2.0189026E1,5.0638397E1,2.6817902E1,4.1657623E1,1.6123322E1,1.6266357E1,2.707692E1,0E0,0E0,0E0,0E0,0E0,0E0,0E0,0E0,0E0,0E0,0E0,0E0,0E0,0E0,0E0,0E0],"parents":[2147483647,0,0,1,1,2,2,3,3,4,4,5,5,6,6,7,7,8,8,9,9,10,10,11,11,12,12,13,13,14,14],"right_children":[2,4,6,8,10,12,14,16,18,20,22,24,26,28,30,-1,-1,-1,-1,-1,-1,-1,-1,-1,-1,-1,-1,-1,-1,-1,-1],"split_conditions":[1E2,8.2E1,8.2E1,7.6E1,7.663034E4,7.6E1,4.065E1,6E1,6.75E0,3.469413E4,1.0292E1,6.4E1,3.465623E4,2.895E1,3.46643E4,-4.181617E-2,-9.1279484E-2,1.6160093E-3,-5.2980192E-2,-2.1469422E-2,-1.0093233E-2,2.7588166E-2,-4.76358E-2,-9.759438E-2,-3.9642327E-2,1.6636295E-2,-1.6133422E-2,2.5012156E-2,3.5120178E-2,-6.841146E-2,5.2589953E-2],"split_indices":[9,10,10,10,8,10,0,7,11,8,11,10,8,0,8,0,0,0,0,0,0,0,0,0,0,0,0,0,0,0,0],"split_type":[0,0,0,0,0,0,0,0,0,0,0,0,0,0,0,0,0,0,0,0,0,0,0,0,0,0,0,0,0,0,0],"sum_hessian":[7.2209854E3,3.1751416E3,4.0458438E3,4.4829453E2,2.726847E3,6.71129E2,3.3747146E3,9.6231766E1,3.5206277E2,2.6326145E3,9.423254E1,2.8808682E2,3.830422E2,3.3659766E3,8.73806E0,9.631581E0,8.660018E1,1.1070231E1,3.4099255E2,1.0358892E3,1.5967252E3,7.00757E0,8.722497E1,2.0794651E1,2.6729214E2,2.4153013E1,3.588892E2,3.0745718E3,2.914048E2,5.7648034E0,2.9732563E0],"tree_param":{"num_deleted":"0","num_feature":"12","num_nodes":"31","size_leaf_vector":"1"}},{"base_weights":[5.053641E-3,-5.063441E-1,4.0097097E-1,-1.4387802E0,-3.5340163E-1,-6.207204E-1,6.103272E-1,-2.1351569E0,-1.2315472E0,-1.6368599E-1,-4.2658523E-1,-1.033991E0,-3.0675715E-1,1.0578336E0,5.9787637E-1,-6.2493416E-3,-8.692237E-2,-2.9206272E-2,-5.431878E-2,-5.090029E-3,-6.716154E-2,-1.603098E-2,-3.71863E-2,-9.054592E-2,-3.72287E-2,1.3081972E-4,-1.6399888E-2,2.8279895E-2,4.997744E-2,2.0026354E-2,2.5735684E-2],"categories":[],"categories_nodes":[],"categories_segments":[],"categories_sizes":[],"default_left":[0,0,0,0,0,0,0,0,0,0,0,0,0,0,0,0,0,0,0,0,0,0,0,0,0,0,0,0,0,0,0],"id":42,"left_children":[1,3,5,7,9,11,13,15,17,19,21,23,25,27,29,-1,-1,-1,-1,-1,-1,-1,-1,-1,-1,-1,-1,-1,-1,-1,-1],"loss_changes":[1.4725144E3,4.5155847E2,8.7755835E2,5.91817E1,3.775E1,8.994656E1,1.769629E1,6.797821E0,2.012976E1,4.1695282E1,2.4809662E1,3.3952972E1,1.2791615E1,4.250885E0,1.4026855E1,0E0,0E0,0E0,0E0,0E0,0E0,0E0,0E0,0E0,0E0,0E0,0E0,0E0,0E0,0E0,0E0],"parents":[2147483647,0,0,1,1,2,2,3,3,4,4,5,5,6,6,7,7,8,8,9,9,10,10,11,11,12,12,13,13,14,14],"right_children":[2,4,6,8,10,12,14,16,18,20,22,24,26,28,30,-1,-1,-1,-1,-1,-1,-1,-1,-1,-1,-1,-1,-1,-1,-1,-1],"split_conditions":[1E2,8.2E1,8.2E1,7.6E1,5.5E1,7.6E1,3.465623E4,7.688E0,4.72E0,1.0669711E5,4.065E1,6.4E1,2.68E0,8.55E0,3.466825E4,-6.2493416E-3,-8.692237E-2,-2.9206272E-2,-5.431878E-2,-5.090029E-3,-6.716154E-2,-1.603098E-2,-3.71863E-2,-9.054592E-2,-3.72287E-2,1.3081972E-4,-1.6399888E-2,2.8279895E-2,4.997744E-2,2.0026354E-2,2.5735684E-2],"split_indices":[9,10,10,10,1,10,8,11,0,8,0,10,0,0,8,0,0,0,0,0,0,0,0,0,0,0,0,0,0,0,0],"split_type":[0,0,0,0,0,0,0,0,0,0,0,0,0,0,0,0,0,0,0,0,0,0,0,0,0,0,0,0,0,0,0],"sum_hessian":[7.2687036E3,3.1715386E3,4.0971646E3,4.4453732E2,2.7270012E3,6.961096E2,3.4010552E3,9.76826E1,3.468547E2,7.60921E2,1.9660803E3,2.98546E2,3.9756363E2,8.751922E1,3.313536E3,2.028283E0,9.565432E1,7.25747E1,2.7428003E2,7.45172E2,1.5749031E1,1.873549E3,9.253139E1,1.9889366E1,2.7865665E2,9.980075E1,2.977629E2,3.4227104E1,5.3292114E1,1.0642959E3,2.24924E3],"tree_param":{"num_deleted":"0","num_feature":"12","num_nodes":"31","size_leaf_vector":"1"}},{"base_weights":[1.777546E-4,-4.9814022E-1,3.9032802E-1,-1.3299912E0,-3.6201623E-1,-5.718211E-1,5.8338785E-1,-1.986195E0,-1.1273783E0,-3.0442587E-1,-6.093684E-1,-1.5392834E0,-4.4525373E-1,6.225553E-1,4.7076315E-1,-3.5869364E-2,-8.375687E-2,-5.3625453E-2,-3.338907E-2,-2.4331467E-2,-8.933278E-3,2.1389581E-2,-2.6721988E-2,-9.203405E-2,-4.6463475E-2,-2.9227957E-2,-1.1206279E-2,2.5102736E-2,-8.869386E-3,1.6367946E-2,3.4221437E-2],"categories":[],"categories_nodes":[],"categories_segments":[],"categories_sizes":[],"default_left":[0,0,0,0,0,0,0,0,0,0,0,0,0,0,0,0,0,0,0,0,0,0,0,0,0,0,0,0,0,0,0],"id":43,"left_children":[1,3,5,7,9,11,13,15,17,19,21,23,25,27,29,-1,-1,-1,-1,-1,-1,-1,-1,-1,-1,-1,-1,-1,-1,-1,-1],"loss_changes":[1.4014331E3,3.5746692E2,7.516546E2,5.460559E1,3.841806E1,8.148729E1,1.4272217E1,8.241089E0,1.9241852E1,5.4252563E1,3.5106064E1,1.6938232E1,2.7922913E1,1.0829895E1,2.0082367E1,0E0,0E0,0E0,0E0,0E0,0E0,0E0,0E0,0E0,0E0,0E0,0E0,0E0,0E0,0E0,0E0],"parents":[2147483647,0,0,1,1,2,2,3,3,4,4,5,5,6,6,7,7,8,8,9,9,10,10,11,11,12,12,13,13,14,14],"right_children":[2,4,6,8,10,12,14,16,18,20,22,24,26,28,30,-1,-1,-1,-1,-1,-1,-1,-1,-1,-1,-1,-1,-1,-1,-1,-1],"split_conditions":[1E2,8.2E1,8.2E1,7.6E1,8E0,7E1,8E0,6E1,3.470813E4,3.468014E4,3.466724E4,6.4E1,7.6E1,7.663034E4,2.835E1,-3.5869364E-2,-8.375687E-2,-5.3625453E-2,-3.338907E-2,-2.4331467E-2,-8.933278E-3,2.1389581E-2,-2.6721988E-2,-9.203405E-2,-4.6463475E-2,-2.9227957E-2,-1.1206279E-2,2.5102736E-2,-8.869386E-3,1.6367946E-2,3.4221437E-2],"split_indices":[9,10,10,10,2,10,2,7,8,8,8,10,10,8,0,0,0,0,0,0,0,0,0,0,0,0,0,0,0,0,0],"split_type":[0,0,0,0,0,0,0,0,0,0,0,0,0,0,0,0,0,0,0,0,0,0,0,0,0,0,0,0,0,0,0],"sum_hessian":[7.204317E3,3.163366E3,4.040951E3,4.4238983E2,2.720976E3,6.746725E2,3.3662786E3,1.0021548E2,3.4217435E2,2.2107212E3,5.1025482E2,7.546971E1,5.9920276E2,2.490947E3,8.753315E2,1.0695757E1,8.951972E1,1.9379332E2,1.4838104E2,4.629679E2,1.7477534E3,2.4102552E1,4.8615228E2,2.1644093E1,5.382562E1,2.1706131E2,3.8214145E2,2.4767542E3,1.4192881E1,7.581524E2,1.1717907E2],"tree_param":{"num_deleted":"0","num_feature":"12","num_nodes":"31","size_leaf_vector":"1"}},{"base_weights":[-1.3532846E-2,-4.992676E-1,3.6851305E-1,-1.3360709E0,-3.599536E-1,-5.945849E-1,5.658964E-1,-1.9491378E0,-1.1554768E0,-2.9571396E-1,-6.272787E-1,-1.4383355E0,-4.7993675E-1,6.0309595E-1,4.6050268E-1,-3.4981426E-2,-8.1280805E-2,-3.5347156E-2,-5.4077223E-2,-1.0463753E-2,-3.375019E-2,-4.52873E-2,-2.0121267E-2,-8.576772E-2,-4.303747E-2,-1.6335875E-2,-4.872535E-2,3.1673195E-4,2.4346607E-2,1.5800335E-2,3.1031806E-2],"categories":[],"categories_nodes":[],"categories_segments":[],"categories_sizes":[],"default_left":[0,0,0,0,0,0,0,0,0,0,0,0,0,0,0,0,0,0,0,0,0,0,0,0,0,0,0,0,0,0,0],"id":44,"left_children":[1,3,5,7,9,11,13,15,17,19,21,23,25,27,29,-1,-1,-1,-1,-1,-1,-1,-1,-1,-1,-1,-1,-1,-1,-1,-1],"loss_changes":[1.3401758E3,3.6969128E2,7.691335E2,4.565442E1,4.6483276E1,6.522476E1,1.26015625E1,5.3680115E0,1.6558838E1,4.0763397E1,3.191069E1,1.6199234E1,3.1175827E1,8.190674E0,1.7640274E1,0E0,0E0,0E0,0E0,0E0,0E0,0E0,0E0,0E0,0E0,0E0,0E0,0E0,0E0,0E0,0E0],"parents":[2147483647,0,0,1,1,2,2,3,3,4,4,5,5,6,6,7,7,8,8,9,9,10,10,11,11,12,12,13,13,14,14],"right_children":[2,4,6,8,10,12,14,16,18,20,22,24,26,28,30,-1,-1,-1,-1,-1,-1,-1,-1,-1,-1,-1,-1,-1,-1,-1,-1],"split_conditions":[1E2,8.2E1,8.2E1,7.6E1,6.4E2,7E1,6.4E2,9.438E0,1.573E1,3.977E1,5.72E0,6.4E1,6.4E2,5E1,2.507E1,-3.4981426E-2,-8.1280805E-2,-3.5347156E-2,-5.4077223E-2,-1.0463753E-2,-3.375019E-2,-4.52873E-2,-2.0121267E-2,-8.576772E-2,-4.303747E-2,-1.6335875E-2,-4.872535E-2,3.1673195E-4,2.4346607E-2,1.5800335E-2,3.1031806E-2],"split_indices":[9,10,10,10,3,10,3,11,0,0,0,10,3,7,0,0,0,0,0,0,0,0,0,0,0,0,0,0,0,0,0],"split_type":[0,0,0,0,0,0,0,0,0,0,0,0,0,0,0,0,0,0,0,0,0,0,0,0,0,0,0,0,0,0,0],"sum_hessian":[7.2178438E3,3.177431E3,4.0404128E3,4.5103915E2,2.7263918E3,6.86539E2,3.3538738E3,9.8175285E1,3.528639E2,2.201558E3,5.248338E2,7.93647E1,6.071743E2,2.4719377E3,8.819361E2,8.684199E0,8.949109E1,1.5265659E2,2.0020729E2,2.0753074E3,1.2625064E2,1.0044198E2,4.2439185E2,2.3588041E1,5.5776657E1,5.563628E2,5.0811543E1,2.2960989E1,2.4489768E3,7.339762E2,1.4795993E2],"tree_param":{"num_deleted":"0","num_feature":"12","num_nodes":"31","size_leaf_vector":"1"}},{"base_weights":[-3.020735E-3,-4.5466453E-1,3.5029793E-1,-1.2547448E0,-3.2665294E-1,-5.769277E-1,5.374094E-1,-1.8677086E0,-1.0639446E0,-2.6751885E-1,-5.786567E-1,-9.31765E-1,-2.962254E-1,5.092072E-1,7.4219286E-1,-3.2734938E-2,-7.8953944E-2,-5.0620865E-2,-3.1557858E-2,-2.2566663E-2,-7.617939E-3,-4.417413E-2,-1.800651E-2,-7.951279E-2,-3.3566985E-2,1.9477477E-2,-1.3961792E-2,2.2064082E-2,1.505151E-2,4.5716967E-2,2.6382688E-2],"categories":[],"categories_nodes":[],"categories_segments":[],"categories_sizes":[],"default_left":[0,0,0,0,0,0,0,0,0,0,0,0,0,0,0,0,0,0,0,0,0,0,0,0,0,0,0,0,0,0,0],"id":45,"left_children":[1,3,5,7,9,11,13,15,17,19,21,23,25,27,29,-1,-1,-1,-1,-1,-1,-1,-1,-1,-1,-1,-1,-1,-1,-1,-1],"loss_changes":[1.1563633E3,3.249455E2,7.060259E2,4.725244E1,4.0591705E1,6.754457E1,1.8789124E1,8.054901E0,1.6777313E1,5.0694885E1,3.412628E1,2.6098694E1,1.625121E1,1.638263E1,1.1911285E1,0E0,0E0,0E0,0E0,0E0,0E0,0E0,0E0,0E0,0E0,0E0,0E0,0E0,0E0,0E0,0E0],"parents":[2147483647,0,0,1,1,2,2,3,3,4,4,5,5,6,6,7,7,8,8,9,9,10,10,11,11,12,12,13,13,14,14],"right_children":[2,4,6,8,10,12,14,16,18,20,22,24,26,28,30,-1,-1,-1,-1,-1,-1,-1,-1,-1,-1,-1,-1,-1,-1,-1,-1],"split_conditions":[1E2,8.2E1,8.2E1,7.6E1,8E0,7.6E1,2.645E1,6E1,3.470826E4,3.468014E4,5.72E0,6.4E1,3.465623E4,8E0,1E2,-3.2734938E-2,-7.8953944E-2,-5.0620865E-2,-3.1557858E-2,-2.2566663E-2,-7.617939E-3,-4.417413E-2,-1.800651E-2,-7.951279E-2,-3.3566985E-2,1.9477477E-2,-1.3961792E-2,2.2064082E-2,1.505151E-2,4.5716967E-2,2.6382688E-2],"split_indices":[9,10,10,10,2,10,0,7,8,8,0,10,8,2,5,0,0,0,0,0,0,0,0,0,0,0,0,0,0,0,0],"split_type":[0,0,0,0,0,0,0,0,0,0,0,0,0,0,0,0,0,0,0,0,0,0,0,0,0,0,0,0,0,0,0],"sum_hessian":[7.24256E3,3.1786936E3,4.0638667E3,4.3600876E2,2.7426848E3,6.8167566E2,3.382191E3,9.932861E1,3.3668015E2,2.2247563E3,5.179284E2,2.990306E2,3.8264505E2,2.9789153E3,4.0327557E2,1.0724388E1,8.8604225E1,1.9011761E2,1.4656253E2,4.5619577E2,1.7685607E3,9.874635E1,4.1918207E2,2.0804432E1,2.7822617E2,2.3137878E1,3.5950717E2,2.253771E3,7.251443E2,6.454916E1,3.387264E2],"tree_param":{"num_deleted":"0","num_feature":"12","num_nodes":"31","size_leaf_vector":"1"}},{"base_weights":[-4.173737E-3,-4.4099447E-1,3.3385938E-1,-1.1903089E0,-3.185287E-1,-5.6443465E-1,5.153234E-1,-1.6965493E0,-1.0410804E0,-1.5165329E-1,-4.0197918E-1,-1.4432393E0,-4.4694632E-1,5.631704E-1,4.274388E-1,-4.037264E-3,-6.913251E-2,-4.9677666E-2,-3.3034157E-2,-2.9663017E-3,-3.209411E-2,-1.6385138E-2,3.6897376E-2,-4.543953E-2,-8.3342895E-2,-2.8984565E-2,-1.1293585E-2,2.322569E-2,1.2859952E-2,1.2046907E-2,2.035662E-2],"categories":[],"categories_nodes":[],"categories_segments":[],"categories_sizes":[],"default_left":[0,0,0,0,0,0,0,0,0,0,0,0,0,0,0,0,0,0,0,0,0,0,0,0,0,0,0,0,0,0,0],"id":46,"left_children":[1,3,5,7,9,11,13,15,17,19,21,23,25,27,29,-1,-1,-1,-1,-1,-1,-1,-1,-1,-1,-1,-1,-1,-1,-1,-1],"loss_changes":[1.0679045E3,2.8876733E2,6.651873E2,2.9895264E1,3.7680878E1,6.955513E1,1.3786011E1,4.5958557E0,1.2946411E1,4.5676445E1,1.9076385E1,1.1009201E1,2.7386421E1,8.876526E0,1.2083603E1,0E0,0E0,0E0,0E0,0E0,0E0,0E0,0E0,0E0,0E0,0E0,0E0,0E0,0E0,0E0,0E0],"parents":[2147483647,0,0,1,1,2,2,3,3,4,4,5,5,6,6,7,7,8,8,9,9,10,10,11,11,12,12,13,13,14,14],"right_children":[2,4,6,8,10,12,14,16,18,20,22,24,26,28,30,-1,-1,-1,-1,-1,-1,-1,-1,-1,-1,-1,-1,-1,-1,-1,-1],"split_conditions":[1E2,8.2E1,8.2E1,7.6E1,6.5E1,7E1,9.6E1,7.688E0,3.470216E4,3.479312E4,1.067252E5,3.46553E4,7.6E1,3.731621E4,1.1312E1,-4.037264E-3,-6.913251E-2,-4.9677666E-2,-3.3034157E-2,-2.9663017E-3,-3.209411E-2,-1.6385138E-2,3.6897376E-2,-4.543953E-2,-8.3342895E-2,-2.8984565E-2,-1.1293585E-2,2.322569E-2,1.2859952E-2,1.2046907E-2,2.035662E-2],"split_indices":[9,10,10,10,1,10,1,11,8,8,8,8,10,8,11,0,0,0,0,0,0,0,0,0,0,0,0,0,0,0,0],"split_type":[0,0,0,0,0,0,0,0,0,0,0,0,0,0,0,0,0,0,0,0,0,0,0,0,0,0,0,0,0,0,0],"sum_hessian":[7.2281973E3,3.1530645E3,4.0751328E3,4.4048572E2,2.7125789E3,6.841571E2,3.3909758E3,9.556276E1,3.4492297E2,9.061634E2,1.8064154E3,7.801818E1,6.061389E2,2.1886143E3,1.2023616E3,2.028283E0,9.353447E1,1.7348044E2,1.7144252E2,8.117188E2,9.444458E1,1.7974158E3,8.99971E0,5.6470184E1,2.1547993E1,2.2306169E2,