{"learner":{"attributes":{},"feature_names":["eta_minutes","ride_time_minutes","walk_time_minutes","walk_distance_meters","transfer_count","load_score","history_flow_score","congestion_score","data_freshness_seconds","monitored_score","completeness_score","avg_service_frequency_minutes"],"feature_types":["float","float","float","float","float","float","float","float","float","float","float","float"],"gradient_booster":{"model":{"cats":{"enc":[],"feature_segments":[],"sorted_idx":[]},"gbtree_model_param":{"num_parallel_tree":"1","num_trees":"320"},"iteration_indptr":[0,1,2,3,4,5,6,7,8,9,10,11,12,13,14,15,16,17,18,19,20,21,22,23,24,25,26,27,28,29,30,31,32,33,34,35,36,37,38,39,40,41,42,43,44,45,46,47,48,49,50,51,52,53,54,55,56,57,58,59,60,61,62,63,64,65,66,67,68,69,70,71,72,73,74,75,76,77,78,79,80,81,82,83,84,85,86,87,88,89,90,91,92,93,94,95,96,97,98,99,100,101,102,103,104,105,106,107,108,109,110,111,112,113,114,115,116,117,118,119,120,121,122,123,124,125,126,127,128,129,130,131,132,133,134,135,136,137,138,139,140,141,142,143,144,145,146,147,148,149,150,151,152,153,154,155,156,157,158,159,160,161,162,163,164,165,166,167,168,169,170,171,172,173,174,175,176,177,178,179,180,181,182,183,184,185,186,187,188,189,190,191,192,193,194,195,196,197,198,199,200,201,202,203,204,205,206,207,208,209,210,211,212,213,214,215,216,217,218,219,220,221,222,223,224,225,226,227,228,229,230,231,232,233,234,235,236,237,238,239,240,241,242,243,244,245,246,247,248,249,250,251,252,253,254,255,256,257,258,259,260,261,262,263,264,265,266,267,268,269,270,271,272,273,274,275,276,277,278,279,280,281,282,283,284,285,286,287,288,289,290,291,292,293,294,295,296,297,298,299,300,301,302,303,304,305,306,307,308,309,310,311,312,313,314,315,316,317,318,319,320],"tree_info":[0,0,0,0,0,0,0,0,0,0,0,0,0,0,0,0,0,0,0,0,0,0,0,0,0,0,0,0,0,0,0,0,0,0,0,0,0,0,0,0,0,0,0,0,0,0,0,0,0,0,0,0,0,0,0,0,0,0,0,0,0,0,0,0,0,0,0,0,0,0,0,0,0,0,0,0,0,0,0,0,0,0,0,0,0,0,0,0,0,0,0,0,0,0,0,0,0,0,0,0,0,0,0,0,0,0,0,0,0,0,0,0,0,0,0,0,0,0,0,0,0,0,0,0,0,0,0,0,0,0,0,0,0,0,0,0,0,0,0,0,0,0,0,0,0,0,0,0,0,0,0,0,0,0,0,0,0,0,0,0,0,0,0,0,0,0,0,0,0,0,0,0,0,0,0,0,0,0,0,0,0,0,0,0,0,0,0,0,0,0,0,0,0,0,0,0,0,0,0,0,0,0,0,0,0,0,0,0,0,0,0,0,0,0,0,0,0,0,0,0,0,0,0,0,0,0,0,0,0,0,0,0,0,0,0,0,0,0,0,0,0,0,0,0,0,0,0,0,0,0,0,0,0,0,0,0,0,0,0,0,0,0,0,0,0,0,0,0,0,0,0,0,0,0,0,0,0,0,0,0,0,0,0,0,0,0,0,0,0,0,0,0,0,0,0,0,0,0,0,0,0,0,0,0,0,0,0,0,0,0,0,0,0,0,0,0,0,0,0,0],"trees":[{"base_weights":[1.2840152E-2,6.753646E0,-2.6548313E1,1.2639751E0,1.8603932E0,-1.0990795E0,-1.0157439E0,-2.362596E0,4.509094E0,-1.6376366E-1,-2.2698734E-2,-6.853527E-2,1.926219E-1],"categories":[],"categories_nodes":[],"categories_segments":[],"categories_sizes":[],"default_left":[0,0,0,0,0,0,0,0,0,0,0,0,0],"id":0,"left_children":[1,3,5,-1,7,-1,-1,9,11,-1,-1,-1,-1],"loss_changes":[1.2917755E6,6.994903E5,1.70625E2,0E0,5.3820508E4,0E0,0E0,5.7619062E3,5.6542734E3,0E0,0E0,0E0,0E0],"parents":[2147483647,0,0,1,1,2,2,4,4,7,7,8,8],"right_children":[2,4,6,-1,8,-1,-1,10,12,-1,-1,-1,-1],"split_conditions":[6.4E2,4.8E2,1.343E1,1.2639751E0,6E1,-1.0990795E0,-1.0157439E0,3.2E1,7.6E1,-1.6376366E-1,-2.2698734E-2,-6.853527E-2,1.926219E-1],"split_indices":[3,3,0,0,1,0,0,1,10,0,0,0,0],"split_type":[0,0,0,0,0,0,0,0,0,0,0,0,0],"sum_hessian":[7.2108643E3,5.7524688E3,1.4583954E3,9.447152E2,4.807754E3,7.830442E2,6.7535114E2,1.8532375E3,2.954516E3,9.4203436E2,9.112032E2,1.3824742E2,2.8162688E3],"tree_param":{"num_deleted":"0","num_feature":"12","num_nodes":"13","size_leaf_vector":"1"}},{"base_weights":[1.1489236E-1,6.526181E0,-2.5440401E1,1.2135532E0,1.7953563E0,-1.0550379E0,-9.728262E-1,-2.3081374E0,4.351355E0,-1.5626457E-1,-2.7730428E-2,1.1877742E-1,2.1762258E-1],"categories":[],"categories_nodes":[],"categories_segments":[],"categories_sizes":[],"default_left":[0,0,0,0,0,0,0,0,0,0,0,0,0],"id":1,"left_children":[1,3,5,-1,7,-1,-1,9,11,-1,-1,-1,-1],"loss_changes":[1.184837E6,6.511588E5,2.365625E2,0E0,5.0628375E4,0E0,0E0,4.778449E3,4.4439453E3,0E0,0E0,0E0,0E0],"parents":[2147483647,0,0,1,1,2,2,4,4,7,7,8,8],"right_children":[2,4,6,-1,8,-1,-1,10,12,-1,-1,-1,-1],"split_conditions":[8E0,6E0,1.343E1,1.2135532E0,6E1,-1.0550379E0,-9.728262E-1,3.2E1,9.8E1,-1.5626457E-1,-2.7730428E-2,1.1877742E-1,2.1762258E-1],"split_indices":[2,2,0,0,1,0,0,1,1,0,0,0,0],"split_type":[0,0,0,0,0,0,0,0,0,0,0,0,0],"sum_hessian":[7.2275405E3,5.779159E3,1.4483811E3,9.560495E2,4.82311E3,7.645169E2,6.8386414E2,1.851246E3,2.9718638E3,9.2892053E2,9.2232544E2,1.3132048E3,1.6586589E3],"tree_param":{"num_deleted":"0","num_feature":"12","num_nodes":"13","size_leaf_vector":"1"}},{"base_weights":[6.121611E-2,6.277687E0,-2.4427788E1,1.1651145E0,1.6805094E0,-1.0115473E0,-9.350184E-1,-2.240936E0,4.1148705E0,-1.5116939E-1,-2.7624773E-2,-8.467291E-2,1.766759E-1],"categories":[],"categories_nodes":[],"categories_segments":[],"categories_sizes":[],"default_left":[0,0,0,0,0,0,0,0,0,0,0,0,0],"id":2,"left_children":[1,3,5,-1,7,-1,-1,9,11,-1,-1,-1,-1],"loss_changes":[1.0929394E6,6.013748E5,1.344375E2,0E0,4.5543316E4,0E0,0E0,4.35392E3,5.557926E3,0E0,0E0,0E0,0E0],"parents":[2147483647,0,0,1,1,2,2,4,4,7,7,8,8],"right_children":[2,4,6,-1,8,-1,-1,10,12,-1,-1,-1,-1],"split_conditions":[8E0,6E0,1.343E1,1.1651145E0,6E1,-1.0115473E0,-9.350184E-1,3.2E1,7.6E1,-1.5116939E-1,-2.7624773E-2,-8.467291E-2,1.766759E-1],"split_indices":[2,2,0,0,1,0,0,1,10,0,0,0,0],"split_type":[0,0,0,0,0,0,0,0,0,0,0,0,0],"sum_hessian":[7.1752676E3,5.7237866E3,1.4514812E3,9.5689374E2,4.7668926E3,7.730197E2,6.784614E2,1.8258463E3,2.9410464E3,9.15032E2,9.108143E2,1.3539705E2,2.8056494E3],"tree_param":{"num_deleted":"0","num_feature":"12","num_nodes":"13","size_leaf_vector":"1"}},{"base_weights":[-3.1139816E-3,5.9567533E0,-2.3402327E1,1.1185864E0,1.587755E0,-9.6813506E-1,-8.966943E-1,-3.674317E0,1.9717402E0,9.519326E-2,-1.9912355E-1,7.4521534E-2,2.314681E-1],"categories":[],"categories_nodes":[],"categories_segments":[],"categories_sizes":[],"default_left":[0,0,0,0,0,0,0,0,0,0,0,0,0],"id":3,"left_children":[1,3,5,-1,7,-1,-1,9,11,-1,-1,-1,-1],"loss_changes":[1.00423444E6,5.5175575E5,6.825E1,0E0,9.694474E3,0E0,0E0,2.6009478E3,1.8305527E3,0E0,0E0,0E0,0E0],"parents":[2147483647,0,0,1,1,2,2,4,4,7,7,8,8],"right_children":[2,4,6,-1,8,-1,-1,10,12,-1,-1,-1,-1],"split_conditions":[8E0,6E0,1.343E1,1.1185864E0,7.6E1,-9.6813506E-1,-8.966943E-1,3.465613E4,7.386816E4,9.519326E-2,-1.9912355E-1,7.4521534E-2,2.314681E-1],"split_indices":[2,2,0,0,10,0,0,8,8,0,0,0,0],"split_type":[0,0,0,0,0,0,0,0,0,0,0,0,0],"sum_hessian":[7.197074E3,5.737263E3,1.4598114E3,9.4851526E2,4.7887476E3,7.790697E2,6.8074176E2,3.2451456E2,4.464233E3,5.720921E1,2.6730533E2,4.3434497E3,1.20783485E2],"tree_param":{"num_deleted":"0","num_feature":"12","num_nodes":"13","size_leaf_vector":"1"}},{"base_weights":[6.528005E-2,5.7679434E0,-2.247313E1,1.0739564E0,1.5578444E0,-9.2893E-1,-8.622183E-1,-2.1785004E0,3.9020226E0,-1.4783227E-1,-2.4626894E-2,-7.990275E-2,1.6689596E-1],"categories":[],"categories_nodes":[],"categories_segments":[],"categories_sizes":[],"default_left":[0,0,0,0,0,0,0,0,0,0,0,0,0],"id":4,"left_children":[1,3,5,-1,7,-1,-1,9,11,-1,-1,-1,-1],"loss_changes":[9.2750575E5,5.1105544E5,1.875E0,0E0,4.2080883E4,0E0,0E0,4.38891E3,4.725074E3,0E0,0E0,0E0,0E0],"parents":[2147483647,0,0,1,1,2,2,4,4,7,7,8,8],"right_children":[2,4,6,-1,8,-1,-1,10,12,-1,-1,-1,-1],"split_conditions":[8E0,6E0,1.343E1,1.0739564E0,6E1,-9.2893E-1,-8.622183E-1,3.2E1,7.6E1,-1.4783227E-1,-2.4626894E-2,-7.990275E-2,1.6689596E-1],"split_indices":[2,2,0,0,1,0,0,1,10,0,0,0,0],"split_type":[0,0,0,0,0,0,0,0,0,0,0,0,0],"sum_hessian":[7.2123003E3,5.7571226E3,1.4551777E3,9.565741E2,4.8005483E3,7.739356E2,6.8124207E2,1.8507737E3,2.9497747E3,9.3767834E2,9.130954E2,1.287033E2,2.8210715E3],"tree_param":{"num_deleted":"0","num_feature":"12","num_nodes":"13","size_leaf_vector":"1"}},{"base_weights":[1.1401031E-1,5.5858006E0,-2.1625002E1,1.0311044E0,1.491376E0,-8.952582E-1,-8.275743E-1,-2.117869E0,3.7445424E0,-1.2715663E-1,-9.912859E-3,-6.698215E-2,1.5992042E-1],"categories":[],"categories_nodes":[],"categories_segments":[],"categories_sizes":[],"default_left":[0,0,0,0,0,0,0,0,0,0,0,0,0],"id":5,"left_children":[1,3,5,-1,7,-1,-1,9,11,-1,-1,-1,-1],"loss_changes":[8.533562E5,4.73756E5,9.49375E1,0E0,3.8784016E4,0E0,0E0,3.636505E3,4.0457852E3,0E0,0E0,0E0,0E0],"parents":[2147483647,0,0,1,1,2,2,4,4,7,7,8,8],"right_children":[2,4,6,-1,8,-1,-1,10,12,-1,-1,-1,-1],"split_conditions":[8E0,6E0,1.343E1,1.0311044E0,6E1,-8.952582E-1,-8.275743E-1,4E1,7.6E1,-1.2715663E-1,-9.912859E-3,-6.698215E-2,1.5992042E-1],"split_indices":[2,2,0,0,1,0,0,1,10,0,0,0,0],"split_type":[0,0,0,0,0,0,0,0,0,0,0,0,0],"sum_hessian":[7.169965E3,5.7293516E3,1.440613E3,9.641276E2,4.765224E3,7.712375E2,6.6937555E2,1.8315182E3,2.9337058E3,1.1676213E3,6.638969E2,1.3058629E2,2.8031194E3],"tree_param":{"num_deleted":"0","num_feature":"12","num_nodes":"13","size_leaf_vector":"1"}},{"base_weights":[6.8327926E-2,5.3335543E0,-2.0719685E1,9.8994637E-1,1.4080049E0,-8.5644984E-1,-7.9483014E-1,-2.0279272E0,3.5718002E0,-1.2373572E-1,-6.27392E-3,9.146403E-2,1.8345544E-1],"categories":[],"categories_nodes":[],"categories_segments":[],"categories_sizes":[],"default_left":[0,0,0,0,0,0,0,0,0,0,0,0,0],"id":6,"left_children":[1,3,5,-1,7,-1,-1,9,11,-1,-1,-1,-1],"loss_changes":[7.883852E5,4.3795475E5,3.75E0,0E0,3.557256E4,0E0,0E0,3.6859028E3,3.806586E3,0E0,0E0,0E0,0E0],"parents":[2147483647,0,0,1,1,2,2,4,4,7,7,8,8],"right_children":[2,4,6,-1,8,-1,-1,10,12,-1,-1,-1,-1],"split_conditions":[8E0,6E0,1.343E1,9.8994637E-1,6E1,-8.5644984E-1,-7.9483014E-1,4E1,9.8E1,-1.2373572E-1,-6.27392E-3,9.146403E-2,1.8345544E-1],"split_indices":[2,2,0,0,1,0,0,1,1,0,0,0,0],"split_type":[0,0,0,0,0,0,0,0,0,0,0,0,0],"sum_hessian":[7.198899E3,5.7452246E3,1.4536742E3,9.644766E2,4.780748E3,7.743916E2,6.7928253E2,1.8473813E3,2.9333667E3,1.1762639E3,6.711174E2,1.2969711E3,1.6363955E3],"tree_param":{"num_deleted":"0","num_feature":"12","num_nodes":"13","size_leaf_vector":"1"}},{"base_weights":[-7.464707E-2,5.053639E0,-1.9995165E1,9.503968E-1,1.3443905E0,-8.305041E-1,-7.632166E-1,-1.9473153E0,3.430914E0,-1.3244283E-1,-2.3384675E-2,8.746847E-2,1.7639524E-1],"categories":[],"categories_nodes":[],"categories_segments":[],"categories_sizes":[],"default_left":[0,0,0,0,0,0,0,0,0,0,0,0,0],"id":7,"left_children":[1,3,5,-1,7,-1,-1,9,11,-1,-1,-1,-1],"loss_changes":[7.37736E5,3.9842566E5,2.45625E2,0E0,3.294538E4,0E0,0E0,3.455459E3,3.5560938E3,0E0,0E0,0E0,0E0],"parents":[2147483647,0,0,1,1,2,2,4,4,7,7,8,8],"right_children":[2,4,6,-1,8,-1,-1,10,12,-1,-1,-1,-1],"split_conditions":[6.4E2,4.8E2,1.343E1,9.503968E-1,6E1,-8.305041E-1,-7.632166E-1,3.2E1,9.8E1,-1.3244283E-1,-2.3384675E-2,8.746847E-2,1.7639524E-1],"split_indices":[3,3,0,0,1,0,0,1,1,0,0,0,0],"split_type":[0,0,0,0,0,0,0,0,0,0,0,0,0],"sum_hessian":[7.2175337E3,5.741062E3,1.4764714E3,9.4822314E2,4.7928394E3,7.792854E2,6.9718604E2,1.8594689E3,2.9333704E3,9.279447E2,9.315242E2,1.2945503E3,1.63882E3],"tree_param":{"num_deleted":"0","num_feature":"12","num_nodes":"13","size_leaf_vector":"1"}},{"base_weights":[3.7299883E-2,4.828571E0,-1.9164167E1,9.124527E-1,1.2922084E0,-7.935672E-1,-7.338835E-1,-1.45089E0,3.590867E0,-1.2683599E-1,-7.460358E-3,-6.0004253E-2,1.531886E-1],"categories":[],"categories_nodes":[],"categories_segments":[],"categories_sizes":[],"default_left":[0,0,0,0,0,0,0,0,0,0,0,0,0],"id":8,"left_children":[1,3,5,-1,7,-1,-1,9,11,-1,-1,-1,-1],"loss_changes":[6.618855E5,3.6609534E5,6.44375E1,0E0,3.0362629E4,0E0,0E0,4.774745E3,3.1968008E3,0E0,0E0,0E0,0E0],"parents":[2147483647,0,0,1,1,2,2,4,4,7,7,8,8],"right_children":[2,4,6,-1,8,-1,-1,10,12,-1,-1,-1,-1],"split_conditions":[8E0,6E0,1.343E1,9.124527E-1,7E1,-7.935672E-1,-7.338835E-1,3.2E1,7.6E1,-1.2683599E-1,-7.460358E-3,-6.0004253E-2,1.531886E-1],"split_indices":[2,2,0,0,1,0,0,1,10,0,0,0,0],"split_type":[0,0,0,0,0,0,0,0,0,0,0,0,0],"sum_hessian":[7.1904404E3,5.755731E3,1.4347092E3,9.44082E2,4.811649E3,7.601586E2,6.745506E2,2.1940833E3,2.617566E3,9.282779E2,1.2658054E3,1.1682912E2,2.5007368E3],"tree_param":{"num_deleted":"0","num_feature":"12","num_nodes":"13","size_leaf_vector":"1"}},{"base_weights":[-2.3712013E-2,4.6191363E0,-1.8441946E1,8.760034E-1,1.2539983E0,-7.5713116E-1,-6.964091E-1,-2.2381978E0,2.9313498E0,-1.6464491E-1,-6.1994098E-2,-9.594835E-2,1.2914872E-1],"categories":[],"categories_nodes":[],"categories_segments":[],"categories_sizes":[],"default_left":[0,0,0,0,0,0,0,0,0,0,0,0,0],"id":9,"left_children":[1,3,5,-1,7,-1,-1,9,11,-1,-1,-1,-1],"loss_changes":[6.1222944E5,3.3246762E5,6.415625E1,0E0,2.8060719E4,0E0,0E0,1.9970103E3,5.143658E3,0E0,0E0,0E0,0E0],"parents":[2147483647,0,0,1,1,2,2,4,4,7,7,8,8],"right_children":[2,4,6,-1,8,-1,-1,10,12,-1,-1,-1,-1],"split_conditions":[8E0,6E0,2.222E1,8.760034E-1,5E1,-7.5713116E-1,-6.964091E-1,1.8E1,7.6E1,-1.6464491E-1,-6.1994098E-2,-9.594835E-2,1.2914872E-1],"split_indices":[2,2,0,0,1,0,0,1,10,0,0,0,0],"split_type":[0,0,0,0,0,0,0,0,0,0,0,0,0],"sum_hessian":[7.1554917E3,5.7160854E3,1.4394061E3,9.298782E2,4.7862075E3,9.546893E2,4.847169E2,1.5527529E3,3.2334543E3,4.1382025E2,1.1389326E3,1.7011769E2,3.0633367E3],"tree_param":{"num_deleted":"0","num_feature":"12","num_nodes":"13","size_leaf_vector":"1"}},{"base_weights":[2.9401194E-2,4.511606E0,-1.7635601E1,8.410528E-1,1.25437E0,-7.309075E-1,-6.741007E-1,-1.6977512E0,3.116192E0,-1.2744808E-1,-2.9152643E-2,-6.8905264E-2,1.341957E-1],"categories":[],"categories_nodes":[],"categories_segments":[],"categories_sizes":[],"default_left":[0,0,0,0,0,0,0,0,0,0,0,0,0],"id":10,"left_children":[1,3,5,-1,7,-1,-1,9,11,-1,-1,-1,-1],"loss_changes":[5.661216E5,3.0672125E5,1.06E2,0E0,2.6203627E4,0E0,0E0,2.655376E3,3.3878848E3,0E0,0E0,0E0,0E0],"parents":[2147483647,0,0,1,1,2,2,4,4,7,7,8,8],"right_children":[2,4,6,-1,8,-1,-1,10,12,-1,-1,-1,-1],"split_conditions":[8E0,6E0,1.343E1,8.410528E-1,6E1,-7.309075E-1,-6.741007E-1,2.6E1,7.6E1,-1.2744808E-1,-2.9152643E-2,-6.8905264E-2,1.341957E-1],"split_indices":[2,2,0,0,1,0,0,1,10,0,0,0,0],"split_type":[0,0,0,0,0,0,0,0,0,0,0,0,0],"sum_hessian":[7.1459614E3,5.700932E3,1.445029E3,9.3737573E2,4.7635566E3,7.7216003E2,6.72869E2,1.842403E3,2.9211536E3,7.246458E2,1.1177571E3,1.367423E2,2.7844114E3],"tree_param":{"num_deleted":"0","num_feature":"12","num_nodes":"13","size_leaf_vector":"1"}},{"base_weights":[2.9252652E-2,4.323225E0,-1.6903814E1,8.075138E-1,1.1472139E0,-7.014303E-1,-1.6128187E1,-1.7000111E0,2.9370441E0,-7.6104057E-1,-6.312493E-1,-1.1933294E-1,-3.0318303E-2,7.005781E-2,1.54664E-1],"categories":[],"categories_nodes":[],"categories_segments":[],"categories_sizes":[],"default_left":[0,0,0,0,0,0,0,0,0,0,0,0,0,0,0],"id":11,"left_children":[1,3,5,-1,7,-1,9,11,13,-1,-1,-1,-1,-1,-1],"loss_changes":[5.2290197E5,2.8901003E5,1.474375E2,0E0,2.4379416E4,0E0,8.1203125E1,2.2284697E3,3.2232344E3,0E0,0E0,0E0,0E0,0E0,0E0],"parents":[2147483647,0,0,1,1,2,2,4,4,6,6,7,7,8,8],"right_children":[2,4,6,-1,8,-1,10,12,14,-1,-1,-1,-1,-1,-1],"split_conditions":[8E0,6E0,1.343E1,8.075138E-1,6E1,-7.014303E-1,5E1,2.8E1,9.8E1,-7.6104057E-1,-6.312493E-1,-1.1933294E-1,-3.0318303E-2,7.005781E-2,1.54664E-1],"split_indices":[2,2,0,0,1,0,1,1,1,0,0,0,0,0,0],"split_type":[0,0,0,0,0,0,0,0,0,0,0,0,0,0,0],"sum_hessian":[7.187589E3,5.734815E3,1.4527738E3,9.5479034E2,4.7800244E3,7.7672095E2,6.7605286E2,1.8450527E3,2.9349717E3,6.0774796E1,6.152781E2,7.792228E2,1.06583E3,1.2923794E3,1.6425924E3],"tree_param":{"num_deleted":"0","num_feature":"12","num_nodes":"15","size_leaf_vector":"1"}},{"base_weights":[-2.7138075E-2,4.1566157E0,-1.6273657E1,7.7525413E-1,1.161174E0,-7.912196E-1,-1.6111523E1,-1.5800266E0,2.8938808E0,-6.7076635E-1,-6.1221606E-1,-9.762158E-2,-2.3059319E-3,-7.748441E-2,1.2461884E-1],"categories":[],"categories_nodes":[],"categories_segments":[],"categories_sizes":[],"default_left":[0,0,0,0,0,0,0,0,0,0,0,0,0,0,0],"id":12,"left_children":[1,3,5,-1,7,-1,9,11,13,-1,-1,-1,-1,-1,-1],"loss_changes":[4.8944234E5,2.6109456E5,2.0096875E2,0E0,2.274536E4,0E0,2.395625E2,2.4300938E3,3.1525605E3,0E0,0E0,0E0,0E0,0E0,0E0],"parents":[2147483647,0,0,1,1,2,2,4,4,6,6,7,7,8,8],"right_children":[2,4,6,-1,8,-1,10,12,14,-1,-1,-1,-1,-1,-1],"split_conditions":[8E0,6E0,3.6E1,7.7525413E-1,6E1,-7.912196E-1,1.343E1,4E1,7.6E1,-6.7076635E-1,-6.1221606E-1,-9.762158E-2,-2.3059319E-3,-7.748441E-2,1.2461884E-1],"split_indices":[2,2,1,0,1,0,0,1,10,0,0,0,0,0,0],"split_type":[0,0,0,0,0,0,0,0,0,0,0,0,0,0,0],"sum_hessian":[7.1967153E3,5.7241406E3,1.4725748E3,9.39264E2,4.7848765E3,5.437996E1,1.418195E3,1.8532108E3,2.9316658E3,7.592178E2,6.589772E2,1.1832062E3,6.700046E2,1.2789453E2,2.8037712E3],"tree_param":{"num_deleted":"0","num_feature":"12","num_nodes":"15","size_leaf_vector":"1"}},{"base_weights":[8.466955E-2,4.029913E0,-1.557833E1,7.4433094E-1,1.1237394E0,-7.703195E-1,-6.16944E-1,-1.0475923E0,3.057516E0,-9.18302E-2,1.10217165E-2,-6.995877E-2,1.3085327E-1],"categories":[],"categories_nodes":[],"categories_segments":[],"categories_sizes":[],"default_left":[0,0,0,0,0,0,0,0,0,0,0,0,0],"id":13,"left_children":[1,3,5,-1,7,-1,-1,9,11,-1,-1,-1,-1],"loss_changes":[4.4405325E5,2.4315072E5,2.29125E2,0E0,2.0111229E4,0E0,0E0,3.7287136E3,2.6147422E3,0E0,0E0,0E0,0E0],"parents":[2147483647,0,0,1,1,2,2,4,4,7,7,8,8],"right_children":[2,4,6,-1,8,-1,-1,10,12,-1,-1,-1,-1],"split_conditions":[8E0,6E0,3.6E1,7.4433094E-1,7.2E1,-7.703195E-1,-6.16944E-1,4E1,7.6E1,-9.18302E-2,1.10217165E-2,-6.995877E-2,1.3085327E-1],"split_indices":[2,2,1,0,1,0,0,1,10,0,0,0,0],"split_type":[0,0,0,0,0,0,0,0,0,0,0,0,0],"sum_hessian":[7.181953E3,5.738107E3,1.4438461E3,9.519572E2,4.7861494E3,4.8299362E1,1.3955468E3,2.255024E3,2.5311257E3,1.1596307E3,1.0953932E3,1.071896E2,2.423936E3],"tree_param":{"num_deleted":"0","num_feature":"12","num_nodes":"13","size_leaf_vector":"1"}},{"base_weights":[-1.2884953E-2,3.7767365E0,-1.5010917E1,7.145991E-1,1.0191605E0,-6.228416E-1,-5.735649E-1,-3.0469568E0,1.3147744E0,9.144808E-2,-1.697824E-1,1.329079E-1,4.6565298E-2],"categories":[],"categories_nodes":[],"categories_segments":[],"categories_sizes":[],"default_left":[0,0,0,0,0,0,0,0,0,0,0,0,0],"id":14,"left_children":[1,3,5,-1,7,-1,-1,9,11,-1,-1,-1,-1],"loss_changes":[4.0923375E5,2.2326303E5,9.990625E1,0E0,5.7884995E3,0E0,0E0,2.104982E3,1.3487305E3,0E0,0E0,0E0,0E0],"parents":[2147483647,0,0,1,1,2,2,4,4,7,7,8,8],"right_children":[2,4,6,-1,8,-1,-1,10,12,-1,-1,-1,-1],"split_conditions":[8E0,6E0,1.295E1,7.145991E-1,7.6E1,-6.228416E-1,-5.735649E-1,3.465613E4,3.465915E4,9.144808E-2,-1.697824E-1,1.329079E-1,4.6565298E-2],"split_indices":[2,2,0,0,10,0,0,8,8,0,0,0,0],"split_type":[0,0,0,0,0,0,0,0,0,0,0,0,0],"sum_hessian":[7.1961514E3,5.7458237E3,1.4503273E3,9.38769E2,4.807055E3,7.667103E2,6.8361694E2,3.245338E2,4.482521E3,5.9179237E1,2.6535458E2,3.0988724E2,4.172634E3],"tree_param":{"num_deleted":"0","num_feature":"12","num_nodes":"13","size_leaf_vector":"1"}},{"base_weights":[5.0133076E-3,3.6486228E0,-1.44019575E1,6.8607914E-1,9.8016906E-1,-7.2501576E-1,-1.4268028E1,-1.1432532E0,2.8982391E0,-5.931621E-1,-5.430942E-1,-9.3714386E-2,5.2468567E-3,1.0406877E-1,1.9947933E-1],"categories":[],"categories_nodes":[],"categories_segments":[],"categories_sizes":[],"default_left":[0,0,0,0,0,0,0,0,0,0,0,0,0,0,0],"id":15,"left_children":[1,3,5,-1,7,-1,9,11,13,-1,-1,-1,-1,-1,-1],"loss_changes":[3.758682E5,2.0589364E5,2.035625E2,0E0,1.9450799E4,0E0,1.4159375E2,3.4666987E3,1.5279395E3,0E0,0E0,0E0,0E0,0E0,0E0],"parents":[2147483647,0,0,1,1,2,2,4,4,6,6,7,7,8,8],"right_children":[2,4,6,-1,8,-1,10,12,14,-1,-1,-1,-1,-1,-1],"split_conditions":[8E0,6E0,3.1E1,6.8607914E-1,7.2E1,-7.2501576E-1,1.343E1,4E1,1.71E2,-5.931621E-1,-5.430942E-1,-9.3714386E-2,5.2468567E-3,1.0406877E-1,1.9947933E-1],"split_indices":[2,2,1,0,1,0,0,1,1,0,0,0,0,0,0],"split_type":[0,0,0,0,0,0,0,0,0,0,0,0,0,0,0],"sum_hessian":[7.1562964E3,5.7129507E3,1.4433461E3,9.4088275E2,4.772068E3,4.0785076E1,1.402561E3,2.2651807E3,2.506887E3,7.5132556E2,6.512354E2,1.1659777E3,1.099203E3,2.1991807E3,3.077063E2],"tree_param":{"num_deleted":"0","num_feature":"12","num_nodes":"15","size_leaf_vector":"1"}},{"base_weights":[-8.168235E-2,3.477134E0,-1.3831068E1,6.5869606E-1,9.231991E-1,-6.4175665E-1,-1.3619572E1,-1.1903538E0,2.7234793E0,-1.34305315E1,-6.3276917E-1,-8.885634E-2,7.41509E-4,-4.6740197E-2,1.1605861E-1,-5.504514E-1,-4.4257408E-1],"categories":[],"categories_nodes":[],"categories_segments":[],"categories_sizes":[],"default_left":[0,0,0,0,0,0,0,0,0,0,0,0,0,0,0,0,0],"id":16,"left_children":[1,3,5,-1,7,-1,9,11,13,15,-1,-1,-1,-1,-1,-1,-1],"loss_changes":[3.5402316E5,1.9064947E5,2.5921875E2,0E0,1.8290488E4,0E0,1.4520312E2,2.7568384E3,1.8047734E3,6.9396875E2,0E0,0E0,0E0,0E0,0E0,0E0,0E0],"parents":[2147483647,0,0,1,1,2,2,4,4,6,6,7,7,8,8,9,9],"right_children":[2,4,6,-1,8,-1,10,12,14,16,-1,-1,-1,-1,-1,-1,-1],"split_conditions":[8E0,6E0,5E1,6.5869606E-1,7E1,-6.4175665E-1,3.471211E4,4E1,7.6E1,3.470614E4,-6.3276917E-1,-8.885634E-2,7.41509E-4,-4.6740197E-2,1.1605861E-1,-5.504514E-1,-4.4257408E-1],"split_indices":[2,2,1,0,1,0,8,1,10,8,0,0,0,0,0,0,0],"split_type":[0,0,0,0,0,0,0,0,0,0,0,0,0,0,0,0,0],"sum_hessian":[7.231105E3,5.7454727E3,1.4856327E3,9.421992E2,4.8032734E3,1.1654323E2,1.3690895E3,2.2097156E3,2.5935576E3,1.2738274E3,9.526213E1,1.191672E3,1.0180436E3,1.1293356E2,2.4806243E3,1.109154E3,1.6467336E2],"tree_param":{"num_deleted":"0","num_feature":"12","num_nodes":"17","size_leaf_vector":"1"}},{"base_weights":[-3.5641253E-2,3.3107073E0,-1.3245522E1,6.3240373E-1,8.5647374E-1,-5.9558934E-1,-1.3027856E1,-2.9331234E0,1.1248873E0,-5.3375185E-1,-1.2176622E1,9.600038E-2,-1.6474651E-1,4.1190077E-2,1.8231298E-1,-4.6185032E-1,-5.7033867E-1],"categories":[],"categories_nodes":[],"categories_segments":[],"categories_sizes":[],"default_left":[0,0,0,0,0,0,0,0,0,0,0,0,0,0,0,0,0],"id":17,"left_children":[1,3,5,-1,7,-1,9,11,13,-1,15,-1,-1,-1,-1,-1,-1],"loss_changes":[3.1872553E5,1.7645075E5,1.3360938E2,0E0,4.9000625E3,0E0,2.5453125E1,2.0351853E3,1.4583457E3,0E0,1.6358984E2,0E0,0E0,0E0,0E0,0E0,0E0],"parents":[2147483647,0,0,1,1,2,2,4,4,6,6,7,7,8,8,10,10],"right_children":[2,4,6,-1,8,-1,10,12,14,-1,16,-1,-1,-1,-1,-1,-1],"split_conditions":[8E0,6E0,2.68E0,6.3240373E-1,7.6E1,-5.9558934E-1,3.469532E4,3.465613E4,7.386816E4,-5.3375185E-1,3.471211E4,9.600038E-2,-1.6474651E-1,4.1190077E-2,1.8231298E-1,-4.6185032E-1,-5.7033867E-1],"split_indices":[2,2,0,0,10,0,8,8,8,0,8,0,0,0,0,0,0],"split_type":[0,0,0,0,0,0,0,0,0,0,0,0,0,0,0,0,0],"sum_hessian":[7.2062075E3,5.7508833E3,1.4553245E3,9.4206616E2,4.8088174E3,1.5437659E2,1.3009479E3,3.1676172E2,4.4920557E3,9.273891E2,3.7355875E2,5.7236282E1,2.5952542E2,4.3734556E3,1.1859972E2,2.967866E2,7.677215E1],"tree_param":{"num_deleted":"0","num_feature":"12","num_nodes":"17","size_leaf_vector":"1"}},{"base_weights":[-5.8432682E-3,3.225515E0,-1.2771346E1,6.071633E-1,8.8369334E-1,-6.62399E-1,-1.2623653E1,-1.0587678E0,2.6382165E0,-5.279955E-1,-4.7778E-1,-1.0350573E-1,-1.1847169E-2,-5.8262795E-2,1.130035E-1],"categories":[],"categories_nodes":[],"categories_segments":[],"categories_sizes":[],"default_left":[0,0,0,0,0,0,0,0,0,0,0,0,0,0,0],"id":18,"left_children":[1,3,5,-1,7,-1,9,11,13,-1,-1,-1,-1,-1,-1],"loss_changes":[2.9839762E5,1.6156784E5,3.995625E2,0E0,1.646369E4,0E0,2.3835938E2,2.672167E3,1.950207E3,0E0,0E0,0E0,0E0,0E0,0E0],"parents":[2147483647,0,0,1,1,2,2,4,4,6,6,7,7,8,8],"right_children":[2,4,6,-1,8,-1,10,12,14,-1,-1,-1,-1,-1,-1],"split_conditions":[8E0,6E0,3.2E1,6.071633E-1,7.2E1,-6.62399E-1,1.295E1,2.7E1,7.6E1,-5.279955E-1,-4.7778E-1,-1.0350573E-1,-1.1847169E-2,-5.8262795E-2,1.130035E-1],"split_indices":[2,2,1,0,1,0,0,1,10,0,0,0,0,0,0],"split_type":[0,0,0,0,0,0,0,0,0,0,0,0,0,0,0],"sum_hessian":[7.2299004E3,5.7706567E3,1.4592437E3,9.4353314E2,4.8271235E3,4.6412678E1,1.4128309E3,2.2912437E3,2.5358801E3,7.443805E2,6.6845044E2,7.609223E2,1.5303214E3,1.1008419E2,2.425796E3],"tree_param":{"num_deleted":"0","num_feature":"12","num_nodes":"15","size_leaf_vector":"1"}},{"base_weights":[-4.0676672E-2,3.1056173E0,-1.2223237E1,5.8290833E-1,8.6128044E-1,-5.774453E-1,-1.2011996E1,-1.7672335E0,2.0997262E0,-1.1842611E1,-5.579578E-1,-1.257863E-1,-5.019931E-2,-8.171366E-2,9.3263485E-2,-4.8594114E-1,-3.9041743E-1],"categories":[],"categories_nodes":[],"categories_segments":[],"categories_sizes":[],"default_left":[0,0,0,0,0,0,0,0,0,0,0,0,0,0,0,0,0],"id":19,"left_children":[1,3,5,-1,7,-1,9,11,13,15,-1,-1,-1,-1,-1,-1,-1],"loss_changes":[2.7422575E5,1.4630784E5,3.3960938E2,0E0,1.5493901E4,0E0,1.133125E2,1.0679092E3,3.116419E3,5.634531E2,0E0,0E0,0E0,0E0,0E0,0E0,0E0],"parents":[2147483647,0,0,1,1,2,2,4,4,6,6,7,7,8,8,9,9],"right_children":[2,4,6,-1,8,-1,10,12,14,16,-1,-1,-1,-1,-1,-1,-1],"split_conditions":[6.4E2,4.8E2,5E1,5.8290833E-1,5E1,-5.774453E-1,3.471211E4,1.8E1,7.6E1,3.470425E4,-5.579578E-1,-1.257863E-1,-5.019931E-2,-8.171366E-2,9.3263485E-2,-4.8594114E-1,-3.9041743E-1],"split_indices":[3,3,1,0,1,0,8,1,10,8,0,0,0,0,0,0,0],"split_type":[0,0,0,0,0,0,0,0,0,0,0,0,0,0,0,0,0],"sum_hessian":[7.150372E3,5.683921E3,1.4664513E3,9.285668E2,4.755354E3,1.1605154E2,1.3503998E3,1.5226925E3,3.2326616E3,1.2548888E3,9.5511024E1,4.0998337E2,1.1127091E3,1.7051512E2,3.0621465E3,1.0857053E3,1.6918349E2],"tree_param":{"num_deleted":"0","num_feature":"12","num_nodes":"17","size_leaf_vector":"1"}},{"base_weights":[1.4844615E-2,3.0270534E0,-1.1772493E1,5.596537E-1,8.6050344E-1,-1.1580848E1,-5.4745436E-1,-1.6525723E0,2.0489552E0,-1.1881831E1,-3.8008124E-1,-1.2615213E-1,-4.446419E-2,4.2574223E-2,1.209204E-1,-4.8998573E-1,-4.4368103E-1],"categories":[],"categories_nodes":[],"categories_segments":[],"categories_sizes":[],"default_left":[0,0,0,0,0,0,0,0,0,0,0,0,0,0,0,0,0],"id":20,"left_children":[1,3,5,-1,7,9,-1,11,13,15,-1,-1,-1,-1,-1,-1,-1],"loss_changes":[2.5391273E5,1.352765E5,2.16875E2,0E0,1.4217621E4,6.101719E2,0E0,1.2345459E3,3.0925596E3,6.49375E1,0E0,0E0,0E0,0E0,0E0,0E0,0E0],"parents":[2147483647,0,0,1,1,2,2,4,4,5,5,7,7,8,8,9,9],"right_children":[2,4,6,-1,8,10,-1,12,14,16,-1,-1,-1,-1,-1,-1,-1],"split_conditions":[8E0,6E0,3.471211E4,5.596537E-1,5E1,3.470422E4,-5.4745436E-1,1.8E1,9.8E1,2.222E1,-3.8008124E-1,-1.2615213E-1,-4.446419E-2,4.2574223E-2,1.209204E-1,-4.8998573E-1,-4.4368103E-1],"split_indices":[2,2,8,0,1,8,0,1,1,0,0,0,0,0,0,0,0],"split_type":[0,0,0,0,0,0,0,0,0,0,0,0,0,0,0,0,0],"sum_hessian":[7.147271E3,5.693743E3,1.4535277E3,9.3764984E2,4.7560933E3,1.3340444E3,1.19483315E2,1.5267911E3,3.2293022E3,1.1570833E3,1.7696112E2,4.0188E2,1.1249111E3,1.6080398E3,1.6212623E3,7.696418E2,3.874415E2],"tree_param":{"num_deleted":"0","num_feature":"12","num_nodes":"17","size_leaf_vector":"1"}},{"base_weights":[-3.513314E-3,2.8790255E0,-1.130633E1,5.373389E-1,7.663129E-1,-6.022465E-1,-1.1174873E1,-1.5948842E0,1.9062688E0,-4.6197164E-1,-4.1333407E-1,-1.1619238E-1,-4.466544E-2,-9.6193366E-2,8.5674725E-2],"categories":[],"categories_nodes":[],"categories_segments":[],"categories_sizes":[],"default_left":[0,0,0,0,0,0,0,0,0,0,0,0,0,0,0],"id":21,"left_children":[1,3,5,-1,7,-1,9,11,13,-1,-1,-1,-1,-1,-1],"loss_changes":[2.3526458E5,1.28276625E5,3.8679688E2,0E0,1.2915598E4,0E0,2.104375E2,9.724824E2,3.2965146E3,0E0,0E0,0E0,0E0,0E0,0E0],"parents":[2147483647,0,0,1,1,2,2,4,4,6,6,7,7,8,8],"right_children":[2,4,6,-1,8,-1,10,12,14,-1,-1,-1,-1,-1,-1],"split_conditions":[6.4E2,4.8E2,3.1E1,5.373389E-1,5E1,-6.022465E-1,2.222E1,1.8E1,7.6E1,-4.6197164E-1,-4.1333407E-1,-1.1619238E-1,-4.466544E-2,-9.6193366E-2,8.5674725E-2],"split_indices":[3,3,1,0,1,0,0,1,10,0,0,0,0,0,0],"split_type":[0,0,0,0,0,0,0,0,0,0,0,0,0,0,0],"sum_hessian":[7.216958E3,5.751622E3,1.4653362E3,9.5750604E2,4.7941157E3,4.19394E1,1.4233967E3,1.5606776E3,3.2334382E3,9.6748486E2,4.5591187E2,4.1469025E2,1.1459874E3,1.6659491E2,3.0668433E3],"tree_param":{"num_deleted":"0","num_feature":"12","num_nodes":"15","size_leaf_vector":"1"}},{"base_weights":[-1.0307766E-2,2.7547207E0,-1.0817706E1,5.158823E-1,7.392266E-1,-5.570907E-1,-1.0684128E1,-1.0312192E0,2.3311946E0,-1.1192854E1,-1.0073605E1,-7.744832E-2,-1.5331982E-3,6.782111E-2,1.3224825E-1,-4.6975088E-1,-4.1488606E-1,-4.1738096E-1,-3.6568877E-1],"categories":[],"categories_nodes":[],"categories_segments":[],"categories_sizes":[],"default_left":[0,0,0,0,0,0,0,0,0,0,0,0,0,0,0,0,0,0,0],"id":22,"left_children":[1,3,5,-1,7,-1,9,11,13,15,17,-1,-1,-1,-1,-1,-1,-1,-1],"loss_changes":[2.1566028E5,1.1745259E5,3.1309375E2,0E0,1.3522564E4,0E0,2.15E2,2.0414951E3,1.5543281E3,9.803906E1,3.2632812E1,0E0,0E0,0E0,0E0,0E0,0E0,0E0,0E0],"parents":[2147483647,0,0,1,1,2,2,4,4,6,6,7,7,8,8,9,9,10,10],"right_children":[2,4,6,-1,8,-1,10,12,14,16,18,-1,-1,-1,-1,-1,-1,-1,-1],"split_conditions":[6.4E2,4.8E2,3.6E1,5.158823E-1,7.2E1,-5.570907E-1,1.343E1,4E1,1.24E2,1.1681E1,3.469532E4,-7.744832E-2,-1.5331982E-3,6.782111E-2,1.3224825E-1,-4.6975088E-1,-4.1488606E-1,-4.1738096E-1,-3.6568877E-1],"split_indices":[3,3,1,0,1,0,0,1,1,11,8,0,0,0,0,0,0,0,0],"split_type":[0,0,0,0,0,0,0,0,0,0,0,0,0,0,0,0,0,0,0],"sum_hessian":[7.2128843E3,5.744634E3,1.4682507E3,9.505405E2,4.7940933E3,5.196785E1,1.4162828E3,2.2701443E3,2.523949E3,7.5363806E2,6.6264484E2,1.186649E3,1.0834951E3,1.5311692E3,9.9277985E2,4.3500836E2,3.186297E2,4.6287152E2,1.9977328E2],"tree_param":{"num_deleted":"0","num_feature":"12","num_nodes":"19","size_leaf_vector":"1"}},{"base_weights":[-2.5605008E-3,2.6811202E0,-1.0370718E1,4.952864E-1,7.519603E-1,-4.7876793E-1,-1.0169612E1,-8.352494E-1,2.1605983E0,-5.4632527E-1,-1.0065604E1,-8.8882856E-2,-7.861286E-3,-5.87835E-2,9.295506E-2,-4.1377288E-1,-3.735235E-1],"categories":[],"categories_nodes":[],"categories_segments":[],"categories_sizes":[],"default_left":[0,0,0,0,0,0,0,0,0,0,0,0,0,0,0,0,0],"id":23,"left_children":[1,3,5,-1,7,-1,9,11,13,-1,15,-1,-1,-1,-1,-1,-1],"loss_changes":[2.0042473E5,1.0706805E5,2.3265625E2,0E0,1.0679582E4,0E0,2.0720312E2,1.9891661E3,1.5066582E3,0E0,7E1,0E0,0E0,0E0,0E0,0E0,0E0],"parents":[2147483647,0,0,1,1,2,2,4,4,6,6,7,7,8,8,10,10],"right_children":[2,4,6,-1,8,-1,10,12,14,-1,16,-1,-1,-1,-1,-1,-1],"split_conditions":[2E0,1E0,2.68E0,4.952864E-1,7.2E1,-4.7876793E-1,2.8E1,2.6E1,7.6E1,-5.4632527E-1,3.469532E4,-8.8882856E-2,-7.861286E-3,-5.87835E-2,9.295506E-2,-4.1377288E-1,-3.735235E-1],"split_indices":[4,4,0,0,1,0,1,1,10,0,8,0,0,0,0,0,0],"split_type":[0,0,0,0,0,0,0,0,0,0,0,0,0,0,0,0,0],"sum_hessian":[7.199092E3,5.7200137E3,1.4790782E3,9.4701E2,4.773004E3,1.5221025E2,1.326868E3,2.2446338E3,2.5283699E3,3.08686E1,1.2959994E3,7.062414E2,1.5383925E3,1.08137405E2,2.4202324E3,9.1790405E2,3.780954E2],"tree_param":{"num_deleted":"0","num_feature":"12","num_nodes":"17","size_leaf_vector":"1"}},{"base_weights":[4.25394E-2,2.5669532E0,-9.9959955E0,4.7552317E-1,7.1963924E-1,-5.279154E-1,-9.877729E0,-8.468933E-1,2.1258578E0,-1.0245819E1,-9.111894E0,-8.566456E-2,-9.389403E-3,6.0301032E-2,1.2267366E-1,-4.2335692E-1,-3.8051608E-1,-2.931605E-1,-3.7330836E-1],"categories":[],"categories_nodes":[],"categories_segments":[],"categories_sizes":[],"default_left":[0,0,0,0,0,0,0,0,0,0,0,0,0,0,0,0,0,0,0],"id":24,"left_children":[1,3,5,-1,7,-1,9,11,13,15,17,-1,-1,-1,-1,-1,-1,-1,-1],"loss_changes":[1.8316131E5,9.94292E4,2.8925E2,0E0,1.0626412E4,0E0,2.1034375E2,1.8080571E3,1.4696211E3,3.0390625E1,5.0328125E1,0E0,0E0,0E0,0E0,0E0,0E0,0E0,0E0],"parents":[2147483647,0,0,1,1,2,2,4,4,6,6,7,7,8,8,9,9,10,10],"right_children":[2,4,6,-1,8,-1,10,12,14,16,18,-1,-1,-1,-1,-1,-1,-1,-1],"split_conditions":[2E0,1E0,3.1E1,4.7552317E-1,7.2E1,-5.279154E-1,2.222E1,2.6E1,1.24E2,1.2125E1,3.466313E4,-8.566456E-2,-9.389403E-3,6.0301032E-2,1.2267366E-1,-4.2335692E-1,-3.8051608E-1,-2.931605E-1,-3.7330836E-1],"split_indices":[4,4,1,0,1,0,0,1,1,11,8,0,0,0,0,0,0,0,0],"split_type":[0,0,0,0,0,0,0,0,0,0,0,0,0,0,0,0,0,0,0],"sum_hessian":[7.2237207E3,5.773367E3,1.4503535E3,9.531447E2,4.820222E3,4.378356E1,1.40657E3,2.2805156E3,2.5397068E3,9.332555E2,4.7331442E2,7.3050116E2,1.5500143E3,1.5357504E3,1.00395654E3,6.2024603E2,3.1300946E2,5.969701E1,4.136174E2],"tree_param":{"num_deleted":"0","num_feature":"12","num_nodes":"19","size_leaf_vector":"1"}},{"base_weights":[2.7107945E-2,2.4571455E0,-9.572002E0,4.5654422E-1,6.680076E-1,-4.9481684E-1,-9.457492E0,-9.0179855E-1,1.9913357E0,-9.302999E0,-4.497225E-1,-8.505457E-2,-1.1667075E-2,5.569864E-2,1.1734307E-1,-3.8280615E-1,-2.931113E-1],"categories":[],"categories_nodes":[],"categories_segments":[],"categories_sizes":[],"default_left":[0,0,0,0,0,0,0,0,0,0,0,0,0,0,0,0,0],"id":25,"left_children":[1,3,5,-1,7,-1,9,11,13,15,-1,-1,-1,-1,-1,-1,-1],"loss_changes":[1.6809875E5,9.21348E4,2.3253125E2,0E0,9.965146E3,0E0,1.7896094E2,1.6385315E3,1.4603818E3,5.4921094E2,0E0,0E0,0E0,0E0,0E0,0E0,0E0],"parents":[2147483647,0,0,1,1,2,2,4,4,6,6,7,7,8,8,9,9],"right_children":[2,4,6,-1,8,-1,10,12,14,16,-1,-1,-1,-1,-1,-1,-1],"split_conditions":[8E0,6E0,3.6E1,4.5654422E-1,7E1,-4.9481684E-1,3.471211E4,2.6E1,1.24E2,3.470614E4,-4.497225E-1,-8.505457E-2,-1.1667075E-2,5.569864E-2,1.1734307E-1,-3.8280615E-1,-2.931113E-1],"split_indices":[2,2,1,0,1,0,8,1,1,8,0,0,0,0,0,0,0],"split_type":[0,0,0,0,0,0,0,0,0,0,0,0,0,0,0,0,0],"sum_hessian":[7.2024194E3,5.7486284E3,1.4537908E3,9.55353E2,4.7932754E3,4.8735634E1,1.4050552E3,2.1927498E3,2.6005256E3,1.3045974E3,1.0045771E2,7.275418E2,1.4652079E3,1.5930015E3,1.00752423E3,1.1423938E3,1.6220369E2],"tree_param":{"num_deleted":"0","num_feature":"12","num_nodes":"17","size_leaf_vector":"1"}},{"base_weights":[1.5853396E-2,2.3229663E0,-9.214898E0,4.3830088E-1,6.2954223E-1,-4.4558156E-1,-9.03347E0,-1.0982981E0,1.7044877E0,-8.867548E0,-4.3645194E-1,-1.4324513E-1,-3.3479698E-2,4.6680033E-2,1.1007028E-1,-3.650127E-1,-2.795616E-1],"categories":[],"categories_nodes":[],"categories_segments":[],"categories_sizes":[],"default_left":[0,0,0,0,0,0,0,0,0,0,0,0,0,0,0,0,0],"id":26,"left_children":[1,3,5,-1,7,-1,9,11,13,15,-1,-1,-1,-1,-1,-1,-1],"loss_changes":[1.5216636E5,8.357138E4,2.976328E2,0E0,8.884112E3,0E0,2.1659375E2,1.1844832E3,1.6531494E3,4.6322656E2,0E0,0E0,0E0,0E0,0E0,0E0,0E0],"parents":[2147483647,0,0,1,1,2,2,4,4,6,6,7,7,8,8,9,9],"right_children":[2,4,6,-1,8,-1,10,12,14,16,-1,-1,-1,-1,-1,-1,-1],"split_conditions":[8E0,6E0,5E1,4.3830088E-1,6E1,-4.4558156E-1,3.471211E4,7.6E1,1.24E2,3.470614E4,-4.3645194E-1,-1.4324513E-1,-3.3479698E-2,4.6680033E-2,1.1007028E-1,-3.650127E-1,-2.795616E-1],"split_indices":[2,2,1,0,1,0,8,10,1,8,0,0,0,0,0,0,0],"split_type":[0,0,0,0,0,0,0,0,0,0,0,0,0,0,0,0,0],"sum_hessian":[7.1411626E3,5.714412E3,1.4267504E3,9.3516785E2,4.779244E3,1.12501686E2,1.3142488E3,1.8329551E3,2.9462893E3,1.2180669E3,9.618187E1,1.7212045E2,1.6608346E3,1.9498187E3,9.9647064E2,1.0643071E3,1.5375975E2],"tree_param":{"num_deleted":"0","num_feature":"12","num_nodes":"17","size_leaf_vector":"1"}},{"base_weights":[-2.6321875E-2,2.21652E0,-8.840388E0,4.2083895E-1,5.319051E-1,-4.7402218E-1,-8.73379E0,-8.388852E-1,1.7609341E0,-9.151812E0,-8.2175665E0,-9.9777944E-2,-1.8455433E-2,-6.603345E-2,7.677048E-2,-4.0032607E-1,-3.5033095E-1,-2.4852958E-1,-3.3444366E-1],"categories":[],"categories_nodes":[],"categories_segments":[],"categories_sizes":[],"default_left":[0,0,0,0,0,0,0,0,0,0,0,0,0,0,0,0,0,0,0],"id":27,"left_children":[1,3,5,-1,7,-1,9,11,13,15,17,-1,-1,-1,-1,-1,-1,-1,-1],"loss_changes":[1.4301503E5,8.0668164E4,2.6389062E2,0E0,8.0838726E3,0E0,1.5707031E2,1.4156714E3,1.3728184E3,8.409375E1,8.514453E1,0E0,0E0,0E0,0E0,0E0,0E0,0E0,0E0],"parents":[2147483647,0,0,1,1,2,2,4,4,6,6,7,7,8,8,9,9,10,10],"right_children":[2,4,6,-1,8,-1,10,12,14,16,18,-1,-1,-1,-1,-1,-1,-1,-1],"split_conditions":[8E0,6E0,3.1E1,4.2083895E-1,7.2E1,-4.7402218E-1,1.343E1,1.8E1,7.6E1,1.0438E1,1.575E1,-9.9777944E-2,-1.8455433E-2,-6.603345E-2,7.677048E-2,-4.0032607E-1,-3.5033095E-1,-2.4852958E-1,-3.3444366E-1],"split_indices":[2,2,1,0,1,0,0,1,10,11,0,0,0,0,0,0,0,0,0],"split_type":[0,0,0,0,0,0,0,0,0,0,0,0,0,0,0,0,0,0,0],"sum_hessian":[7.2304873E3,5.7650103E3,1.465477E3,9.704758E2,4.7945347E3,4.2585587E1,1.4228915E3,2.2668508E3,2.5276838E3,7.6774207E2,6.5514935E2,4.188266E2,1.8480242E3,1.1126247E2,2.4164214E3,2.2634706E2,5.41395E2,4.96979E1,6.054515E2],"tree_param":{"num_deleted":"0","num_feature":"12","num_nodes":"19","size_leaf_vector":"1"}},{"base_weights":[-1.3986604E-2,2.1671996E0,-8.517429E0,4.0401542E-1,6.083528E-1,-4.156244E-1,-8.343374E0,-1.2350392E0,1.4865974E0,-8.194032E0,-1.0126912E1,-1.2109057E-1,-3.8148575E-2,-7.5194046E-2,6.716013E-2,-3.3822486E-1,-2.637094E-1,-4.4881293E-1,-3.2684246E-1],"categories":[],"categories_nodes":[],"categories_segments":[],"categories_sizes":[],"default_left":[0,0,0,0,0,0,0,0,0,0,0,0,0,0,0,0,0,0,0],"id":28,"left_children":[1,3,5,-1,7,-1,9,11,13,15,17,-1,-1,-1,-1,-1,-1,-1,-1],"loss_changes":[1.3405462E5,7.112241E4,3.0767188E2,0E0,7.790207E3,0E0,1.9632812E2,7.772993E2,2.1169316E3,4.186172E2,2.3249023E1,0E0,0E0,0E0,0E0,0E0,0E0,0E0,0E0],"parents":[2147483647,0,0,1,1,2,2,4,4,6,6,7,7,8,8,9,9,10,10],"right_children":[2,4,6,-1,8,-1,10,12,14,16,18,-1,-1,-1,-1,-1,-1,-1,-1],"split_conditions":[6.4E2,4.8E2,5E1,4.0401542E-1,5E1,-4.156244E-1,3.471211E4,1.2E1,7.6E1,3.470315E4,3.73E0,-1.2109057E-1,-3.8148575E-2,-7.5194046E-2,6.716013E-2,-3.3822486E-1,-2.637094E-1,-4.4881293E-1,-3.2684246E-1],"split_indices":[3,3,1,0,1,0,8,1,10,8,0,0,0,0,0,0,0,0,0],"split_type":[0,0,0,0,0,0,0,0,0,0,0,0,0,0,0,0,0,0,0],"sum_hessian":[7.2236123E3,5.750153E3,1.4734597E3,9.425298E2,4.807623E3,1.152921E2,1.3581676E3,1.5511091E3,3.2565137E3,1.2635538E3,9.4613815E1,2.0779514E2,1.343314E3,1.7511186E2,3.0814019E3,1.0787646E3,1.8478922E2,5.4610428E1,4.0003387E1],"tree_param":{"num_deleted":"0","num_feature":"12","num_nodes":"19","size_leaf_vector":"1"}},{"base_weights":[-5.4141033E-2,2.0404396E0,-8.189675E0,3.8789696E-1,5.134194E-1,-4.2762238E-1,-8.083173E0,-1.3210759E0,1.3104907E0,-8.502888E0,-7.5666203E0,-1.1803154E-1,-4.2381495E-2,2.054769E-2,8.4927194E-2,-4.3526378E-1,-3.35277E-1,-2.317813E-1,-3.0876654E-1],"categories":[],"categories_nodes":[],"categories_segments":[],"categories_sizes":[],"default_left":[0,0,0,0,0,0,0,0,0,0,0,0,0,0,0,0,0,0,0],"id":29,"left_children":[1,3,5,-1,7,-1,9,11,13,15,17,-1,-1,-1,-1,-1,-1,-1,-1],"loss_changes":[1.2291319E5,6.7059766E4,2.2053125E2,0E0,6.99955E3,0E0,1.8019531E2,6.1186206E2,2.1582842E3,3.9109375E1,8.809766E1,0E0,0E0,0E0,0E0,0E0,0E0,0E0,0E0],"parents":[2147483647,0,0,1,1,2,2,4,4,6,6,7,7,8,8,9,9,10,10],"right_children":[2,4,6,-1,8,-1,10,12,14,16,18,-1,-1,-1,-1,-1,-1,-1,-1],"split_conditions":[8E0,6E0,3.6E1,3.8789696E-1,4.8E1,-4.2762238E-1,1.295E1,1.2E1,9.8E1,3.8E-1,1.575E1,-1.1803154E-1,-4.2381495E-2,2.054769E-2,8.4927194E-2,-4.3526378E-1,-3.35277E-1,-2.317813E-1,-3.0876654E-1],"split_indices":[2,2,1,0,1,0,0,1,1,0,0,0,0,0,0,0,0,0,0],"split_type":[0,0,0,0,0,0,0,0,0,0,0,0,0,0,0,0,0,0,0],"sum_hessian":[7.2090283E3,5.7341963E3,1.474832E3,9.51643E2,4.782553E3,5.2123055E1,1.422709E3,1.4481824E3,3.334371E3,7.678696E2,6.548394E2,1.9742325E2,1.250759E3,1.6852941E3,1.649077E3,2.8549044E1,7.3932056E2,5.808147E1,5.9675793E2],"tree_param":{"num_deleted":"0","num_feature":"12","num_nodes":"19","size_leaf_vector":"1"}},{"base_weights":[-9.569705E-3,1.9860512E0,-7.8059554E0,3.724176E-1,5.157359E-1,-9.125789E0,-7.6355376E0,-6.235631E-1,1.7643775E0,-4.1732964E-1,-8.201868E0,-4.2559516E-1,-7.5503287E0,-5.8561E-2,5.2459473E-3,8.352444E-2,1.6395228E-2,-4.2378592E-1,-2.7994558E-1,-3.1451395E-1,-2.864867E-1],"categories":[],"categories_nodes":[],"categories_segments":[],"categories_sizes":[],"default_left":[0,0,0,0,0,0,0,0,0,0,0,0,0,0,0,0,0,0,0,0,0],"id":30,"left_children":[1,3,5,-1,7,9,11,13,15,-1,17,-1,19,-1,-1,-1,-1,-1,-1,-1,-1],"loss_changes":[1.1203243E5,6.1731797E4,1.9072656E2,0E0,6.797566E3,1.9195312E1,1.7517188E2,1.5856699E3,9.978667E2,0E0,1.4443945E2,0E0,4.2960938E1,0E0,0E0,0E0,0E0,0E0,0E0,0E0,0E0],"parents":[2147483647,0,0,1,1,2,2,4,4,5,5,6,6,7,7,8,8,10,10,12,12],"right_children":[2,4,6,-1,8,10,12,14,16,-1,18,-1,20,-1,-1,-1,-1,-1,-1,-1,-1],"split_conditions":[8E0,6E0,2.68E0,3.724176E-1,7.8E1,1E2,2.8E1,4E1,2.792E1,-4.1732964E-1,3.8E-1,-4.2559516E-1,1.1792E1,-5.8561E-2,5.2459473E-3,8.352444E-2,1.6395228E-2,-4.2378592E-1,-2.7994558E-1,-3.1451395E-1,-2.864867E-1],"split_indices":[2,2,0,0,1,5,1,1,0,0,0,0,11,0,0,0,0,0,0,0,0],"split_type":[0,0,0,0,0,0,0,0,0,0,0,0,0,0,0,0,0,0,0,0,0],"sum_hessian":[7.196669E3,5.731167E3,1.4655017E3,9.5636444E2,4.7748027E3,1.555689E2,1.3099327E3,2.4972427E3,2.27756E3,5.5891464E1,9.967744E1,2.9295015E1,1.2806378E3,1.1806111E3,1.3166315E3,1.8373402E3,4.4021982E2,2.812893E1,7.154851E1,6.8810864E2,5.925292E2],"tree_param":{"num_deleted":"0","num_feature":"12","num_nodes":"21","size_leaf_vector":"1"}},{"base_weights":[-2.4446674E-2,1.9142449E0,-7.5580096E0,3.575278E-1,5.551653E-1,-8.80476E0,-7.3975344E0,-6.84527E-1,1.6540505E0,-4.0294704E-1,-7.9727955E0,-4.2230135E-1,-7.3222723E0,-1.2498617E-1,-1.7562082E-2,4.034136E-2,9.4198175E-2,-4.1114125E-1,-2.7241126E-1,-3.0277967E-1,-2.6730114E-1],"categories":[],"categories_nodes":[],"categories_segments":[],"categories_sizes":[],"default_left":[0,0,0,0,0,0,0,0,0,0,0,0,0,0,0,0,0,0,0,0,0],"id":31,"left_children":[1,3,5,-1,7,9,11,13,15,-1,17,-1,19,-1,-1,-1,-1,-1,-1,-1,-1],"loss_changes":[1.0519012E5,5.4671617E4,1.6465625E2,0E0,6.5434126E3,5.7314453E0,1.5896875E2,1.3495781E3,1.1471523E3,0E0,1.4083252E2,0E0,1.03546875E2,0E0,0E0,0E0,0E0,0E0,0E0,0E0,0E0],"parents":[2147483647,0,0,1,1,2,2,4,4,5,5,6,6,7,7,8,8,10,10,12,12],"right_children":[2,4,6,-1,8,10,12,14,16,-1,18,-1,20,-1,-1,-1,-1,-1,-1,-1,-1],"split_conditions":[8E0,6E0,2.68E0,3.575278E-1,7.2E1,1E2,2.5E1,7.6E1,1E2,-4.0294704E-1,3.8E-1,-4.2230135E-1,3.469532E4,-1.2498617E-1,-1.7562082E-2,4.034136E-2,9.4198175E-2,-4.1114125E-1,-2.7241126E-1,-3.0277967E-1,-2.6730114E-1],"split_indices":[2,2,0,0,1,5,1,10,9,0,0,0,8,0,0,0,0,0,0,0,0],"split_type":[0,0,0,0,0,0,0,0,0,0,0,0,0,0,0,0,0,0,0,0,0],"sum_hessian":[7.1982295E3,5.7261504E3,1.4720791E3,9.265308E2,4.7996196E3,1.5558548E2,1.3164937E3,2.2556702E3,2.5439492E3,5.281502E1,1.0277046E2,2.4145641E1,1.2923479E3,2.0403325E2,2.051637E3,1.3268389E3,1.2171105E3,2.9190554E1,7.357991E1,9.1651117E2,3.7583676E2],"tree_param":{"num_deleted":"0","num_feature":"12","num_nodes":"21","size_leaf_vector":"1"}},{"base_weights":[-2.7068468E-2,1.818283E0,-7.1963186E0,3.4327376E-1,4.68345E-1,-3.3786982E-1,-7.0373406E0,-4.8060787E-1,1.792125E0,-3.9292803E-1,-6.959081E0,-5.438059E-2,6.5760687E-3,4.456926E-2,1.0345411E-1,-9.394393E-2,-2.789954E-1],"categories":[],"categories_nodes":[],"categories_segments":[],"categories_sizes":[],"default_left":[0,0,0,0,0,0,0,0,0,0,0,0,0,0,0,0,0],"id":32,"left_children":[1,3,5,-1,7,-1,9,11,13,-1,15,-1,-1,-1,-1,-1,-1],"loss_changes":[9.4937695E4,5.2099926E4,1.7314062E2,0E0,5.9808203E3,0E0,1.5003125E2,1.5729758E3,1.0644497E3,0E0,6.0953125E1,0E0,0E0,0E0,0E0,0E0,0E0],"parents":[2147483647,0,0,1,1,2,2,4,4,6,6,7,7,8,8,10,10],"right_children":[2,4,6,-1,8,-1,10,12,14,-1,16,-1,-1,-1,-1,-1,-1],"split_conditions":[8E0,6E0,2.68E0,3.4327376E-1,8.6E1,-3.3786982E-1,2.8E1,4E1,1E2,-3.9292803E-1,5E1,-5.438059E-2,6.5760687E-3,4.456926E-2,1.0345411E-1,-9.394393E-2,-2.789954E-1],"split_indices":[2,2,0,0,1,0,1,1,9,0,7,0,0,0,0,0,0],"split_type":[0,0,0,0,0,0,0,0,0,0,0,0,0,0,0,0,0],"sum_hessian":[7.172079E3,5.705092E3,1.466987E3,9.474403E2,4.7576514E3,1.537124E2,1.3132747E3,2.771892E3,1.9857593E3,2.9079147E1,1.2841956E3,1.1722874E3,1.5996049E3,1.0739347E3,9.118246E2,5.4090385E0,1.2787865E3],"tree_param":{"num_deleted":"0","num_feature":"12","num_nodes":"17","size_leaf_vector":"1"}},{"base_weights":[-1.0347466E-2,1.7362661E0,-6.908282E0,3.29573E-1,4.486109E-1,-6.756919E0,-8.480991E0,-4.1032544E-1,1.6622162E0,-6.997348E0,-5.2286525E0,-3.4978083E-1,-4.496105E0,-4.9014673E-2,7.649856E-3,8.198208E-2,6.1600916E-3,-2.9011092E-1,-2.5653556E-1,-2.1418945E-1,-1.1186425E-1,-5.7181E-2,-2.080904E-1],"categories":[],"categories_nodes":[],"categories_segments":[],"categories_sizes":[],"default_left":[0,0,0,0,0,0,0,0,0,0,0,0,0,0,0,0,0,0,0,0,0,0,0],"id":33,"left_children":[1,3,5,-1,7,9,11,13,15,17,19,-1,21,-1,-1,-1,-1,-1,-1,-1,-1,-1,-1],"loss_changes":[8.691553E4,4.819585E4,2.3236719E2,0E0,5.012417E3,4.189922E2,4.751953E1,1.3814229E3,1.1634556E3,7.872266E1,2.8310059E1,0E0,1.0177216E1,0E0,0E0,0E0,0E0,0E0,0E0,0E0,0E0,0E0,0E0],"parents":[2147483647,0,0,1,1,2,2,4,4,5,5,6,6,7,7,8,8,9,9,10,10,12,12],"right_children":[2,4,6,-1,8,10,12,14,16,18,20,-1,22,-1,-1,-1,-1,-1,-1,-1,-1,-1,-1],"split_conditions":[8E0,6E0,3.471211E4,3.29573E-1,8.6E1,3.470321E4,1.89E2,4E1,2.792E1,2.305E1,3.471126E4,-3.4978083E-1,1.98E2,-4.9014673E-2,7.649856E-3,8.198208E-2,6.1600916E-3,-2.9011092E-1,-2.5653556E-1,-2.1418945E-1,-1.1186425E-1,-5.7181E-2,-2.080904E-1],"split_indices":[2,2,8,0,1,8,1,1,0,0,8,0,1,0,0,0,0,0,0,0,0,0,0],"split_type":[0,0,0,0,0,0,0,0,0,0,0,0,0,0,0,0,0,0,0,0,0,0,0],"sum_hessian":[7.2100977E3,5.7545063E3,1.4555916E3,9.493246E2,4.8051816E3,1.3374624E3,1.1812914E2,2.8145154E3,1.9906661E3,1.1494694E3,1.8799309E2,1.0856092E2,9.568224E0,1.1943173E3,1.6201982E3,1.583323E3,4.073432E2,7.8379486E2,3.6567453E2,1.7644235E2,1.1550726E1,2.9230807E0,6.6451435E0],"tree_param":{"num_deleted":"0","num_feature":"12","num_nodes":"23","size_leaf_vector":"1"}},{"base_weights":[-9.591429E-3,1.6856163E0,-6.6616883E0,3.164132E-1,4.6049586E-1,-6.526636E0,-8.198011E0,-1.068273E0,1.1333416E0,-6.750066E0,-5.129107E0,-3.5900676E-1,-6.6720877E0,3.6744542E-2,-5.034899E-2,6.0681116E-2,-1.553792E-2,-2.826519E-1,-2.441636E-1,-2.1059121E-1,-1.0839224E-1,-6.758114E-2,-2.7763617E-1],"categories":[],"categories_nodes":[],"categories_segments":[],"categories_sizes":[],"default_left":[0,0,0,0,0,0,0,0,0,0,0,0,0,0,0,0,0,0,0,0,0,0,0],"id":34,"left_children":[1,3,5,-1,7,9,11,13,15,17,19,-1,21,-1,-1,-1,-1,-1,-1,-1,-1,-1,-1],"loss_changes":[8.1317445E4,4.3816855E4,1.9683984E2,0E0,4.9436777E3,3.5414844E2,1.130127E1,5.582389E2,1.9493984E3,1.5125E2,3.554785E1,0E0,3.6938843E1,0E0,0E0,0E0,0E0,0E0,0E0,0E0,0E0,0E0,0E0],"parents":[2147483647,0,0,1,1,2,2,4,4,5,5,6,6,7,7,8,8,9,9,10,10,12,12],"right_children":[2,4,6,-1,8,10,12,14,16,18,20,-1,22,-1,-1,-1,-1,-1,-1,-1,-1,-1,-1],"split_conditions":[8E0,6E0,3.471211E4,3.164132E-1,4.8E1,3.470321E4,4.18E0,3.466016E4,2.792E1,2.222E1,3.471126E4,-3.5900676E-1,9.75E0,3.6744542E-2,-5.034899E-2,6.0681116E-2,-1.553792E-2,-2.826519E-1,-2.441636E-1,-2.1059121E-1,-1.0839224E-1,-6.758114E-2,-2.7763617E-1],"split_indices":[2,2,8,0,1,8,0,8,0,0,8,0,11,0,0,0,0,0,0,0,0,0,0],"split_type":[0,0,0,0,0,0,0,0,0,0,0,0,0,0,0,0,0,0,0,0,0,0,0],"sum_hessian":[7.207121E3,5.7446567E3,1.4624642E3,9.4291034E2,4.8017466E3,1.3539413E3,1.08522934E2,1.467125E3,3.3346216E3,1.1607128E3,1.932285E2,6.543375E1,4.3089184E1,1.2766066E2,1.3394644E3,2.6631675E3,6.7145404E2,7.658962E2,3.948166E2,1.8074031E2,1.2488187E1,2.9515703E0,4.013761E1],"tree_param":{"num_deleted":"0","num_feature":"12","num_nodes":"23","size_leaf_vector":"1"}},{"base_weights":[-1.0131893E-2,1.6276324E0,-6.365238E0,3.0378523E-1,4.4244286E-1,-6.219106E0,-7.9502106E0,-2.5063503E0,6.526819E-1,-6.4198375E0,-4.696286E0,-3.4971905E-1,-6.659426E0,9.9649295E-2,-1.4134681E-1,1.6159241E-3,4.7388013E-2,-2.7236092E-1,-2.3884264E-1,-1.9375487E-1,-1.05395116E-1,-6.167758E-2,-2.720656E-1],"categories":[],"categories_nodes":[],"categories_segments":[],"categories_sizes":[],"default_left":[0,0,0,0,0,0,0,0,0,0,0,0,0,0,0,0,0,0,0,0,0,0,0],"id":35,"left_children":[1,3,5,-1,7,9,11,13,15,17,19,-1,21,-1,-1,-1,-1,-1,-1,-1,-1,-1,-1],"loss_changes":[7.486087E4,4.043644E4,2.4246094E2,0E0,2.9624377E3,3.5497656E2,3.5073242E0,1.6506632E3,1.4518021E3,1.2737891E2,2.4876709E1,0E0,1.7592773E1,0E0,0E0,0E0,0E0,0E0,0E0,0E0,0E0,0E0,0E0],"parents":[2147483647,0,0,1,1,2,2,4,4,5,5,6,6,7,7,8,8,9,9,10,10,12,12],"right_children":[2,4,6,-1,8,10,12,14,16,18,20,-1,22,-1,-1,-1,-1,-1,-1,-1,-1,-1,-1],"split_conditions":[8E0,6E0,3.471211E4,3.0378523E-1,7.6E1,3.470614E4,3.73E0,3.465613E4,1E2,1.1681E1,3.471126E4,-3.4971905E-1,8.938E0,9.9649295E-2,-1.4134681E-1,1.6159241E-3,4.7388013E-2,-2.7236092E-1,-2.3884264E-1,-1.9375487E-1,-1.05395116E-1,-6.167758E-2,-2.720656E-1],"split_indices":[2,2,8,0,10,8,0,8,9,11,8,0,11,0,0,0,0,0,0,0,0,0,0],"split_type":[0,0,0,0,0,0,0,0,0,0,0,0,0,0,0,0,0,0,0,0,0,0,0],"sum_hessian":[7.1885215E3,5.7167534E3,1.4717677E3,9.455314E2,4.771222E3,1.3565437E3,1.1522392E2,3.1607938E2,4.455143E3,1.1928729E3,1.6367084E2,6.4229256E1,5.099467E1,5.3409473E1,2.6266992E2,2.0723223E3,2.3828206E3,6.23668E2,5.692049E2,1.5021655E2,1.3454279E1,2.019212E0,4.8975456E1],"tree_param":{"num_deleted":"0","num_feature":"12","num_nodes":"23","size_leaf_vector":"1"}},{"base_weights":[-2.6811235E-2,1.5325142E0,-6.169354E0,2.9165518E-1,4.0201387E-1,-3.7665686E-1,-6.095952E0,-4.5245236E-1,1.5801399E0,-6.414131E0,-5.5608788E0,-1.1499934E-1,-9.147427E-3,7.516992E-2,9.7765075E-3,-2.7759945E-1,-2.4327336E-1,-2.0414893E-1,-2.4104293E-1],"categories":[],"categories_nodes":[],"categories_segments":[],"categories_sizes":[],"default_left":[0,0,0,0,0,0,0,0,0,0,0,0,0,0,0,0,0,0,0],"id":36,"left_children":[1,3,5,-1,7,-1,9,11,13,15,17,-1,-1,-1,-1,-1,-1,-1,-1],"loss_changes":[6.8887734E4,3.7337957E4,2.322539E2,0E0,4.830319E3,0E0,1.7205078E2,1.5067139E3,8.0491846E2,6.996094E1,5.5058594E1,0E0,0E0,0E0,0E0,0E0,0E0,0E0,0E0],"parents":[2147483647,0,0,1,1,2,2,4,4,6,6,7,7,8,8,9,9,10,10],"right_children":[2,4,6,-1,8,-1,10,12,14,16,18,-1,-1,-1,-1,-1,-1,-1,-1],"split_conditions":[8E0,6E0,2.5E1,2.9165518E-1,8.6E1,-3.7665686E-1,1.2125E1,7.6E1,1.4083E1,3.467412E4,1.22E2,-1.1499934E-1,-9.147427E-3,7.516992E-2,9.7765075E-3,-2.7759945E-1,-2.4327336E-1,-2.0414893E-1,-2.4104293E-1],"split_indices":[2,2,1,0,1,0,11,10,11,8,1,0,0,0,0,0,0,0,0],"split_type":[0,0,0,0,0,0,0,0,0,0,0,0,0,0,0,0,0,0,0],"sum_hessian":[7.188147E3,5.734027E3,1.4541199E3,9.391282E2,4.794899E3,2.6517218E1,1.4276027E3,2.7799211E3,2.0149775E3,8.81467E2,5.4613574E2,2.3306194E2,2.5468594E3,1.6456539E3,3.6932358E2,3.25925E2,5.55542E2,2.8752353E2,2.586122E2],"tree_param":{"num_deleted":"0","num_feature":"12","num_nodes":"19","size_leaf_vector":"1"}},{"base_weights":[-3.7435662E-2,1.4739053E0,-5.9223824E0,2.8001305E-1,3.8407913E-1,-3.3145255E-1,-5.8445826E0,-3.1778404E-1,1.7421969E0,-6.1827183E0,-5.435336E0,-1.1348204E-1,-3.4027356E-3,1.8203677E-1,6.2923245E-2,-2.6837903E-1,-2.3379795E-1,-2.131187E-1,-2.7373326E-1],"categories":[],"categories_nodes":[],"categories_segments":[],"categories_sizes":[],"default_left":[0,0,0,0,0,0,0,0,0,0,0,0,0,0,0,0,0,0,0],"id":37,"left_children":[1,3,5,-1,7,-1,9,11,13,15,17,-1,-1,-1,-1,-1,-1,-1,-1],"loss_changes":[6.3803098E4,3.437176E4,1.7272656E2,0E0,4.547672E3,0E0,1.3010547E2,1.8441122E3,7.577554E2,5.790039E1,2.7103516E1,0E0,0E0,0E0,0E0,0E0,0E0,0E0,0E0],"parents":[2147483647,0,0,1,1,2,2,4,4,6,6,7,7,8,8,9,9,10,10],"right_children":[2,4,6,-1,8,-1,10,12,14,16,18,-1,-1,-1,-1,-1,-1,-1,-1],"split_conditions":[8E0,6E0,3.1E1,2.8001305E-1,9.8E1,-3.3145255E-1,1.1681E1,7.6E1,3.465633E4,3.467412E4,3.471211E4,-1.1348204E-1,-3.4027356E-3,1.8203677E-1,6.2923245E-2,-2.6837903E-1,-2.3379795E-1,-2.131187E-1,-2.7373326E-1],"split_indices":[2,2,1,0,1,0,11,10,8,8,8,0,0,0,0,0,0,0,0],"split_type":[0,0,0,0,0,0,0,0,0,0,0,0,0,0,0,0,0,0,0],"sum_hessian":[7.169631E3,5.705797E3,1.4638337E3,9.380705E2,4.7677266E3,3.9917778E1,1.4239159E3,3.144308E3,1.6234183E3,7.6424835E2,6.596676E2,2.6399915E2,2.880309E3,8.9253395E1,1.5341649E3,2.8385052E2,4.8039783E2,6.2181824E2,3.784938E1],"tree_param":{"num_deleted":"0","num_feature":"12","num_nodes":"19","size_leaf_vector":"1"}},{"base_weights":[-1.324785E-2,1.4399387E0,-5.7168474E0,2.6883978E-1,4.0434143E-1,-5.5842185E0,-7.207985E0,-9.4285214E-1,1.0397798E0,-5.778314E0,-4.1987367E0,-7.929768E0,-5.9826555E0,-1.02905996E-1,-2.777356E-2,-8.590124E-2,4.8687104E-2,-2.435329E-1,-2.0595314E-1,-1.7234394E-1,-8.442969E-2,-1.7973983E-1,-3.3406356E-1,-2.7418965E-1,-9.8389745E-2],"categories":[],"categories_nodes":[],"categories_segments":[],"categories_sizes":[],"default_left":[0,0,0,0,0,0,0,0,0,0,0,0,0,0,0,0,0,0,0,0,0,0,0,0,0],"id":38,"left_children":[1,3,5,-1,7,9,11,13,15,17,19,21,23,-1,-1,-1,-1,-1,-1,-1,-1,-1,-1,-1,-1],"loss_changes":[6.0004965E4,3.154901E4,2.1021875E2,0E0,4.1331743E3,3.1688672E2,5.226074E0,6.233054E2,1.8598735E3,1.6885156E2,2.1791016E1,1.9288086E1,1.2021362E2,0E0,0E0,0E0,0E0,0E0,0E0,0E0,0E0,0E0,0E0,0E0,0E0],"parents":[2147483647,0,0,1,1,2,2,4,4,5,5,6,6,7,7,8,8,9,9,10,10,11,11,12,12],"right_children":[2,4,6,-1,8,10,12,14,16,18,20,22,24,-1,-1,-1,-1,-1,-1,-1,-1,-1,-1,-1,-1],"split_conditions":[6.4E2,4.8E2,3.471211E4,2.6883978E-1,5E1,3.470421E4,3.73E0,1.2E1,7.6E1,2.222E1,3.471126E4,6.5E1,1.33E2,-1.02905996E-1,-2.777356E-2,-8.590124E-2,4.8687104E-2,-2.435329E-1,-2.0595314E-1,-1.7234394E-1,-8.442969E-2,-1.7973983E-1,-3.3406356E-1,-2.7418965E-1,-9.8389745E-2],"split_indices":[3,3,8,0,1,8,0,1,10,0,8,1,1,0,0,0,0,0,0,0,0,0,0,0,0],"split_type":[0,0,0,0,0,0,0,0,0,0,0,0,0,0,0,0,0,0,0,0,0,0,0,0,0],"sum_hessian":[7.2356514E3,5.7676426E3,1.4680087E3,9.437884E2,4.8238545E3,1.356817E3,1.1119159E2,1.5457468E3,3.2781074E3,1.184532E3,1.7228502E2,6.308698E1,4.8104614E1,2.02038E2,1.3437089E3,1.7166093E2,3.1064465E3,7.820465E2,4.0248553E2,1.6165248E2,1.0632542E1,9.445621E0,5.3641357E1,3.704317E1,1.1061443E1],"tree_param":{"num_deleted":"0","num_feature":"12","num_nodes":"25","size_leaf_vector":"1"}},{"base_weights":[-3.2485798E-2,1.3679686E0,-5.482071E0,2.581127E-1,3.5821712E-1,-5.3599377E0,-6.84298E0,-8.760695E-1,9.489823E-1,-5.565499E0,-4.0098157E0,-2.8667632E-1,-4.6657705E0,-3.0154668E-2,-1.3901256E-1,-7.90251E-2,4.4425085E-2,-2.4060969E-1,-2.0785312E-1,-1.6439018E-1,-7.847123E-2,-2.4925254E-1,-7.3498346E-2],"categories":[],"categories_nodes":[],"categories_segments":[],"categories_sizes":[],"default_left":[0,0,0,0,0,0,0,0,0,0,0,0,0,0,0,0,0,0,0,0,0,0,0],"id":39,"left_children":[1,3,5,-1,7,9,11,13,15,17,19,-1,21,-1,-1,-1,-1,-1,-1,-1,-1,-1,-1],"loss_changes":[5.5138438E4,2.9506637E4,1.7214844E2,0E0,3.4999111E3,3.3409766E2,1.3811035E1,4.8836365E2,1.538719E3,1.3326562E2,2.2246826E1,0E0,6.808673E1,0E0,0E0,0E0,0E0,0E0,0E0,0E0,0E0,0E0,0E0],"parents":[2147483647,0,0,1,1,2,2,4,4,5,5,6,6,7,7,8,8,9,9,10,10,12,12],"right_children":[2,4,6,-1,8,10,12,14,16,18,20,-1,22,-1,-1,-1,-1,-1,-1,-1,-1,-1,-1],"split_conditions":[8E0,6E0,3.471211E4,2.581127E-1,5E1,3.470421E4,1.6E2,2.2562E1,7.6E1,1.1312E1,3.471126E4,-2.8667632E-1,3.73E0,-3.0154668E-2,-1.3901256E-1,-7.90251E-2,4.4425085E-2,-2.4060969E-1,-2.0785312E-1,-1.6439018E-1,-7.847123E-2,-2.4925254E-1,-7.3498346E-2],"split_indices":[2,2,8,0,1,8,1,11,10,11,8,0,0,0,0,0,0,0,0,0,0,0,0],"split_type":[0,0,0,0,0,0,0,0,0,0,0,0,0,0,0,0,0,0,0,0,0,0,0],"sum_hessian":[7.2207715E3,5.7457144E3,1.4750569E3,9.50162E2,4.7955527E3,1.362645E3,1.1241182E2,1.551997E3,3.2435557E3,1.177172E3,1.8547311E2,9.386317E1,1.8548656E1,1.484771E3,6.7226036E1,1.687081E2,3.0748474E3,5.168855E2,6.6028644E2,1.749239E2,1.0549199E1,1.0390735E1,8.157923E0],"tree_param":{"num_deleted":"0","num_feature":"12","num_nodes":"23","size_leaf_vector":"1"}},{"base_weights":[-2.0443292E-2,1.3170288E0,-5.2244005E0,2.4781473E-1,3.3793047E-1,-3.0789965E-1,-5.1393514E0,-9.445164E-1,9.51251E-1,-5.02809E0,-6.365623E0,1.4468347E-1,-4.0942393E-2,1.0031343E-2,6.461483E-2,-2.0882957E-1,-1.418775E-1,-2.8834507E-1,-2.0536865E-1],"categories":[],"categories_nodes":[],"categories_segments":[],"categories_sizes":[],"default_left":[0,0,0,0,0,0,0,0,0,0,0,0,0,0,0,0,0,0,0],"id":40,"left_children":[1,3,5,-1,7,-1,9,11,13,15,17,-1,-1,-1,-1,-1,-1,-1,-1],"loss_changes":[5.030036E4,2.7456664E4,2.3167578E2,0E0,3.7696904E3,0E0,1.3170703E2,5.6656726E2,1.5071643E3,3.4096094E2,4.2046875E1,0E0,0E0,0E0,0E0,0E0,0E0,0E0,0E0],"parents":[2147483647,0,0,1,1,2,2,4,4,6,6,7,7,8,8,9,9,10,10],"right_children":[2,4,6,-1,8,-1,10,12,14,16,18,-1,-1,-1,-1,-1,-1,-1,-1],"split_conditions":[8E0,6E0,3.1E1,2.4781473E-1,5E1,-3.0789965E-1,3.471211E4,2.8E-1,1E2,3.470425E4,3.73E0,1.4468347E-1,-4.0942393E-2,1.0031343E-2,6.461483E-2,-2.0882957E-1,-1.418775E-1,-2.8834507E-1,-2.0536865E-1],"split_indices":[2,2,1,0,1,0,8,0,9,8,0,0,0,0,0,0,0,0,0],"split_type":[0,0,0,0,0,0,0,0,0,0,0,0,0,0,0,0,0,0,0],"sum_hessian":[7.2229336E3,5.747308E3,1.4756252E3,9.589085E2,4.7884E3,4.3107754E1,1.4325175E3,1.5487983E3,3.2396013E3,1.322707E3,1.09810486E2,2.4855612E1,1.5239427E3,1.5779961E3,1.6616052E3,1.1659991E3,1.5670792E2,5.9422604E1,5.0387886E1],"tree_param":{"num_deleted":"0","num_feature":"12","num_nodes":"19","size_leaf_vector":"1"}},{"base_weights":[2.3125287E-2,1.2887017E0,-5.004798E0,2.379245E-1,3.5378104E-1,-3.117776E-1,-4.939662E0,-4.8226708E-1,1.2489774E0,-3.069424E-1,-4.8727446E0,-2.7419867E-2,6.1141875E-2,4.0420175E-2,1.1129471E-1,-1.9071926E-1,-2.4324481E-1],"categories":[],"categories_nodes":[],"categories_segments":[],"categories_sizes":[],"default_left":[0,0,0,0,0,0,0,0,0,0,0,0,0,0,0,0,0],"id":41,"left_children":[1,3,5,-1,7,-1,9,11,13,-1,15,-1,-1,-1,-1,-1,-1],"loss_changes":[4.597435E4,2.5140035E4,1.869961E2,0E0,3.6008306E3,0E0,1.8595312E2,1.01899603E3,8.439026E2,0E0,1.1881641E2,0E0,0E0,0E0,0E0,0E0,0E0],"parents":[2147483647,0,0,1,1,2,2,4,4,6,6,7,7,8,8,10,10],"right_children":[2,4,6,-1,8,-1,10,12,14,-1,16,-1,-1,-1,-1,-1,-1],"split_conditions":[8E0,6E0,2.5E1,2.379245E-1,7.8E1,-3.117776E-1,3.8E-1,3.47143E4,1.71E2,-3.069424E-1,3.471211E4,-2.7419867E-2,6.1141875E-2,4.0420175E-2,1.1129471E-1,-1.9071926E-1,-2.4324481E-1],"split_indices":[2,2,1,0,1,0,0,8,1,0,8,0,0,0,0,0,0],"split_type":[0,0,0,0,0,0,0,0,0,0,0,0,0,0,0,0,0],"sum_hessian":[7.2209854E3,5.7700864E3,1.4508986E3,9.625005E2,4.807586E3,2.7689539E1,1.4232091E3,2.486396E3,2.32119E3,2.8571579E1,1.3946375E3,2.259364E3,2.2703194E2,2.0116552E3,3.0953488E2,1.2924747E3,1.0216283E2],"tree_param":{"num_deleted":"0","num_feature":"12","num_nodes":"17","size_leaf_vector":"1"}},{"base_weights":[-1.8361228E-2,1.1999903E0,-4.829645E0,2.2843E-1,2.9458296E-1,-2.7923965E-1,-4.7512155E0,-3.929049E-1,1.2540812E0,-5.032556E0,-4.195657E0,-1.3320613E-2,-3.0844983E-1,6.48978E-2,-5.9603136E-3,-2.2357193E-1,-1.8550307E-1,-1.1204355E-1,-1.7535599E-1],"categories":[],"categories_nodes":[],"categories_segments":[],"categories_sizes":[],"default_left":[0,0,0,0,0,0,0,0,0,0,0,0,0,0,0,0,0,0,0],"id":42,"left_children":[1,3,5,-1,7,-1,9,11,13,15,17,-1,-1,-1,-1,-1,-1,-1,-1],"loss_changes":[4.263125E4,2.3697273E4,1.8161328E2,0E0,3.1904856E3,0E0,1.8035742E2,1.2301467E3,1.0438887E3,1.5383984E2,1.0427539E2,0E0,0E0,0E0,0E0,0E0,0E0,0E0,0E0],"parents":[2147483647,0,0,1,1,2,2,4,4,6,6,7,7,8,8,9,9,10,10],"right_children":[2,4,6,-1,8,-1,10,12,14,16,18,-1,-1,-1,-1,-1,-1,-1,-1],"split_conditions":[6.4E2,4.8E2,3.2E1,2.2843E-1,8.6E1,-2.7923965E-1,2.125E1,8.5E1,2.792E1,3.467412E4,3.466313E4,-1.3320613E-2,-3.0844983E-1,6.48978E-2,-5.9603136E-3,-2.2357193E-1,-1.8550307E-1,-1.1204355E-1,-1.7535599E-1],"split_indices":[3,3,1,0,1,0,0,1,0,8,8,0,0,0,0,0,0,0,0],"split_type":[0,0,0,0,0,0,0,0,0,0,0,0,0,0,0,0,0,0,0],"sum_hessian":[7.2687036E3,5.801183E3,1.4675205E3,9.67995E2,4.833188E3,4.5426884E1,1.4220936E3,2.8163982E3,2.0167898E3,9.3332935E2,4.8876425E2,2.7956113E3,2.0786856E1,1.597162E3,4.1962784E2,3.764305E2,5.568988E2,6.1905727E1,4.2685852E2],"tree_param":{"num_deleted":"0","num_feature":"12","num_nodes":"19","size_leaf_vector":"1"}},{"base_weights":[-1.6660063E-2,1.1581689E0,-4.655336E0,2.1929353E-1,3.209512E-1,-7.0332685E0,-4.570255E0,-8.8199675E-1,8.8485426E-1,-1.0877089E-1,-2.94941E-1,-4.910689E0,-4.1577234E0,-9.799373E-2,-2.5685858E-2,-7.3329836E-2,4.151038E-2,-1.8813278E-1,-2.4404317E-1,-9.77065E-2,-1.7227046E-1],"categories":[],"categories_nodes":[],"categories_segments":[],"categories_sizes":[],"default_left":[0,0,0,0,0,0,0,0,0,0,0,0,0,0,0,0,0,0,0,0,0],"id":43,"left_children":[1,3,5,-1,7,9,11,13,15,-1,-1,17,19,-1,-1,-1,-1,-1,-1,-1,-1],"loss_changes":[3.9282695E4,2.0818912E4,2.3042969E2,0E0,3.271723E3,2.831372E1,1.5747461E2,5.7581433E2,1.3683411E3,0E0,0E0,1.3085938E2,1.4548535E2,0E0,0E0,0E0,0E0,0E0,0E0,0E0,0E0],"parents":[2147483647,0,0,1,1,2,2,4,4,5,5,6,6,7,7,8,8,11,11,12,12],"right_children":[2,4,6,-1,8,10,12,14,16,-1,-1,18,20,-1,-1,-1,-1,-1,-1,-1,-1],"split_conditions":[8E0,6E0,3.6E1,2.1929353E-1,5E1,3.466112E4,1.343E1,1.2E1,7.6E1,-1.0877089E-1,-2.94941E-1,1.02E1,1.575E1,-9.799373E-2,-2.5685858E-2,-7.3329836E-2,4.151038E-2,-1.8813278E-1,-2.4404317E-1,-9.77065E-2,-1.7227046E-1],"split_indices":[2,2,1,0,1,8,0,1,10,0,0,0,0,0,0,0,0,0,0,0,0],"split_type":[0,0,0,0,0,0,0,0,0,0,0,0,0,0,0,0,0,0,0,0,0],"sum_hessian":[7.204317E3,5.7496216E3,1.4546956E3,9.3083405E2,4.8187876E3,4.460834E1,1.4100872E3,1.5375902E3,3.2811973E3,4.5758977E0,4.0032444E1,7.6060394E2,6.494832E2,2.0156671E2,1.3360236E3,1.7358093E2,3.1076162E3,6.56195E2,1.04408966E2,5.4708084E1,5.9477515E2],"tree_param":{"num_deleted":"0","num_feature":"12","num_nodes":"21","size_leaf_vector":"1"}},{"base_weights":[2.1413408E-2,1.1721588E0,-4.443868E0,2.1055982E-1,3.3605778E-1,-5.605286E0,-4.300282E0,-5.042531E-1,1.0832958E0,-4.6513095E0,-6.5515056E0,-2.7402794E-1,-4.24399E0,-1.715759E-2,-2.4535254E-1,8.756495E-2,2.8744675E-2,-2.7231774E-1,-1.3497671E-1,-2.0132923E-1,-2.959938E-1,-1.7680317E-2,-1.7036666E-1],"categories":[],"categories_nodes":[],"categories_segments":[],"categories_sizes":[],"default_left":[0,0,0,0,0,0,0,0,0,0,0,0,0,0,0,0,0,0,0,0,0,0,0],"id":44,"left_children":[1,3,5,-1,7,9,11,13,15,17,19,-1,21,-1,-1,-1,-1,-1,-1,-1,-1,-1,-1],"loss_changes":[3.7108883E4,1.9641113E4,1.9856445E2,0E0,2.9962095E3,8.0075195E1,1.3216211E2,9.472206E2,1.0152932E3,1.8727307E2,2.0226074E1,0E0,7.1375E1,0E0,0E0,0E0,0E0,0E0,0E0,0E0,0E0,0E0,0E0],"parents":[2147483647,0,0,1,1,2,2,4,4,5,5,6,6,7,7,8,8,9,9,10,10,12,12],"right_children":[2,4,6,-1,8,10,12,14,16,18,20,-1,22,-1,-1,-1,-1,-1,-1,-1,-1,-1,-1],"split_conditions":[6.4E2,4.8E2,2.68E0,2.1055982E-1,7.2E1,1.38E0,2.5E1,7.1E1,1.0583E1,3.8E-1,9.6E1,-2.7402794E-1,5E1,-1.715759E-2,-2.4535254E-1,8.756495E-2,2.8744675E-2,-2.7231774E-1,-1.3497671E-1,-2.0132923E-1,-2.959938E-1,-1.7680317E-2,-1.7036666E-1],"split_indices":[3,3,0,0,1,0,1,1,11,0,1,0,7,0,0,0,0,0,0,0,0,0,0],"split_type":[0,0,0,0,0,0,0,0,0,0,0,0,0,0,0,0,0,0,0,0,0,0,0],"sum_hessian":[7.2178438E3,5.7400527E3,1.477791E3,9.720918E2,4.767961E3,1.5422691E2,1.3235641E3,2.2445217E3,2.5234395E3,8.269017E1,7.153674E1,2.336948E1,1.3001946E3,2.2170144E3,2.7507263E1,6.2331995E2,1.9001194E3,2.7529799E1,5.5160374E1,3.0613611E1,4.092313E1,5.4090385E0,1.2947855E3],"tree_param":{"num_deleted":"0","num_feature":"12","num_nodes":"23","size_leaf_vector":"1"}},{"base_weights":[8.069149E-3,1.0684048E0,-4.1834245E0,2.0215404E-1,2.6305035E-1,-2.5550908E-1,-4.131205E0,-2.0516353E0,4.3026596E-1,-4.4738297E0,-3.8665655E0,1.02888964E-1,-1.208367E-1,-9.449474E-3,4.03895E-2,-2.1440923E-1,-1.6987123E-1,-9.56293E-2,-1.5916607E-1],"categories":[],"categories_nodes":[],"categories_segments":[],"categories_sizes":[],"default_left":[0,0,0,0,0,0,0,0,0,0,0,0,0,0,0,0,0,0,0],"id":45,"left_children":[1,3,5,-1,7,-1,9,11,13,15,17,-1,-1,-1,-1,-1,-1,-1,-1],"loss_changes":[3.220659E4,1.8560586E4,1.1563086E2,0E0,1.8647874E3,0E0,9.550586E1,1.470532E3,1.7348823E3,7.7756836E1,1.1794043E2,0E0,0E0,0E0,0E0,0E0,0E0,0E0,0E0],"parents":[2147483647,0,0,1,1,2,2,4,4,6,6,7,7,8,8,9,9,10,10],"right_children":[2,4,6,-1,8,-1,10,12,14,16,18,-1,-1,-1,-1,-1,-1,-1,-1],"split_conditions":[8E0,6E0,3.8E-1,2.0215404E-1,7.6E1,-2.5550908E-1,1.1264E1,3.465613E4,1E2,3.46643E4,3.465915E4,1.02888964E-1,-1.208367E-1,-9.449474E-3,4.03895E-2,-2.1440923E-1,-1.6987123E-1,-9.56293E-2,-1.5916607E-1],"split_indices":[2,2,0,0,10,0,11,8,9,8,8,0,0,0,0,0,0,0,0],"split_type":[0,0,0,0,0,0,0,0,0,0,0,0,0,0,0,0,0,0,0],"sum_hessian":[7.24256E3,5.781489E3,1.4610717E3,9.701198E2,4.8113687E3,2.8195972E1,1.4328756E3,3.226426E2,4.488726E3,6.105704E2,8.223053E2,5.534024E1,2.6730237E2,2.0881453E3,2.400581E3,1.1528402E2,4.9528635E2,6.1436573E1,7.608687E2],"tree_param":{"num_deleted":"0","num_feature":"12","num_nodes":"19","size_leaf_vector":"1"}},{"base_weights":[-1.6595876E-2,1.022712E0,-4.1291165E0,1.9407842E-1,2.6102442E-1,-2.582567E-1,-4.0751333E0,-8.229067E-1,7.720444E-1,-4.3467264E0,-3.732833E0,5.2380227E-2,-4.0925253E-2,2.4155464E-3,5.765834E-2,-1.5059471E-2,-1.7478372E-1,-1.3588427E-1,-1.6636379E-1],"categories":[],"categories_nodes":[],"categories_segments":[],"categories_sizes":[],"default_left":[0,0,0,0,0,0,0,0,0,0,0,0,0,0,0,0,0,0,0],"id":46,"left_children":[1,3,5,-1,7,-1,9,11,13,15,17,-1,-1,-1,-1,-1,-1,-1,-1],"loss_changes":[3.0911572E4,1.6836139E4,1.3067969E2,0E0,2.669726E3,0E0,1.0061328E2,6.621145E2,1.5600118E3,6.806152E1,6.438965E1,0E0,0E0,0E0,0E0,0E0,0E0,0E0,0E0],"parents":[2147483647,0,0,1,1,2,2,4,4,6,6,7,7,8,8,9,9,10,10],"right_children":[2,4,6,-1,8,-1,10,12,14,16,18,-1,-1,-1,-1,-1,-1,-1,-1],"split_conditions":[8E0,6E0,2.5E1,1.9407842E-1,5E1,-2.582567E-1,1.1792E1,3.466016E4,1E2,5E1,1.29E2,5.2380227E-2,-4.0925253E-2,2.4155464E-3,5.765834E-2,-1.5059471E-2,-1.7478372E-1,-1.3588427E-1,-1.6636379E-1],"split_indices":[2,2,1,0,1,0,11,8,9,7,1,0,0,0,0,0,0,0,0],"split_type":[0,0,0,0,0,0,0,0,0,0,0,0,0,0,0,0,0,0,0],"sum_hessian":[7.2281973E3,5.7712114E3,1.4569862E3,9.557265E2,4.815485E3,2.765212E1,1.429334E3,1.5424832E3,3.2730015E3,7.8393585E2,6.453982E2,1.3144977E2,1.4110334E3,1.5875034E3,1.6854982E3,4.6892886E0,7.792466E2,3.710759E2,2.7432227E2],"tree_param":{"num_deleted":"0","num_feature":"12","num_nodes":"19","size_leaf_vector":"1"}},{"base_weights":[-8.592777E-3,9.9435574E-1,-3.9064837E0,1.8632346E-1,2.750037E-1,-2.531444E-1,-3.8471406E0,-2.6493242E-1,1.3167826E0,-2.51718E-1,-3.796134E0,3.6704153E-2,-2.6392404E-2,7.169281E-2,1.6017092E-2,-1.602446E-1,-1.3474081E-1],"categories":[],"categories_nodes":[],"categories_segments":[],"categories_sizes":[],"default_left":[0,0,0,0,0,0,0,0,0,0,0,0,0,0,0,0,0],"id":47,"left_children":[1,3,5,-1,7,-1,9,11,13,-1,15,-1,-1,-1,-1,-1,-1],"loss_changes":[2.8102895E4,1.506587E4,1.6276172E2,0E0,2.6901133E3,0E0,1.319961E2,1.4724862E3,7.0992896E2,0E0,1.0021289E2,0E0,0E0,0E0,0E0,0E0,0E0],"parents":[2147483647,0,0,1,1,2,2,4,4,6,6,7,7,8,8,10,10],"right_children":[2,4,6,-1,8,-1,10,12,14,-1,16,-1,-1,-1,-1,-1,-1],"split_conditions":[8E0,6E0,3.8E-1,1.8632346E-1,9.8E1,-2.531444E-1,2.3E1,1.0319E1,3.470011E4,-2.51718E-1,2.222E1,3.6704153E-2,-2.6392404E-2,7.169281E-2,1.6017092E-2,-1.602446E-1,-1.3474081E-1],"split_indices":[2,2,0,0,1,0,1,11,8,0,0,0,0,0,0,0,0],"split_type":[0,0,0,0,0,0,0,0,0,0,0,0,0,0,0,0,0],"sum_hessian":[7.184587E3,5.7154585E3,1.4691287E3,9.3622437E2,4.779234E3,3.0080673E1,1.439048E3,3.1487712E3,1.6304628E3,2.4397797E1,1.4146501E3,7.875764E2,2.3611946E3,1.0721594E3,5.5830334E2,9.375342E2,4.77116E2],"tree_param":{"num_deleted":"0","num_feature":"12","num_nodes":"17","size_leaf_vector":"1"}},{"base_weights":[-3.4328826E-2,9.1924125E-1,-3.768557E0,1.7889133E-1,2.1170771E-1,-3.6646245E0,-4.924637E0,-1.4701127E-1,1.5236813E0,-3.8321369E0,-2.4797602E0,-5.262867E0,-2.9802413E0,-7.503832E-2,2.5597936E-3,8.651901E-2,2.5893139E-2,-1.6748114E-1,-1.4164305E-1,-2.0649736E-1,-9.434215E-2,-1.5019311E-1,-2.2798179E-1,-1.4751515E-1,2.1901764E-2],"categories":[],"categories_nodes":[],"categories_segments":[],"categories_sizes":[],"default_left":[0,0,0,0,0,0,0,0,0,0,0,0,0,0,0,0,0,0,0,0,0,0,0,0,0],"id":48,"left_children":[1,3,5,-1,7,9,11,13,15,17,19,21,23,-1,-1,-1,-1,-1,-1,-1,-1,-1,-1,-1,-1],"loss_changes":[2.5590734E4,1.4389834E4,1.395586E2,0E0,2.2483018E3,2.4876758E2,4.4107666E1,1.3692449E3,5.718457E2,9.206055E1,3.1827393E1,1.9857422E1,5.8002945E1,0E0,0E0,0E0,0E0,0E0,0E0,0E0,0E0,0E0,0E0,0E0,0E0],"parents":[2147483647,0,0,1,1,2,2,4,4,5,5,6,6,7,7,8,8,9,9,10,10,11,11,12,12],"right_children":[2,4,6,-1,8,10,12,14,16,18,20,22,24,-1,-1,-1,-1,-1,-1,-1,-1,-1,-1,-1,-1],"split_conditions":[8E0,6E0,3.471211E4,1.7889133E-1,1.22E2,3.470614E4,1.6E2,1.8E1,3.469635E4,3.467412E4,2E1,6.5E1,3.865519E4,-7.503832E-2,2.5597936E-3,8.651901E-2,2.5893139E-2,-1.6748114E-1,-1.4164305E-1,-2.0649736E-1,-9.434215E-2,-1.5019311E-1,-2.2798179E-1,-1.4751515E-1,2.1901764E-2],"split_indices":[2,2,8,0,1,8,1,1,8,8,1,1,8,0,0,0,0,0,0,0,0,0,0,0,0],"split_type":[0,0,0,0,0,0,0,0,0,0,0,0,0,0,0,0,0,0,0,0,0,0,0,0,0],"sum_hessian":[7.1827505E3,5.7228696E3,1.4598806E3,9.4860254E2,4.774267E3,1.3471136E3,1.1276702E2,3.7505657E3,1.02370135E3,1.1763379E3,1.7077563E2,9.315008E1,1.9616943E1,4.0622757E2,3.3443381E3,5.902103E2,4.3349106E2,5.179853E2,6.5835266E2,3.7864122E0,1.6698923E2,2.522711E1,6.7922966E1,1.6263826E1,3.3531165E0],"tree_param":{"num_deleted":"0","num_feature":"12","num_nodes":"25","size_leaf_vector":"1"}},{"base_weights":[-1.9040138E-2,9.077605E-1,-3.6397743E0,1.7175186E-1,2.3334354E-1,-2.2971803E-1,-3.5713902E0,-3.3043984E-1,1.0872006E0,-2.3596193E-1,-3.5144982E0,-9.593303E-2,-5.7427264E-3,3.0823343E-2,9.111858E-2,-1.2790132E-1,-1.5167587E-1],"categories":[],"categories_nodes":[],"categories_segments":[],"categories_sizes":[],"default_left":[0,0,0,0,0,0,0,0,0,0,0,0,0,0,0,0,0],"id":49,"left_children":[1,3,5,-1,7,-1,9,11,13,-1,15,-1,-1,-1,-1,-1,-1],"loss_changes":[2.4208072E4,1.311457E4,1.7043555E2,0E0,2.307501E3,0E0,1.4780078E2,1.115221E3,7.15146E2,0E0,9.8853516E1,0E0,0E0,0E0,0E0,0E0,0E0],"parents":[2147483647,0,0,1,1,2,2,4,4,6,6,7,7,8,8,10,10],"right_children":[2,4,6,-1,8,-1,10,12,14,-1,16,-1,-1,-1,-1,-1,-1],"split_conditions":[8E0,6E0,3.1E1,1.7175186E-1,9E1,-2.2971803E-1,3.8E-1,7.6E1,1.61E2,-2.3596193E-1,1.12E2,-9.593303E-2,-5.7427264E-3,3.0823343E-2,9.111858E-2,-1.2790132E-1,-1.5167587E-1],"split_indices":[2,2,1,0,1,0,0,10,1,0,1,0,0,0,0,0,0],"split_type":[0,0,0,0,0,0,0,0,0,0,0,0,0,0,0,0,0],"sum_hessian":[7.2100493E3,5.7418135E3,1.4682356E3,9.5189813E2,4.7899155E3,4.1009735E1,1.4272258E3,2.8857458E3,1.9041696E3,2.9151434E1,1.3980743E3,2.3720567E2,2.6485403E3,1.5068116E3,3.9735797E2,6.641951E2,7.338792E2],"tree_param":{"num_deleted":"0","num_feature":"12","num_nodes":"17","size_leaf_vector":"1"}},{"base_weights":[-2.5546998E-2,8.46885E-1,-3.4622223E0,1.6489358E-1,1.979993E-1,-2.14258E-1,-3.3982217E0,-3.3681425E-1,9.4765717E-1,-3.6957538E0,-3.0441132E0,2.9877042E-2,-2.9146232E-2,1.3880056E-1,3.1958368E-2,-1.4137115E-1,-1.999922E-1,-6.988479E-2,-1.2860692E-1],"categories":[],"categories_nodes":[],"categories_segments":[],"categories_sizes":[],"default_left":[0,0,0,0,0,0,0,0,0,0,0,0,0,0,0,0,0,0,0],"id":50,"left_children":[1,3,5,-1,7,-1,9,11,13,15,17,-1,-1,-1,-1,-1,-1,-1,-1],"loss_changes":[2.1530588E4,1.2170884E4,1.3985352E2,0E0,1.9179901E3,0E0,1.2624805E2,1.1869672E3,7.414889E2,1.2424512E2,1.3430176E2,0E0,0E0,0E0,0E0,0E0,0E0,0E0,0E0],"parents":[2147483647,0,0,1,1,2,2,4,4,6,6,7,7,8,8,9,9,10,10],"right_children":[2,4,6,-1,8,-1,10,12,14,16,18,-1,-1,-1,-1,-1,-1,-1,-1],"split_conditions":[8E0,6E0,3.1E1,1.6489358E-1,8.6E1,-2.14258E-1,1.343E1,1.05E1,3.465633E4,1.155E1,1.653E1,2.9877042E-2,-2.9146232E-2,1.3880056E-1,3.1958368E-2,-1.4137115E-1,-1.999922E-1,-6.988479E-2,-1.2860692E-1],"split_indices":[2,2,1,0,1,0,0,11,8,0,0,0,0,0,0,0,0,0,0],"split_type":[0,0,0,0,0,0,0,0,0,0,0,0,0,0,0,0,0,0,0],"sum_hessian":[7.1770586E3,5.725177E3,1.4518822E3,9.448819E2,4.7802944E3,4.204641E1,1.4098357E3,2.790573E3,1.9897218E3,7.558641E2,6.539717E2,7.405568E2,2.050016E3,1.0828113E2,1.8814407E3,6.79184E2,7.668002E1,7.881503E1,5.751566E2],"tree_param":{"num_deleted":"0","num_feature":"12","num_nodes":"19","size_leaf_vector":"1"}},{"base_weights":[-4.3406256E-2,8.3082324E-1,-3.370229E0,1.5830992E-1,2.06511E-1,-3.2653563E0,-4.552159E0,-7.704052E-1,6.3799983E-1,-3.5005717E0,-2.504006E0,-1.8938747E-1,-2.0716226E0,-2.6750896E-2,-1.9084746E-1,1.7403396E-2,1.1039914E-1,-1.3768509E-1,-2.987483E-1,-1.5078854E-2,-1.09682836E-1,2.8812677E-2,-1.4688456E-1],"categories":[],"categories_nodes":[],"categories_segments":[],"categories_sizes":[],"default_left":[0,0,0,0,0,0,0,0,0,0,0,0,0,0,0,0,0,0,0,0,0,0,0],"id":51,"left_children":[1,3,5,-1,7,9,11,13,15,17,19,-1,21,-1,-1,-1,-1,-1,-1,-1,-1,-1,-1],"loss_changes":[2.0784193E4,1.1046146E4,1.5460156E2,0E0,1.990372E3,2.2834668E2,3.2959473E1,5.819004E2,1.4076097E3,1.9068066E2,1.6558594E2,0E0,5.674436E1,0E0,0E0,0E0,0E0,0E0,0E0,0E0,0E0,0E0,0E0],"parents":[2147483647,0,0,1,1,2,2,4,4,5,5,6,6,7,7,8,8,9,9,10,10,12,12],"right_children":[2,4,6,-1,8,10,12,14,16,18,20,-1,22,-1,-1,-1,-1,-1,-1,-1,-1,-1,-1],"split_conditions":[8E0,6E0,3.471211E4,1.5830992E-1,4.8E1,3.469532E4,1.89E2,4.7E1,3.471426E4,3.469523E4,3.469635E4,-1.8938747E-1,2.08E2,-2.6750896E-2,-1.9084746E-1,1.7403396E-2,1.1039914E-1,-1.3768509E-1,-2.987483E-1,-1.5078854E-2,-1.09682836E-1,2.8812677E-2,-1.4688456E-1],"split_indices":[2,2,8,0,1,8,1,1,8,8,8,0,1,0,0,0,0,0,0,0,0,0,0],"split_type":[0,0,0,0,0,0,0,0,0,0,0,0,0,0,0,0,0,0,0,0,0,0,0],"sum_hessian":[7.142322E3,5.657209E3,1.4851128E3,9.3974274E2,4.7174663E3,1.3709904E3,1.1412247E2,1.4447947E3,3.2726714E3,1.0419037E3,3.290866E2,1.0460754E2,9.514931E0,1.411278E3,3.351671E1,2.9892349E3,2.834365E2,1.0304615E3,1.1442154E1,3.3645123E1,2.954415E2,3.8677702E0,5.64716E0],"tree_param":{"num_deleted":"0","num_feature":"12","num_nodes":"23","size_leaf_vector":"1"}},{"base_weights":[-1.0548439E-2,8.047368E-1,-3.2103508E0,1.5199801E-1,2.0033923E-1,-3.0957289E0,-4.5271487E0,-1.2677704E0,4.5872438E-1,-3.2524343E0,-1.9315447E0,-5.264462E0,-3.482063E0,-5.583798E-2,8.570833E-2,-9.819284E-3,4.333333E-2,-9.1276266E-2,-1.3364446E-1,-1.6394413E-1,-7.271552E-2,-1.11135356E-1,-2.243784E-1,-1.7016898E-1,-3.2066464E-2],"categories":[],"categories_nodes":[],"categories_segments":[],"categories_sizes":[],"default_left":[0,0,0,0,0,0,0,0,0,0,0,0,0,0,0,0,0,0,0,0,0,0,0,0,0],"id":52,"left_children":[1,3,5,-1,7,9,11,13,15,17,19,21,23,-1,-1,-1,-1,-1,-1,-1,-1,-1,-1,-1,-1],"loss_changes":[1.877053E4,1.0379115E4,1.9248926E2,0E0,1.8119357E3,2.3378613E2,5.015381E1,3.1851526E2,1.7865931E3,8.6930664E1,2.5769043E1,2.2138306E1,1.01866394E2,0E0,0E0,0E0,0E0,0E0,0E0,0E0,0E0,0E0,0E0,0E0,0E0],"parents":[2147483647,0,0,1,1,2,2,4,4,5,5,6,6,7,7,8,8,9,9,10,10,11,11,12,12],"right_children":[2,4,6,-1,8,10,12,14,16,18,20,22,24,-1,-1,-1,-1,-1,-1,-1,-1,-1,-1,-1,-1],"split_conditions":[6.4E2,4.8E2,3.471211E4,1.5199801E-1,2.6E1,3.470614E4,3.73E0,5.281626E4,1E2,3.465935E4,5E1,6.5E1,1.33E2,-5.583798E-2,8.570833E-2,-9.819284E-3,4.333333E-2,-9.1276266E-2,-1.3364446E-1,-1.6394413E-1,-7.271552E-2,-1.11135356E-1,-2.243784E-1,-1.7016898E-1,-3.2066464E-2],"split_indices":[3,3,8,0,1,8,0,8,9,8,1,1,1,0,0,0,0,0,0,0,0,0,0,0,0],"split_type":[0,0,0,0,0,0,0,0,0,0,0,0,0,0,0,0,0,0,0,0,0,0,0,0,0],"sum_hessian":[7.191235E3,5.7322085E3,1.4590261E3,9.6069867E2,4.77151E3,1.3483589E3,1.1066716E2,7.129292E2,4.0585808E3,1.1852328E3,1.6312613E2,6.0153694E1,5.0513466E1,6.882437E2,2.4685526E1,1.9083041E3,2.1502766E3,1.0370452E2,1.0815282E3,4.6347194E0,1.5849141E2,9.5369E0,5.0616795E1,3.8304504E1,1.22089615E1],"tree_param":{"num_deleted":"0","num_feature":"12","num_nodes":"25","size_leaf_vector":"1"}},{"base_weights":[2.9965742E-3,7.9264224E-1,-3.0770745E0,1.4592841E-1,2.2471963E-1,-5.1791124E0,-3.0180871E0,-2.3972738E-1,1.1019958E0,-3.002104E-1,-3.399025E0,-1.0677634E0,-3.1172225E0,3.3923533E-2,-2.4282586E-2,5.68903E-2,-7.5619547E-3,-1.5589808E-1,-5.065094E-2,-5.6402974E-2,6.9464976E-3,-1.2039591E-1,-1.6982614E-1],"categories":[],"categories_nodes":[],"categories_segments":[],"categories_sizes":[],"default_left":[0,0,0,0,0,0,0,0,0,0,0,0,0,0,0,0,0,0,0,0,0,0,0],"id":53,"left_children":[1,3,5,-1,7,9,11,13,15,-1,17,19,21,-1,-1,-1,-1,-1,-1,-1,-1,-1,-1],"loss_changes":[1.760716E4,9.342926E3,1.5190527E2,0E0,1.9596702E3,1.0437854E2,2.7209082E2,1.257968E3,6.8888245E2,0E0,1.6615356E1,3.1417648E1,1.4047363E2,0E0,0E0,0E0,0E0,0E0,0E0,0E0,0E0,0E0,0E0],"parents":[2147483647,0,0,1,1,2,2,4,4,5,5,6,6,7,7,8,8,10,10,11,11,12,12],"right_children":[2,4,6,-1,8,10,12,14,16,-1,18,20,22,-1,-1,-1,-1,-1,-1,-1,-1,-1,-1],"split_conditions":[8E0,6E0,3.465619E4,1.4592841E-1,9.8E1,8.55E0,3.465935E4,1.0319E1,1.4E1,-3.002104E-1,1E1,1.2653E1,3.471211E4,3.3923533E-2,-2.4282586E-2,5.68903E-2,-7.5619547E-3,-1.5589808E-1,-5.065094E-2,-5.6402974E-2,6.9464976E-3,-1.2039591E-1,-1.6982614E-1],"split_indices":[2,2,8,0,1,0,8,11,11,0,0,11,8,0,0,0,0,0,0,0,0,0,0],"split_type":[0,0,0,0,0,0,0,0,0,0,0,0,0,0,0,0,0,0,0,0,0,0,0],"sum_hessian":[7.2352896E3,5.760055E3,1.4752346E3,9.537355E2,4.80632E3,3.55294E1,1.4397052E3,3.1435283E3,1.6627913E3,1.2613768E1,2.2915632E1,7.0779434E1,1.3689258E3,7.9288824E2,2.3506401E3,1.3321337E3,3.3065765E2,1.723332E1,5.6823115E0,5.5268097E1,1.5511335E1,1.2567329E3,1.1219283E2],"tree_param":{"num_deleted":"0","num_feature":"12","num_nodes":"23","size_leaf_vector":"1"}},{"base_weights":[-5.2385783E-4,7.4319696E-1,-2.9261305E0,1.4010149E-1,1.9453739E-1,-2.183848E-1,-2.8662908E0,-4.4297504E-1,7.806272E-1,-3.7590911E0,-2.7536373E0,-1.4895112E-2,-2.3864788E-1,9.458664E-2,2.2852153E-2,-2.1293251E-1,-1.16908126E-1,-1.9057852E-1,-1.0777406E-1],"categories":[],"categories_nodes":[],"categories_segments":[],"categories_sizes":[],"default_left":[0,0,0,0,0,0,0,0,0,0,0,0,0,0,0,0,0,0,0],"id":54,"left_children":[1,3,5,-1,7,-1,9,11,13,15,17,-1,-1,-1,-1,-1,-1,-1,-1],"loss_changes":[1.5618645E4,8.663371E3,1.8927441E2,0E0,1.7852559E3,0E0,1.2267578E2,8.880924E2,8.2264685E2,1.706831E2,1.2612207E2,0E0,0E0,0E0,0E0,0E0,0E0,0E0,0E0],"parents":[2147483647,0,0,1,1,2,2,4,4,6,6,7,7,8,8,9,9,10,10],"right_children":[2,4,6,-1,8,-1,10,12,14,16,18,-1,-1,-1,-1,-1,-1,-1,-1],"split_conditions":[6.4E2,4.8E2,2.7E1,1.4010149E-1,7.2E1,-2.183848E-1,2.68E0,7.1E1,2.65E0,1E2,3.465619E4,-1.4895112E-2,-2.3864788E-1,9.458664E-2,2.2852153E-2,-2.1293251E-1,-1.16908126E-1,-1.9057852E-1,-1.0777406E-1],"split_indices":[3,3,1,0,1,0,0,1,0,5,8,0,0,0,0,0,0,0,0],"split_type":[0,0,0,0,0,0,0,0,0,0,0,0,0,0,0,0,0,0,0],"sum_hessian":[7.174232E3,5.721306E3,1.4529259E3,9.471408E2,4.7741655E3,2.9361208E1,1.4235647E3,2.286998E3,2.4871675E3,1.5224626E2,1.2713185E3,2.2602427E3,2.6755339E1,2.8790143E2,2.1992659E3,4.9305424E1,1.02940834E2,3.1863464E1,1.239455E3],"tree_param":{"num_deleted":"0","num_feature":"12","num_nodes":"19","size_leaf_vector":"1"}},{"base_weights":[-1.403012E-2,7.0508504E-1,-2.8224204E0,1.3451257E-1,1.7010893E-1,-4.7624035E0,-2.767588E0,-1.9546682E0,3.1811097E-1,-2.832656E-1,-3.0216014E0,-8.4909445E-1,-2.8674343E0,9.170012E-2,-1.1563439E-1,-1.0191805E-2,3.2486666E-2,-1.3178644E-1,-4.0278185E-2,-7.503659E-2,-1.8343836E-2,-1.5009613E-1,-1.093794E-1],"categories":[],"categories_nodes":[],"categories_segments":[],"categories_sizes":[],"default_left":[0,0,0,0,0,0,0,0,0,0,0,0,0,0,0,0,0,0,0,0,0,0,0],"id":55,"left_children":[1,3,5,-1,7,9,11,13,15,-1,17,19,21,-1,-1,-1,-1,-1,-1,-1,-1,-1,-1],"loss_changes":[1.4534976E4,8.1458184E3,1.2971094E2,0E0,1.5018793E3,1.08825806E2,2.6937012E2,1.2499432E3,1.2636282E3,0E0,7.085434E0,2.7816689E1,1.394873E2,0E0,0E0,0E0,0E0,0E0,0E0,0E0,0E0,0E0,0E0],"parents":[2147483647,0,0,1,1,2,2,4,4,5,5,6,6,7,7,8,8,10,10,11,11,12,12],"right_children":[2,4,6,-1,8,10,12,14,16,-1,18,20,22,-1,-1,-1,-1,-1,-1,-1,-1,-1,-1],"split_conditions":[8E0,6E0,3.465619E4,1.3451257E-1,7.6E1,8.55E0,3.465935E4,3.465613E4,1E2,-2.832656E-1,1.3375E1,1.0938E1,3.466326E4,9.170012E-2,-1.1563439E-1,-1.0191805E-2,3.2486666E-2,-1.3178644E-1,-4.0278185E-2,-7.503659E-2,-1.8343836E-2,-1.5009613E-1,-1.093794E-1],"split_indices":[2,2,8,0,10,0,8,8,9,0,11,11,8,0,0,0,0,0,0,0,0,0,0],"split_type":[0,0,0,0,0,0,0,0,0,0,0,0,0,0,0,0,0,0,0,0,0,0,0],"sum_hessian":[7.1931436E3,5.727946E3,1.4651974E3,9.580146E2,4.7699316E3,3.5554913E1,1.4296425E3,3.0902533E2,4.4609062E3,1.2613768E1,2.2941145E1,7.166417E1,1.3579783E3,5.52912E1,2.5373413E2,2.066067E3,2.3948394E3,1.9083864E1,3.8572817E0,1.7648758E1,5.4015408E1,1.7025249E2,1.1877258E3],"tree_param":{"num_deleted":"0","num_feature":"12","num_nodes":"23","size_leaf_vector":"1"}},{"base_weights":[-1.4409167E-4,7.0332295E-1,-2.7209728E0,1.2913884E-1,2.010742E-1,-4.6456795E0,-2.6564503E0,-6.4680465E-2,1.5013559E0,-2.1768995E-1,-3.417227E0,-4.9135656E0,-2.602389E0,-8.879437E-2,4.0876674E-3,4.4044793E-2,1.0037917E-1,-1.8120575E-1,-5.86803E-2,-1.1060531E-1,-2.2085185E-1,-1.7202799E-1,-1.021608E-1],"categories":[],"categories_nodes":[],"categories_segments":[],"categories_sizes":[],"default_left":[0,0,0,0,0,0,0,0,0,0,0,0,0,0,0,0,0,0,0,0,0,0,0],"id":56,"left_children":[1,3,5,-1,7,9,11,13,15,-1,17,19,21,-1,-1,-1,-1,-1,-1,-1,-1,-1,-1],"loss_changes":[1.3718228E4,7.2212217E3,1.581709E2,0E0,1.642348E3,6.92572E0,1.4883301E2,1.4201953E3,3.198971E2,0E0,3.686905E1,1.01779785E1,9.3046875E1,0E0,0E0,0E0,0E0,0E0,0E0,0E0,0E0,0E0,0E0],"parents":[2147483647,0,0,1,1,2,2,4,4,5,5,6,6,7,7,8,8,10,10,11,11,12,12],"right_children":[2,4,6,-1,8,10,12,14,16,-1,18,20,22,-1,-1,-1,-1,-1,-1,-1,-1,-1,-1],"split_conditions":[8E0,6E0,3.2E1,1.2913884E-1,1.33E2,1.175E1,3.8E-1,7.6E1,1.83E2,-2.1768995E-1,2.3E1,4.8E1,3.465619E4,-8.879437E-2,4.0876674E-3,4.4044793E-2,1.0037917E-1,-1.8120575E-1,-5.86803E-2,-1.1060531E-1,-2.2085185E-1,-1.7202799E-1,-1.021608E-1],"split_indices":[2,2,1,0,1,11,0,10,1,0,1,1,8,0,0,0,0,0,0,0,0,0,0],"split_type":[0,0,0,0,0,0,0,0,0,0,0,0,0,0,0,0,0,0,0,0,0,0,0],"sum_hessian":[7.163259E3,5.69286E3,1.4703992E3,9.4265106E2,4.750209E3,4.308777E1,1.4273114E3,3.9456814E3,8.045273E2,2.1976896E1,2.111087E1,2.9181198E1,1.3981302E3,2.8178467E2,3.6638967E3,5.788872E2,2.2564006E2,1.17562475E1,9.354624E0,8.881925E0,2.0299274E1,3.384809E1,1.3642821E3],"tree_param":{"num_deleted":"0","num_feature":"12","num_nodes":"23","size_leaf_vector":"1"}},{"base_weights":[8.634957E-4,6.641656E-1,-2.6168005E0,1.2398373E-1,1.8643515E-1,-4.8082867E0,-2.5711284E0,1.8267367E-2,1.9516203E0,-2.0131242E0,-2.158382E-1,-4.279779E0,-2.5213566E0,1.0417356E-2,-1.0451533E-1,-9.461465E-2,1.0030379E-1,-1.167037E-1,-1.3871337E-2,-2.638001E-1,-1.0936132E-1,5.50813E-3,-1.0324639E-1],"categories":[],"categories_nodes":[],"categories_segments":[],"categories_sizes":[],"default_left":[0,0,0,0,0,0,0,0,0,0,0,0,0,0,0,0,0,0,0,0,0,0,0],"id":57,"left_children":[1,3,5,-1,7,9,11,13,15,17,-1,19,21,-1,-1,-1,-1,-1,-1,-1,-1,-1,-1],"loss_changes":[1.2507366E4,6.685528E3,1.2103516E2,0E0,1.4268142E3,2.3335266E1,1.0010254E2,2.7990198E3,1.0153308E3,9.966949E0,0E0,9.861621E1,2.2258203E2,0E0,0E0,0E0,0E0,0E0,0E0,0E0,0E0,0E0,0E0],"parents":[2147483647,0,0,1,1,2,2,4,4,5,5,6,6,7,7,8,8,9,9,11,11,12,12],"right_children":[2,4,6,-1,8,10,12,14,16,18,-1,20,22,-1,-1,-1,-1,-1,-1,-1,-1,-1,-1],"split_conditions":[8E0,6E0,2.8E-1,1.2398373E-1,3.471426E4,6E1,3.465619E4,3.471111E4,1E2,9.188E0,-2.158382E-1,8.55E0,3.465715E4,1.0417356E-2,-1.0451533E-1,-9.461465E-2,1.0030379E-1,-1.167037E-1,-1.3871337E-2,-2.638001E-1,-1.0936132E-1,5.50813E-3,-1.0324639E-1],"split_indices":[2,2,0,0,8,7,8,8,5,11,0,0,8,0,0,0,0,0,0,0,0,0,0],"split_type":[0,0,0,0,0,0,0,0,0,0,0,0,0,0,0,0,0,0,0,0,0,0,0],"sum_hessian":[7.199448E3,5.7451504E3,1.454298E3,9.403504E2,4.8048E3,2.5432064E1,1.4288658E3,4.3887114E3,4.1608835E2,5.9557257E0,1.9476337E1,3.563273E1,1.3932332E3,4.020476E3,3.682356E2,4.6730453E1,3.6935788E2,2.8869374E0,3.0687883E0,1.16500845E1,2.3982643E1,3.0587816E1,1.3626454E3],"tree_param":{"num_deleted":"0","num_feature":"12","num_nodes":"23","size_leaf_vector":"1"}},{"base_weights":[-4.1675366E-2,5.8727175E-1,-2.5089362E0,1.1903345E-1,1.1812286E-1,-2.4140368E0,-3.558115E0,-1.963434E0,2.6288256E-1,-2.5651605E0,-1.3161057E0,-4.2352896E0,-2.4960454E0,1.0266307E-1,-1.1612335E-1,2.3366531E-2,-2.2425877E-2,-1.1145273E-1,-8.629875E-2,-5.6903385E-2,3.8817164E-3,-1.9236068E-1,-1.1594568E-1,4.0784206E-2,-1.1023693E-1],"categories":[],"categories_nodes":[],"categories_segments":[],"categories_sizes":[],"default_left":[0,0,0,0,0,0,0,0,0,0,0,0,0,0,0,0,0,0,0,0,0,0,0,0,0],"id":58,"left_children":[1,3,5,-1,7,9,11,13,15,17,19,21,23,-1,-1,-1,-1,-1,-1,-1,-1,-1,-1,-1,-1],"loss_changes":[1.1117217E4,6.396758E3,1.2771973E2,0E0,1.4395121E3,2.1571729E2,6.2640137E1,1.3371843E3,1.182076E3,9.405176E1,2.5303955E1,2.4472534E1,5.150937E1,0E0,0E0,0E0,0E0,0E0,0E0,0E0,0E0,0E0,0E0,0E0,0E0],"parents":[2147483647,0,0,1,1,2,2,4,4,5,5,6,6,7,7,8,8,9,9,10,10,11,11,12,12],"right_children":[2,4,6,-1,8,10,12,14,16,18,20,22,24,-1,-1,-1,-1,-1,-1,-1,-1,-1,-1,-1,-1],"split_conditions":[8E0,6E0,3.471211E4,1.1903345E-1,7.6E1,3.470614E4,3.73E0,3.465613E4,3.470315E4,2.125E1,3.471126E4,1.1917E1,9.917E0,1.0266307E-1,-1.1612335E-1,2.3366531E-2,-2.2425877E-2,-1.1145273E-1,-8.629875E-2,-5.6903385E-2,3.8817164E-3,-1.9236068E-1,-1.1594568E-1,4.0784206E-2,-1.1023693E-1],"split_indices":[2,2,8,0,10,8,0,8,8,0,8,11,11,0,0,0,0,0,0,0,0,0,0,0,0],"split_type":[0,0,0,0,0,0,0,0,0,0,0,0,0,0,0,0,0,0,0,0,0,0,0,0,0],"sum_hessian":[7.160287E3,5.7069995E3,1.4532881E3,9.351599E2,4.7718394E3,1.3387943E3,1.1449368E2,3.0864108E2,4.463198E3,1.1744637E3,1.6433063E2,6.626661E1,4.8227077E1,5.242751E1,2.5621356E2,3.2110598E3,1.2521384E3,7.538558E2,4.2060797E2,1.5280371E2,1.1526914E1,4.273002E1,2.353659E1,2.9171278E0,4.5309948E1],"tree_param":{"num_deleted":"0","num_feature":"12","num_nodes":"25","size_leaf_vector":"1"}},{"base_weights":[1.462408E-2,6.34795E-1,-2.4482179E0,1.1428617E-1,1.917644E-1,-2.3447316E0,-3.6313052E0,-6.800951E-1,6.06732E-1,-2.5523307E0,-1.6903082E0,-4.30436E0,-2.4294531E0,-3.4568716E-2,4.39451E-2,1.8292794E-2,1.2002685E-1,-9.85981E-2,-2.3847039E-1,1.9882139E-2,-7.711319E-2,-9.777874E-2,-1.8717623E-1,-1.2054621E-1,-2.3170117E-2],"categories":[],"categories_nodes":[],"categories_segments":[],"categories_sizes":[],"default_left":[0,0,0,0,0,0,0,0,0,0,0,0,0,0,0,0,0,0,0,0,0,0,0,0,0],"id":59,"left_children":[1,3,5,-1,7,9,11,13,15,17,19,21,23,-1,-1,-1,-1,-1,-1,-1,-1,-1,-1,-1,-1],"loss_changes":[1.0957539E4,5.6414033E3,1.5965625E2,0E0,1.7303724E3,1.7242773E2,7.003406E1,5.070802E2,1.1561364E3,2.7084766E2,1.7174011E2,2.5588135E1,4.509781E1,0E0,0E0,0E0,0E0,0E0,0E0,0E0,0E0,0E0,0E0,0E0,0E0],"parents":[2147483647,0,0,1,1,2,2,4,4,5,5,6,6,7,7,8,8,9,9,10,10,11,11,12,12],"right_children":[2,4,6,-1,8,10,12,14,16,18,20,22,24,-1,-1,-1,-1,-1,-1,-1,-1,-1,-1,-1,-1],"split_conditions":[8E0,6E0,3.471211E4,1.1428617E-1,5E1,3.469532E4,4.18E0,3.47143E4,3.920619E4,3.469516E4,3.469635E4,6.5E1,1.3E2,-3.4568716E-2,4.39451E-2,1.8292794E-2,1.2002685E-1,-9.85981E-2,-2.3847039E-1,1.9882139E-2,-7.711319E-2,-9.777874E-2,-1.8717623E-1,-1.2054621E-1,-2.3170117E-2],"split_indices":[2,2,8,0,1,8,0,8,8,8,8,1,1,0,0,0,0,0,0,0,0,0,0,0,0],"split_type":[0,0,0,0,0,0,0,0,0,0,0,0,0,0,0,0,0,0,0,0,0,0,0,0,0],"sum_hessian":[7.170026E3,5.7289077E3,1.441118E3,9.5042505E2,4.778483E3,1.3306849E3,1.1043315E2,1.540522E3,3.237961E3,1.0058154E3,3.2486948E2,6.7480316E1,4.295283E1,1.3969465E3,1.4357538E2,3.049985E3,1.8797565E2,9.8404193E2,2.17735E1,3.1607485E1,2.9326196E2,1.3847037E1,5.363328E1,3.1689268E1,1.1263563E1],"tree_param":{"num_deleted":"0","num_feature":"12","num_nodes":"25","size_leaf_vector":"1"}},{"base_weights":[-1.6496811E-2,5.8126E-1,-2.3444664E0,1.0972429E-1,1.5273938E-1,-2.6041176E0,-1.9908103E0,-8.413781E-1,4.8344687E-1,-1.9830017E-1,-2.528784E0,-2.397374E0,-1.7302588E0,-7.987985E-2,-2.375876E-2,-6.176174E-3,4.2561878E-2,-9.7133E-2,-1.3990304E-1,-4.515016E-2,-1.0827795E-1,-1.981422E-2,-8.50009E-2],"categories":[],"categories_nodes":[],"categories_segments":[],"categories_sizes":[],"default_left":[0,0,0,0,0,0,0,0,0,0,0,0,0,0,0,0,0,0,0,0,0,0,0],"id":60,"left_children":[1,3,5,-1,7,9,11,13,15,-1,17,19,21,-1,-1,-1,-1,-1,-1,-1,-1,-1,-1],"loss_changes":[1.0071917E4,5.334402E3,1.2542285E2,0E0,1.5816748E3,1.24953125E2,5.892163E1,3.4102075E2,1.337049E3,0E0,6.321338E1,8.918347E1,1.8992017E2,0E0,0E0,0E0,0E0,0E0,0E0,0E0,0E0,0E0,0E0],"parents":[2147483647,0,0,1,1,2,2,4,4,5,5,6,6,7,7,8,8,10,10,11,11,12,12],"right_children":[2,4,6,-1,8,10,12,14,16,-1,18,20,22,-1,-1,-1,-1,-1,-1,-1,-1,-1,-1],"split_conditions":[8E0,6E0,1.1917E1,1.0972429E-1,4E1,3.2E1,3.467526E4,1.2E1,1E2,-1.9830017E-1,3.471211E4,3.465915E4,3.468715E4,-7.987985E-2,-2.375876E-2,-6.176174E-3,4.2561878E-2,-9.7133E-2,-1.3990304E-1,-4.515016E-2,-1.0827795E-1,-1.981422E-2,-8.50009E-2],"split_indices":[2,2,11,0,1,1,8,1,9,0,8,8,8,0,0,0,0,0,0,0,0,0,0],"split_type":[0,0,0,0,0,0,0,0,0,0,0,0,0,0,0,0,0,0,0,0,0,0,0],"sum_hessian":[7.2339023E3,5.757134E3,1.4767687E3,9.506069E2,4.806527E3,8.442219E2,6.325467E2,1.1990513E3,3.6074756E3,2.216555E1,8.220564E2,2.4064412E2,3.919026E2,2.0894606E2,9.901053E2,1.7196855E3,1.88779E3,7.5117633E2,7.0880066E1,4.902691E1,1.916172E2,9.602525E1,2.9587735E2],"tree_param":{"num_deleted":"0","num_feature":"12","num_nodes":"23","size_leaf_vector":"1"}},{"base_weights":[-1.3850673E-2,5.5178326E-1,-2.235205E0,1.0534387E-1,1.4162484E-1,-3.244189E0,-2.1495583E0,-6.992387E-1,5.0789344E-1,-3.553191E0,-7.422828E-1,-5.768553E-1,-2.2029803E0,-2.3946967E-2,-1.8840192E-1,6.27351E-2,5.833362E-3,-1.0414029E-1,-1.7982142E-1,2.0916019E-2,-1.1263532E-1,3.723807E-2,-7.0552155E-2,-1.0237566E-1,-7.753418E-2],"categories":[],"categories_nodes":[],"categories_segments":[],"categories_sizes":[],"default_left":[0,0,0,0,0,0,0,0,0,0,0,0,0,0,0,0,0,0,0,0,0,0,0,0,0],"id":61,"left_children":[1,3,5,-1,7,9,11,13,15,17,19,21,23,-1,-1,-1,-1,-1,-1,-1,-1,-1,-1,-1,-1],"loss_changes":[9.100679E3,4.9287173E3,1.1308594E2,0E0,1.4867156E3,8.060791E1,1.1179785E2,5.851956E2,1.2904629E3,6.4607544E1,4.1615536E1,8.814871E1,1.1415039E2,0E0,0E0,0E0,0E0,0E0,0E0,0E0,0E0,0E0,0E0,0E0,0E0],"parents":[2147483647,0,0,1,1,2,2,4,4,5,5,6,6,7,7,8,8,9,9,10,10,11,11,12,12],"right_children":[2,4,6,-1,8,10,12,14,16,18,20,22,24,-1,-1,-1,-1,-1,-1,-1,-1,-1,-1,-1,-1],"split_conditions":[8E0,6E0,5E1,1.0534387E-1,4.8E1,1.3375E1,5.5E1,4.7E1,1.0528E1,1.1188E1,3.470831E4,3.466724E4,3.468016E4,-2.3946967E-2,-1.8840192E-1,6.27351E-2,5.833362E-3,-1.0414029E-1,-1.7982142E-1,2.0916019E-2,-1.1263532E-1,3.723807E-2,-7.0552155E-2,-1.0237566E-1,-7.753418E-2],"split_indices":[2,2,1,0,1,11,1,1,11,11,8,8,8,0,0,0,0,0,0,0,0,0,0,0,0],"split_type":[0,0,0,0,0,0,0,0,0,0,0,0,0,0,0,0,0,0,0,0,0,0,0,0,0],"sum_hessian":[7.23907E3,5.771061E3,1.4680092E3,9.480853E2,4.8229756E3,1.09089745E2,1.3589194E3,1.4628376E3,3.3601377E3,9.634955E1,1.2740198E1,4.5418663E1,1.3135007E3,1.4292988E3,3.353882E1,8.535111E2,2.5066267E3,5.1736107E1,4.4613445E1,8.841387E0,3.898811E0,2.019538E1,2.5223282E1,5.522966E2,7.612042E2],"tree_param":{"num_deleted":"0","num_feature":"12","num_nodes":"25","size_leaf_vector":"1"}},{"base_weights":[2.2568835E-2,5.744056E-1,-2.1597733E0,1.01141386E-1,1.8260023E-1,-2.069093E0,-3.1974528E0,-7.938566E-1,5.0178236E-1,-2.2289546E0,-9.9976945E-1,-3.8499331E0,-2.2842653E0,-7.803832E-2,-2.266361E-2,-7.208247E-3,4.5820396E-2,-8.675795E-2,-1.6952339E-1,-1.5870295E-1,-3.5549615E-2,-5.1918544E-2,-1.7243443E-1,-1.3537307E-1,8.122233E-3],"categories":[],"categories_nodes":[],"categories_segments":[],"categories_sizes":[],"default_left":[0,0,0,0,0,0,0,0,0,0,0,0,0,0,0,0,0,0,0,0,0,0,0,0,0],"id":62,"left_children":[1,3,5,-1,7,9,11,13,15,17,19,21,23,-1,-1,-1,-1,-1,-1,-1,-1,-1,-1,-1,-1],"loss_changes":[8.686839E3,4.40709E3,1.2375781E2,0E0,1.4961487E3,2.2537842E2,4.993799E1,3.088158E2,1.5884006E3,1.2243164E2,5.176126E1,6.3129883E1,1.4406104E2,0E0,0E0,0E0,0E0,0E0,0E0,0E0,0E0,0E0,0E0,0E0,0E0],"parents":[2147483647,0,0,1,1,2,2,4,4,5,5,6,6,7,7,8,8,9,9,10,10,11,11,12,12],"right_children":[2,4,6,-1,8,10,12,14,16,18,20,22,24,-1,-1,-1,-1,-1,-1,-1,-1,-1,-1,-1,-1],"split_conditions":[6.4E2,4.8E2,3.471211E4,1.01141386E-1,4E1,3.470421E4,3.73E0,1.2E1,1E2,3.470025E4,2.7E1,6.5E1,1.3E2,-7.803832E-2,-2.266361E-2,-7.208247E-3,4.5820396E-2,-8.675795E-2,-1.6952339E-1,-1.5870295E-1,-3.5549615E-2,-5.1918544E-2,-1.7243443E-1,-1.3537307E-1,8.122233E-3],"split_indices":[3,3,8,0,1,8,0,1,9,8,1,1,1,0,0,0,0,0,0,0,0,0,0,0,0],"split_type":[0,0,0,0,0,0,0,0,0,0,0,0,0,0,0,0,0,0,0,0,0,0,0,0,0],"sum_hessian":[7.209144E3,5.755305E3,1.4538386E3,9.593985E2,4.7959067E3,1.3425079E3,1.1133064E2,1.1807444E3,3.6151624E3,1.1660215E3,1.7648643E2,6.1183002E1,5.0147636E1,1.9134804E2,9.893963E2,1.7561125E3,1.8590499E3,1.136245E3,2.9776503E1,3.859266E0,1.7262717E2,1.0527655E1,5.0655346E1,3.426991E1,1.587773E1],"tree_param":{"num_deleted":"0","num_feature":"12","num_nodes":"25","size_leaf_vector":"1"}},{"base_weights":[2.0218665E-2,5.537745E-1,-2.05875E0,9.7100526E-2,1.8033984E-1,-4.315341E0,-2.0082211E0,-1.8840078E0,3.232152E-1,-2.467646E0,-1.9830015E-1,-1.5988351E-1,-1.9608458E0,2.0811544E-1,-8.737518E-2,-1.1144818E-2,3.3623364E-2,1.2912428E-4,-1.3389076E-1,-6.832222E-2,-9.332763E-2],"categories":[],"categories_nodes":[],"categories_segments":[],"categories_sizes":[],"default_left":[0,0,0,0,0,0,0,0,0,0,0,0,0,0,0,0,0,0,0,0,0],"id":63,"left_children":[1,3,5,-1,7,9,11,13,15,17,-1,-1,19,-1,-1,-1,-1,-1,-1,-1,-1],"loss_changes":[7.926097E3,3.9777969E3,1.4906396E2,0E0,1.4002415E3,1.1390137E1,1.1916699E2,6.769523E2,1.3823376E3,2.5616676E1,0E0,0E0,1.2396826E2,0E0,0E0,0E0,0E0,0E0,0E0,0E0,0E0],"parents":[2147483647,0,0,1,1,2,2,4,4,5,5,6,6,7,7,8,8,9,9,12,12],"right_children":[2,4,6,-1,8,10,12,14,16,18,-1,-1,20,-1,-1,-1,-1,-1,-1,-1,-1],"split_conditions":[8E0,6E0,3.8E-1,9.7100526E-2,7.6E1,4.8E1,2.7E1,6.4E1,1E2,6E1,-1.9830015E-1,-1.5988351E-1,1.32E2,2.0811544E-1,-8.737518E-2,-1.1144818E-2,3.3623364E-2,1.2912428E-4,-1.3389076E-1,-6.832222E-2,-9.332763E-2],"split_indices":[2,2,0,0,10,1,1,10,9,7,0,0,1,0,0,0,0,0,0,0,0],"split_type":[0,0,0,0,0,0,0,0,0,0,0,0,0,0,0,0,0,0,0,0,0],"sum_hessian":[7.1414277E3,5.6841016E3,1.457326E3,9.427543E2,4.7413477E3,2.822021E1,1.4291058E3,3.053336E2,4.436014E3,9.776297E0,1.8443913E1,2.9370136E1,1.3997357E3,1.1087807E1,2.942458E2,2.05104E3,2.3849739E3,3.0897655E0,6.686531E0,8.403705E2,5.5936523E2],"tree_param":{"num_deleted":"0","num_feature":"12","num_nodes":"21","size_leaf_vector":"1"}},{"base_weights":[7.760869E-3,5.089322E-1,-1.9581679E0,9.322863E-2,1.4472727E-1,-3.6705077E0,-1.9095213E0,-3.3759855E-2,1.6146127E0,-2.3950097E-1,-2.0828674E0,-2.8563982E-1,-1.9941503E0,-7.527506E-2,4.30757E-3,9.0604894E-2,3.1825546E-2,-9.699157E-2,-6.211303E-3,1.9185467E-2,-3.4057867E-2,-9.750227E-2,-7.129105E-2],"categories":[],"categories_nodes":[],"categories_segments":[],"categories_sizes":[],"default_left":[0,0,0,0,0,0,0,0,0,0,0,0,0,0,0,0,0,0,0,0,0,0,0],"id":64,"left_children":[1,3,5,-1,7,9,11,13,15,-1,17,19,21,-1,-1,-1,-1,-1,-1,-1,-1,-1,-1],"loss_changes":[7.1517583E3,3.8371104E3,1.08811035E2,0E0,1.2653389E3,1.1692267E2,1.96479E2,1.1251E3,2.746156E2,0E0,1.635102E1,3.2669502E1,1.19680664E2,0E0,0E0,0E0,0E0,0E0,0E0,0E0,0E0,0E0,0E0],"parents":[2147483647,0,0,1,1,2,2,4,4,5,5,6,6,7,7,8,8,10,10,11,11,12,12],"right_children":[2,4,6,-1,8,10,12,14,16,-1,18,20,22,-1,-1,-1,-1,-1,-1,-1,-1,-1,-1],"split_conditions":[6.4E2,4.8E2,3.465619E4,9.322863E-2,1.52E2,8.55E0,3.465935E4,7.6E1,3.469635E4,-2.3950097E-1,1.87E2,3.465715E4,3.467412E4,-7.527506E-2,4.30757E-3,9.0604894E-2,3.1825546E-2,-9.699157E-2,-6.211303E-3,1.9185467E-2,-3.4057867E-2,-9.750227E-2,-7.129105E-2],"split_indices":[3,3,8,0,1,0,8,10,8,0,1,8,8,0,0,0,0,0,0,0,0,0,0],"split_type":[0,0,0,0,0,0,0,0,0,0,0,0,0,0,0,0,0,0,0,0,0,0,0],"sum_hessian":[7.2546772E3,5.78213E3,1.4725475E3,9.615544E2,4.8205757E3,3.6565086E1,1.4359824E3,4.3003423E3,5.202334E2,1.2613768E1,2.3951319E1,7.15631E1,1.3644193E3,3.0398523E2,3.996357E3,2.8796875E2,2.3226465E2,1.9904673E1,4.0466447E0,3.0548979E1,4.1014126E1,4.3436942E2,9.300499E2],"tree_param":{"num_deleted":"0","num_feature":"12","num_nodes":"23","size_leaf_vector":"1"}},{"base_weights":[-4.1664396E-3,4.8542443E-1,-1.9273456E0,8.950486E-2,1.3631564E-1,-4.0503135E0,-1.8772049E0,-4.6266735E-2,1.6737773E0,-2.3961537E0,-4.8732204E0,-3.414199E0,-1.8137962E0,3.3922616E-2,-1.4429525E-2,7.815034E-2,1.21850055E-2,-2.2951577E-2,-1.19074084E-1,-2.1199454E-1,-7.824153E-2,-9.74645E-2,-1.8083273E-1,-8.0622435E-2,-5.536513E-2],"categories":[],"categories_nodes":[],"categories_segments":[],"categories_sizes":[],"default_left":[0,0,0,0,0,0,0,0,0,0,0,0,0,0,0,0,0,0,0,0,0,0,0,0,0],"id":65,"left_children":[1,3,5,-1,7,9,11,13,15,17,19,21,23,-1,-1,-1,-1,-1,-1,-1,-1,-1,-1,-1,-1],"loss_changes":[6.769495E3,3.5049045E3,1.400874E2,0E0,1.3421731E3,2.0114563E1,1.2687842E2,1.2029807E3,1.9336414E2,1.197422E1,3.3995056E0,3.676465E1,1.13760254E2,0E0,0E0,0E0,0E0,0E0,0E0,0E0,0E0,0E0,0E0,0E0,0E0],"parents":[2147483647,0,0,1,1,2,2,4,4,5,5,6,6,7,7,8,8,9,9,10,10,11,11,12,12],"right_children":[2,4,6,-1,8,10,12,14,16,18,20,22,24,-1,-1,-1,-1,-1,-1,-1,-1,-1,-1,-1,-1],"split_conditions":[6.4E2,4.8E2,3.8E-1,8.950486E-2,1.52E2,1E1,3.6E1,1.0528E1,3.471111E4,4.8E1,1.6958E1,3.469413E4,2.305E1,3.3922616E-2,-1.4429525E-2,7.815034E-2,1.21850055E-2,-2.2951577E-2,-1.19074084E-1,-2.1199454E-1,-7.824153E-2,-9.74645E-2,-1.8083273E-1,-8.0622435E-2,-5.536513E-2],"split_indices":[3,3,0,0,1,11,1,11,8,1,11,8,0,0,0,0,0,0,0,0,0,0,0,0,0],"split_type":[0,0,0,0,0,0,0,0,0,0,0,0,0,0,0,0,0,0,0,0,0,0,0,0,0],"sum_hessian":[7.185588E3,5.728705E3,1.4568826E3,9.499637E2,4.7787417E3,2.9933548E1,1.426949E3,4.273213E3,5.055287E2,1.25433235E1,1.7390226E1,5.2348984E1,1.3746E3,1.1107975E3,3.1624153E3,4.189937E2,8.653498E1,3.9919336E0,8.55139E0,1.3746261E1,3.6439648E0,3.1195024E1,2.115396E1,9.303442E2,4.4425583E2],"tree_param":{"num_deleted":"0","num_feature":"12","num_nodes":"25","size_leaf_vector":"1"}},{"base_weights":[-2.129748E-3,4.6270794E-1,-1.8109457E0,8.593475E-2,1.21691346E-1,-3.697107E0,-1.7679486E0,1.7494339E0,-3.220323E-2,-1.4761627E0,-4.3209486E0,-4.3638933E-1,-1.8154604E0,8.114191E-2,-4.5757502E-2,-7.097809E-2,3.939849E-3,-7.733571E-2,5.581882E-3,-1.9284245E-1,-8.045184E-2,-3.43422E-2,1.53053515E-2,-1.3052928E-1,-6.890576E-2],"categories":[],"categories_nodes":[],"categories_segments":[],"categories_sizes":[],"default_left":[0,0,0,0,0,0,0,0,0,0,0,0,0,0,0,0,0,0,0,0,0,0,0,0,0],"id":66,"left_children":[1,3,5,-1,7,9,11,13,15,17,19,21,23,-1,-1,-1,-1,-1,-1,-1,-1,-1,-1,-1,-1],"loss_changes":[6.070553E3,3.301263E3,1.0663721E2,0E0,1.1973782E3,3.0285614E1,8.996045E1,3.380746E2,9.9512994E2,7.816555E0,7.422882E0,1.8804562E1,1.7641797E2,0E0,0E0,0E0,0E0,0E0,0E0,0E0,0E0,0E0,0E0,0E0,0E0],"parents":[2147483647,0,0,1,1,2,2,4,4,5,5,6,6,7,7,8,8,9,9,10,10,11,11,12,12],"right_children":[2,4,6,-1,8,10,12,14,16,18,20,22,24,-1,-1,-1,-1,-1,-1,-1,-1,-1,-1,-1,-1],"split_conditions":[8E0,6E0,3.8E-1,8.593475E-2,1.75E0,9.812E0,1.15E0,2.2562E1,7.6E1,9.667E0,1.475E1,1.1042E1,2.68E0,8.114191E-2,-4.5757502E-2,-7.097809E-2,3.939849E-3,-7.733571E-2,5.581882E-3,-1.9284245E-1,-8.045184E-2,-3.43422E-2,1.53053515E-2,-1.3052928E-1,-6.890576E-2],"split_indices":[2,2,0,0,0,11,0,11,10,11,11,11,0,0,0,0,0,0,0,0,0,0,0,0,0],"split_type":[0,0,0,0,0,0,0,0,0,0,0,0,0,0,0,0,0,0,0,0,0,0,0,0,0],"sum_hessian":[7.2159297E3,5.741851E3,1.4740785E3,9.643625E2,4.777489E3,2.9065966E1,1.4450125E3,4.1087973E2,4.366609E3,7.850349E0,2.1215616E1,5.04854E1,1.3945271E3,3.752759E2,3.5603813E1,3.0295862E2,4.0636504E3,5.812286E0,2.038063E0,1.5651798E1,5.5638175E0,3.3250095E1,1.7235306E1,7.990075E1,1.3146263E3],"tree_param":{"num_deleted":"0","num_feature":"12","num_nodes":"25","size_leaf_vector":"1"}},{"base_weights":[-2.1214359E-2,4.2872438E-1,-1.7884387E0,8.250441E-2,9.69014E-2,-3.5627136E0,-1.7472974E0,-1.5066483E0,2.0777288E-1,-2.6166933E0,-1.9083264E-1,-1.9770668E0,-1.490082E0,6.5939866E-2,-9.382234E-2,-1.0782709E-2,2.4690045E-2,-5.866758E-2,-1.3238943E-1,-9.188577E-2,-6.267112E-2,-1.0531376E-1,-5.6207404E-2],"categories":[],"categories_nodes":[],"categories_segments":[],"categories_sizes":[],"default_left":[0,0,0,0,0,0,0,0,0,0,0,0,0,0,0,0,0,0,0,0,0,0,0],"id":67,"left_children":[1,3,5,-1,7,9,11,13,15,17,-1,19,21,-1,-1,-1,-1,-1,-1,-1,-1,-1,-1],"loss_changes":[5.7125576E3,3.1042559E3,9.397363E1,0E0,8.4723254E2,1.0593658E1,7.855176E1,8.2348517E2,8.712457E2,7.7295837E0,0E0,9.1105225E1,5.879248E1,0E0,0E0,0E0,0E0,0E0,0E0,0E0,0E0,0E0,0E0],"parents":[2147483647,0,0,1,1,2,2,4,4,5,5,6,6,7,7,8,8,9,9,11,11,12,12],"right_children":[2,4,6,-1,8,10,12,14,16,18,-1,20,22,-1,-1,-1,-1,-1,-1,-1,-1,-1,-1],"split_conditions":[8E0,6E0,3.8E-1,8.250441E-2,7.6E1,7E1,1.1681E1,7E1,1E2,1.0667E1,-1.9083264E-1,1.295E1,8.2E1,6.5939866E-2,-9.382234E-2,-1.0782709E-2,2.4690045E-2,-5.866758E-2,-1.3238943E-1,-9.188577E-2,-6.267112E-2,-1.0531376E-1,-5.6207404E-2],"split_indices":[2,2,0,0,10,7,11,10,9,11,0,0,10,0,0,0,0,0,0,0,0,0,0],"split_type":[0,0,0,0,0,0,0,0,0,0,0,0,0,0,0,0,0,0,0,0,0,0,0],"sum_hessian":[7.180389E3,5.724448E3,1.4559408E3,9.6455896E2,4.7598896E3,2.9115149E1,1.4268257E3,3.061934E2,4.4536963E3,1.987987E1,9.23528E0,7.4655707E2,6.802686E2,6.3907364E1,2.4228601E2,2.0567578E3,2.3969385E3,9.819102E0,1.0060767E1,4.1421725E2,3.323398E2,4.2892025E1,6.373766E2],"tree_param":{"num_deleted":"0","num_feature":"12","num_nodes":"23","size_leaf_vector":"1"}},{"base_weights":[2.9077856E-3,4.3199655E-1,-1.6757339E0,7.921118E-2,1.1952456E-1,-3.1529164E0,-1.6141835E0,-1.4097267E-1,1.1063172E0,-2.0117998E0,-3.9390557E0,-1.9999268E0,-1.3884556E0,-9.301632E-3,1.2981115E-1,7.0654064E-2,9.450261E-3,1.894755E-2,-9.625999E-2,-1.6717754E-1,-5.6699514E-2,-7.140738E-2,-2.664559E-1,-5.0140098E-2,-9.4181284E-2],"categories":[],"categories_nodes":[],"categories_segments":[],"categories_sizes":[],"default_left":[0,0,0,0,0,0,0,0,0,0,0,0,0,0,0,0,0,0,0,0,0,0,0,0,0],"id":68,"left_children":[1,3,5,-1,7,9,11,13,15,17,19,21,23,-1,-1,-1,-1,-1,